           0            0           -0           -0           -0           -0            0            0           -0           -0            0            0           -0           -0            0            0          -13          -13            0            1
           0            0           -0           -0     -6.19521     -6.19521      12.3904     0.476554   -0.0342262   -0.0342262    0.0684525   0.00263279     -6.77057     -6.77057      13.5411     0.520813           -0           -0            0            0
           0            0           -0           -0    -0.558958    -0.408469     0.150489    0.0429968    -0.782956     -0.57216     0.210796    0.0602274    -0.500633    -0.365847     0.134786    0.0385102     -11.1575     -8.15352      3.00393     0.858266
          -0           -0            0            0     -6.08736     -4.44845      10.5358     0.468258 -0.000946128 -0.000691401   0.00163753  7.27791e-05     -6.06283     -4.43053      10.4934     0.466372    -0.848865    -0.620324      1.46919    0.0652973
           0           -0           -0           -0     -1.10826     0.809883     0.298378    0.0852509     -11.3585      8.30044      3.05806     0.873731           -0            0            0            0    -0.533236     0.389673     0.143564    0.0410182
           0           -0           -0           -0     -10.7176       7.8321      18.5497     0.824431      -2.1443      1.56699      3.71129     0.164946   -0.0913284      0.06674     0.158068   0.00702526   -0.0467591    0.0341701    0.0809291   0.00359685
          -0            0            0            0           -0            0            0            0          -13           13            0            1           -0            0            0            0           -0            0            0            0
           0           -0           -0           -0      -11.611       11.611       23.222     0.893155     -1.38899      1.38899      2.77798     0.106845           -0            0            0            0           -0            0            0            0
          -0           -0            0            0    -0.402987    -0.551456     0.148469    0.0424197   -0.0453137   -0.0620082    0.0166945   0.00476986     -1.53023     -2.09399     0.563767     0.161076     -7.52147     -10.2925      2.77107     0.791734
           0            0           -0           -0     -4.09576     -5.60472      9.70048     0.431133   -0.0233256   -0.0319193    0.0552449   0.00245533     -4.78088     -6.54225      11.3231      0.50325    -0.600038    -0.821104      1.42114    0.0631619
           0            0           -0           -0   -0.0508921   -0.0508921            0   0.00535706    -0.645024    -0.645024            0    0.0678973    -0.103276    -0.103276            0    0.0108712     -8.70081     -8.70081            0     0.915874
          -0           -0            0            0     -0.31605     -0.31605      0.11644    0.0332685    -0.434043    -0.434043     0.159911    0.0456888    -0.486464    -0.486464     0.179224    0.0512068     -8.26344     -8.26344      3.04443     0.869836
           0            0           -0           -0     -4.29939     -4.29939      10.1828     0.452568  -0.00546048  -0.00546048    0.0129327  0.000574788     -4.58903     -4.58903      10.8687     0.483055     -0.60612     -0.60612      1.43555    0.0638021
           0            0           -0           -0      -4.4462      -4.4462      12.1685     0.468021  -0.00672068  -0.00672068    0.0183934   0.00070744     -4.64021     -4.64021      12.6995     0.488443    -0.406869    -0.406869      1.11354    0.0428283
           0           -0           -0           -0    -0.214073     0.214073            0     0.022534     -8.21713      8.21713            0     0.864961  -0.00648255   0.00648255            0  0.000682374     -1.06231      1.06231            0     0.111822
           0           -0           -0           -0    -0.535075     0.535075     0.197133    0.0563237     -8.24969      8.24969      3.03936     0.868388           -0            0            0            0    -0.715236     0.715236     0.263508     0.075288
           0           -0           -0           -0     -7.77616      7.77616      18.4172     0.818543      -1.3336       1.3336      3.15852     0.140378    -0.332978     0.332978     0.788632    0.0350503   -0.0572637    0.0572637     0.135624   0.00602776
           0           -0           -0           -0     -8.04227      8.04227      22.0104     0.846555    -0.955839     0.955839      2.61598     0.100615     -0.43746      0.43746      1.19726    0.0460485   -0.0644265    0.0644265     0.176325   0.00678173
           0           -0           -0           -0    -0.678175     0.928028     0.249854    0.0713868     -8.26076      11.3042      3.04344     0.869553           -0            0            0            0    -0.561068     0.767777     0.206709    0.0590598
          -0            0            0            0     -7.51383      10.2821      17.7959      0.79093     -1.31064      1.79351      3.10416     0.137963    -0.574841     0.786624      1.36146    0.0605095    -0.100684     0.137779     0.238463    0.0105984
           0           -0            0            0            0           -0            0            0            0           -0            0            0          9.5          -13          3.5            1            0           -0            0            0
          -0            0           -0           -0     0.805709     -1.10255      1.90826    0.0848115            0           -0            0            0      8.69429     -11.8975      20.5917     0.915189            0           -0            0            0
           0           -0            0            0            0           -0            0            0            0           -0            0            0            0           -0            0            0          9.5         -9.5            0            1
          -0            0           -0           -0    0.0109339   -0.0109339   0.00402827   0.00115093   0.00810565  -0.00810565   0.00298629  0.000853226      5.98724     -5.98724      2.20582     0.630236      3.49372     -3.49372      1.28716      0.36776
          -0            0           -0           -0     0.756079    -0.756079      1.79071    0.0795873    0.0029888   -0.0029888   0.00707873   0.00031461      8.72747     -8.72747      20.6703     0.918681    0.0134636   -0.0134636    0.0318875   0.00141722
           0           -0            0            0     0.994268    -0.994268      2.72116      0.10466   0.00887018  -0.00887018    0.0242763  0.000933704      8.42579     -8.42579        23.06     0.886925    0.0710764   -0.0710764     0.194525   0.00748173
          -0           -0           -0           -0    0.0712653    0.0712653            0   0.00750161      1.42401      1.42401            0     0.149896      1.87315      1.87315            0     0.197174      6.13157      6.13157            0     0.645429
          -0           -0           -0           -0     0.222875     0.222875     0.082112    0.0234606      1.40947      1.40947     0.519278     0.148365      2.77141      2.77141      1.02105     0.291728      5.09624      5.09624      1.87756     0.536447
          -0           -0           -0           -0      2.91198      2.91198       6.8968     0.306524     0.361945     0.361945     0.857238    0.0380995      5.53985      5.53985      13.1207     0.583142     0.686227     0.686227      1.62527    0.0722344
           0            0            0            0      3.05239      3.05239      8.35391     0.321304     0.284672     0.284672     0.779101    0.0299654      5.68398      5.68398      15.5562     0.598314     0.478958     0.478958      1.31083    0.0504167
          -0           -0           -0           -0     0.344856     0.471908     0.127052    0.0363006      1.49959      2.05206     0.552479     0.157851      3.20319      4.38331      1.18012     0.337178      4.45237      6.09272      1.64035     0.468671
          -0           -0           -0           -0       3.0422      4.16301       7.2052     0.320231     0.431386     0.590318       1.0217    0.0454091      5.24332      7.17506      12.4184     0.551928     0.783102      1.07161      1.85471    0.0824318
          -0            0           -0           -0            0           -0            0            0            0           -0            0            0      6.85367     -6.85367            0     0.527206      6.14633     -6.14633            0     0.472794
           0           -0            0            0     0.800939    -0.800939      1.60188    0.0616107            0           -0            0            0      12.1991     -12.1991      24.3981     0.938389            0           -0            0            0
          -0            0           -0           -0     0.071262    -0.052076    0.0191859   0.00548169    0.0684744    -0.050039    0.0184354   0.00526727      6.49383     -4.74549      1.74834     0.499525      6.36643     -4.65239      1.71404     0.489726
          -0            0           -0           -0     0.865009    -0.632122      1.49713    0.0665391   0.00643938   -0.0047057    0.0111451  0.000495337      12.1286     -8.86317      20.9917     0.932966            0           -0            0            0
          -0           -0           -0           -0     0.370486     0.270739    0.0997461    0.0284989      1.62762      1.18941     0.438205     0.125201      4.02531      2.94157      1.08374     0.309639      6.97659      5.09827      1.87831      0.53666
          -0           -0           -0           -0      3.67116      2.68277      6.35393     0.282397     0.450991      0.32957     0.780561    0.0346916      7.92977      5.79483      13.7246     0.609982     0.948081     0.692828      1.64091    0.0729293
           0            0            0            0    0.0985344    0.0985344            0   0.00757957      1.79029      1.79029            0     0.137714      3.68358      3.68358            0     0.283352       7.4276       7.4276            0     0.571354
          -0           -0           -0           -0      4.11531      4.11531      8.23061     0.316562     0.358912     0.358912     0.717824    0.0276086      7.90729      7.90729      15.8146     0.608253     0.618495     0.618495      1.23699    0.0475766
           0           -0           -0           -0    -0.103787    0.0139713    0.0139713   0.00798363     -7.62077      1.02587      1.02587     0.586213           -0            0            0            0     -5.27544     0.710155     0.710155     0.405803
          -0            0            0            0       -11.25         1.75           26            1           -0            0            0            0           -0            0            0            0           -0            0            0            0
          -0           -0           -0           -0   0.00286806    0.0184375            0   0.00163889     0.746472      4.79875            0     0.426555     0.120856     0.776929            0    0.0690604     0.879804      5.65589            0     0.502745
          -0            0           -0           -0            0  -0.00304064  0.000560118  0.000320067            0   -0.0611805    0.0112701   0.00644005            0    -0.955443     0.176003     0.100573            0     -8.48034      1.56217     0.892667
          -0           -0           -0           -0            0      6.29886      12.5977     0.559898            0     0.839111      1.67822    0.0745877            0       3.5996       7.1992     0.319965            0     0.512432      1.02486    0.0455495
          -0            0            0            0   -0.0897862    0.0130211    0.0241732   0.00690663     -7.67146      1.11254      2.06539     0.590112   -0.0107851   0.00156409   0.00290368  0.000829623     -5.22797     0.758176      1.40753     0.402152
           0           -0            0            0       1.7541     -0.27286      4.05392      0.15592    0.0806279   -0.0125421      0.18634   0.00716693      9.41527      -1.4646      21.7597     0.836913            0           -0            0            0
          -0            0            0            0     -4.32368      5.12014      5.91661     0.455124     -5.12954      6.07446      7.01938     0.539952  -0.00967823    0.0114611    0.0132439   0.00101876   -0.0371011    0.0439355      0.05077   0.00390538
          -0           -0           -0           -0    0.0236181      6.27464      14.8523     0.571242   0.00252048     0.669618      1.58501    0.0609618      0.01353      3.59452      8.50835     0.327244   0.00167665     0.445436      1.05436    0.0405524
          -0           -0           -0           -0      1.68104      1.45475      1.45475     0.129311      1.28232       1.1097       1.1097    0.0986398      5.96746      5.16415      5.16415     0.459036      4.06918       3.5214       3.5214     0.313014
          -0           -0           -0           -0     0.003661     0.019874     0.007322     0.002092     0.754353      4.09506      1.50871     0.431059     0.115696     0.628064     0.231392    0.0661119      0.87629        4.757      1.75258     0.500737
           0           -0           -0           -0     -12.7021       1.7099      23.6944     0.977088    -0.238635     0.032124     0.445146    0.0183565   -0.0592253   0.00797264     0.110478   0.00455579           -0            0            0            0
          -0            0            0            0     -9.26217      1.70619      21.9367     0.974965   -0.0729621    0.0134404     0.172805   0.00768022     -0.14217    0.0261891     0.336718    0.0149652   -0.0226991   0.00418141     0.053761   0.00238938
          -0           -0           -0           -0     0.088616      5.39325      14.7605      0.56771   0.00978887     0.595759       1.6305    0.0627115    0.0511996      3.11606      8.52815     0.328006   0.00648923      0.39494      1.08089    0.0415727
           0           -0           -0           -0     -9.49747       1.8848      25.9931     0.999734  -0.00163996  0.000325454   0.00448832  0.000172628           -0            0            0            0 -0.000889102  0.000176444   0.00243333  9.35897e-05
          -0           -0           -0           -0    0.0246126            0   0.00453391    0.0025908     0.601497            0     0.110802    0.0633155            0            0            0            0      8.87389            0      1.63466     0.934094
           0           -0           -0           -0     -10.6534      1.83508      21.9829      0.97702    -0.119894     0.020652     0.247397    0.0109954    -0.106124    0.0182801     0.218983   0.00973256   -0.0245586   0.00423026    0.0506757   0.00225225
          -0            0            0            0     -9.44118      1.99884      24.4681     0.993808   -0.0256142   0.00542291    0.0663825   0.00269623   -0.0332074   0.00703053    0.0860614   0.00349552           -0            0            0            0
           0           -0            0            0      1.47483    -0.292684      4.03639     0.155246    0.0668656   -0.0132696     0.183001   0.00703849      7.95753     -1.57919      21.7785     0.837635  0.000771565 -0.000153119   0.00211165  8.12173e-05
           0            0           -0           -0     -4.13291     -3.57656      4.68926     0.317916   -0.0326963   -0.0282949    0.0370978    0.0025151     -4.46497     -3.86392      5.06603     0.343459     -4.36942     -3.78123      4.95761     0.336109
          -0           -0           -0           -0      1.68565      1.23182      1.44119     0.129665      1.28732     0.940732      1.10063    0.0990244       5.9887      4.37636      5.12021      0.46067      4.03833      2.95109      3.45268     0.310641
          -0            0            0            0   -0.0709116    0.0140726    0.0261253   0.00746438     -5.51626      1.09471      2.03231     0.580659   -0.0182874   0.00362917   0.00673745   0.00192499     -3.89454     0.772881      1.43483     0.409952
          -0            0           -0           -0   0.00202887   -0.0728323    0.0227752    0.0065072   0.00027892   -0.0100127   0.00313104  0.000894582     0.140276     -5.03564      1.57468     0.449909     0.169204     -6.07408      1.89941     0.542689
          -0           -0           -0           -0   0.00226235    0.0166917    0.0050633   0.00144666     0.685961      5.06102      1.53523     0.438637     0.106827     0.788169     0.239086    0.0683103     0.768798      5.67219      1.72062     0.491606
           0           -0           -0           -0     -4.93365      5.83876      5.85899     0.449135     -5.94306      7.03335      7.05772     0.541027   -0.0200982    0.0237853    0.0238677   0.00182964   -0.0879694     0.104108     0.104469   0.00800829
          -0            0           -0           -0      1.72429    -0.266814      3.54688     0.157639    0.0886206    -0.013713     0.182293   0.00810193      9.09589     -1.40749      18.7103     0.831571    0.0294075  -0.00455049    0.0604916   0.00268851
          -0            0            0            0   -0.0874278    0.0185098    0.0195148   0.00920293     -5.53955      1.17281      1.23649     0.583111   -0.0127856   0.00270691   0.00285388   0.00134585     -3.86023     0.817271     0.861646      0.40634
           0            0            0            0  0.000743575   0.00376095  0.000829781  0.000395889     0.801589      4.05438     0.894521     0.426777     0.123731     0.625823     0.138076    0.0658761     0.952174      4.81603      1.06256     0.506951
           0           -0           -0           -0   -0.0910897      5.41388      12.8224     0.569882   -0.0114881     0.682792      1.61714    0.0718728   -0.0502562      2.98696      7.07438     0.314417  -0.00700548     0.416368     0.986134    0.0438282
          -0           -0           -0           -0            0            0            0            0     0.751643      5.58364     0.751643     0.429511     0.132459     0.983978     0.132459    0.0756906     0.865898      6.43239     0.865898     0.494799
           0           -0           -0           -0     -4.27554      4.27554       5.7788     0.450057     -5.16706      5.16706      6.98378     0.543901  -0.00544753   0.00544753   0.00736287  0.000573425   -0.0519517    0.0519517    0.0702177    0.0054686
          -0           -0           -0           -0    0.0433894   0.00120869    0.0135682   0.00387662     0.700497    0.0195136     0.219051    0.0625859     0.142812   0.00397828    0.0446585    0.0127596      10.3059     0.287088      3.22272     0.920778
           0            0           -0           -0      -4.1511     -3.03349       4.7531     0.319315   -0.0210514   -0.0153837    0.0241043   0.00161934     -4.55222     -3.32662       5.2124     0.350171     -4.27563      -3.1245      4.89569     0.328894
          -0           -0           -0           -0      1.33695      1.53935      1.59131     0.140731     0.972637      1.11988      1.15769     0.102383      4.38283      5.04635       5.2167     0.461351      2.80758      3.23262      3.34174     0.295535
          -0            0           -0           -0            0     -2.81439      5.62878     0.250168            0  -0.00176893   0.00353787  0.000157239            0     -8.42731      16.8546     0.749094            0   -0.0065359    0.0130718  0.000580969
           0            0           -0           -0     -2.99099     -2.99099       4.6865     0.314841   -0.0063406   -0.0063406   0.00993491  0.000667431     -3.44436     -3.44436      5.39687     0.362564     -3.05832     -3.05832        4.792     0.321928
          -0           -0           -0           -0      1.50019      1.22644      1.41863     0.129099      1.15378     0.943241      1.09105    0.0992886      5.32717      4.35507      5.03754     0.458429      3.63935      2.97525      3.44148     0.313184
          -0           -0           -0           -0      1.33584      1.33584      1.60847     0.140615      0.95072      0.95072      1.14475     0.100076      4.42471      4.42471      5.32773     0.465759      2.78872      2.78872      3.35786      0.29355
           0            0           -0           -0   -0.0565746     -3.27683      6.03514     0.252064 -4.48817e-05  -0.00259957   0.00478779  0.000199967    -0.167826     -9.72057      17.9029     0.747736           -0           -0            0            0
           0            0           -0           -0     -6.65427     -2.62273      16.5028     0.700449           -0           -0            0            0     -2.57451     -1.01472      6.38485     0.271001    -0.271222      -0.1069     0.672639    0.0285497
          -0           -0           -0           -0   0.00184925   0.00931833            0  0.000980877     0.799643       4.0294            0     0.424147     0.129351     0.651799            0    0.0686105     0.954454      4.80949            0     0.506262
           0            0           -0           -0   -0.0568216     -2.77034      6.58227     0.253164 -7.26407e-05   -0.0035416   0.00841477  0.000323645    -0.167242      -8.1539      19.3735     0.745134 -0.000309217   -0.0150759    0.0358201   0.00137769
           0            0           -0           -0   -0.0686876     -2.43282      6.22275     0.256087 -5.77943e-05    -0.002047   0.00523587  0.000215473     -0.19897     -7.04723      18.0256     0.741814  -0.00050526   -0.0178956    0.0457741   0.00188375
          -0            0            0            0     -4.34124      5.94064      6.01369     0.456973     -5.08955      6.96465      7.05028     0.535742   -0.0172509    0.0236065    0.0238968   0.00181589   -0.0519595    0.0711025    0.0719767   0.00546942
          -0           -0            0            0   -0.0283624       -3.266       5.6527     0.251231 -2.18602e-05  -0.00251726    0.0043568  0.000193636   -0.0844552     -9.72525      16.8322     0.748096 -5.41154e-05  -0.00623154    0.0107854  0.000479349
           0            0           -0           -0     -3.47744     -3.03651       4.7981     0.319633           -0           -0            0            0     -3.91684     -3.42019      5.40437      0.36002     -3.48521      -3.0433      4.80882     0.320347
          -0           -0            0            0   -0.0284901     -2.39745      6.56144     0.252363 -3.14113e-05  -0.00264326   0.00723419  0.000278238   -0.0842202     -7.08714      19.3964     0.746015 -0.000151748   -0.0127696    0.0349484   0.00134417
          -0            0           -0           -0      1.47752    -0.312814      3.82919     0.155528    0.0676606   -0.0143248     0.175351   0.00712217       7.9463     -1.68235      20.5939     0.836452   0.00852336  -0.00180453    0.0220894  0.000897196
           0            0           -0           -0     -6.69823     -2.57178      15.8642     0.705077  -0.00255851 -0.000982337   0.00605963  0.000269317     -2.52575     -0.96976      5.98205     0.265869    -0.273454    -0.104992     0.647653    0.0287846
           0            0            0            0    0.0315552  0.000522137    0.0116256    0.0033216     0.595531   0.00985414     0.219406    0.0626875   0.00524654  8.68135e-05   0.00193294  0.000552267      8.86767     0.146732      3.26704     0.933439
           0           -0            0            0      2.12058    -0.228618      3.87573     0.163122     0.123256   -0.0132881     0.225271    0.0094812      10.6759     -1.15096       19.512     0.821221    0.0802949  -0.00865653     0.146753   0.00617653
           0           -0            0            0      2.12742    -0.213416      3.68207     0.163648     0.121843   -0.0122229     0.210881   0.00937251      10.6766     -1.07105      18.4788     0.821278    0.0741281  -0.00743631     0.128299   0.00570216
          -0           -0           -0           -0      2.72227     0.887865      5.11742     0.227441     0.230469    0.0751675     0.433246    0.0192554      8.64479      2.81949      16.2508     0.722259      0.37158     0.121191     0.698511     0.031045
          -0           -0           -0           -0      2.29026     0.985387      5.66467      0.24108     0.182167    0.0783777     0.450568    0.0191755      6.76689      2.91146       16.737     0.712304     0.260687     0.112161     0.644776    0.0274407
           0           -0           -0           -0    -0.181767      5.49249      13.9868     0.578157   -0.0217362     0.656808      1.67258    0.0691377   -0.0979146      2.95871      7.53447     0.311444   -0.0129722     0.391985     0.998203    0.0412616
          -0           -0           -0           -0      2.28542      2.05597      3.62377     0.216418     0.733424     0.659788      1.16292    0.0694513      5.55667      4.99878      8.81066     0.526187      1.98473      1.78547        3.147     0.187944
          -0            0           -0           -0  0.000502477    -0.030367    0.0111879   0.00319653  0.000466285   -0.0281798     0.010382   0.00296629    0.0439935     -2.65873     0.979532     0.279866     0.112232     -6.78272       2.4989     0.713971
           0           -0           -0           -0     -12.7475      1.84867      22.0629     0.980575    -0.209988    0.0304531     0.363441    0.0161529   -0.0425415   0.00616949    0.0736296   0.00327242           -0            0            0            0
           0            0            0            0      2.07333      4.28858      11.3291     0.451429     0.224826     0.465041      1.22849    0.0489517        2.053      4.24654       11.218     0.447005     0.241647     0.499836      1.32041    0.0526144
          -0           -0           -0           -0      2.26368     0.952253      5.36136     0.238283     0.181053    0.0761625     0.428809    0.0190582      6.79215      2.85722      16.0867     0.714963     0.263112     0.110682     0.623159     0.027696
          -0           -0           -0           -0       2.0537       2.0537      3.59884     0.216179     0.668866     0.668866       1.1721     0.070407       4.9814       4.9814      8.72926     0.524358      1.79603      1.79603      3.14731     0.189056
           0           -0            0            0    0.0395511      -2.3507      5.56746     0.247443  1.68403e-06  -0.00010009  0.000237054  1.05357e-05     0.120013     -7.13295      16.8938     0.750837  0.000273382   -0.0162484     0.038483   0.00171035
           0           -0           -0           -0      -4.9807      4.22769      5.64535      0.44502     -6.12605      5.19988      6.94354     0.547356           -0            0            0            0   -0.0853317    0.0724307    0.0967187   0.00762429
          -0           -0           -0           -0     0.065536   0.00180634    0.0099135   0.00504123      0.80779    0.0222648     0.122193    0.0621377      2.04057    0.0562433     0.308673     0.156967      10.0861     0.277999      1.52571     0.775854
          -0            0            0            0   -0.0677122    0.0117198    0.0203944   0.00582696     -6.90196       1.1946      2.07881     0.593947   -0.0118437   0.00204993   0.00356723   0.00101921     -4.63898     0.802923      1.39722     0.399207
          -0           -0           -0           -0   0.00228137    0.0207351   0.00558253   0.00159501     0.633343      5.75637      1.54979     0.442798    0.0980764     0.891404     0.239993    0.0685695      0.69662      6.33149      1.70463     0.487038
          -0           -0            0            0     -8.47687     -2.44704      16.0522     0.713431   -0.0381461   -0.0110117    0.0722352   0.00321045     -2.97876    -0.859888      5.64073     0.250699    -0.388052     -0.11202     0.734833    0.0326593
          -0            0           -0           -0     0.827055     -1.70217      4.19266     0.179176   0.00063566  -0.00130826    0.0032224  0.000137711      3.77562     -7.77063      19.1401     0.817961    0.0125792   -0.0258894    0.0637688    0.0027252
          -0           -0            0            0      -2.9078     -3.53913      4.49849     0.306084   -0.0157443   -0.0191626     0.024357   0.00165729     -3.51679     -4.28033      5.44062     0.370188     -3.05967     -3.72397      4.73344      0.32207
          -0            0           -0           -0      1.52007    -0.249804      3.60017     0.160008    0.0768759   -0.0126336     0.182075    0.0080922      7.88033     -1.29503      18.6639     0.829508     0.022721   -0.0037339    0.0538128   0.00239168
          -0           -0           -0           -0    0.0617139   0.00226383    0.0166153   0.00474723     0.819588    0.0300646     0.220658    0.0630453      1.17523    0.0431105     0.316408    0.0904022      10.9435     0.401435      2.94632     0.841805
          -0            0           -0           -0     0.817535     -1.71307      4.05728     0.180323  0.000567083  -0.00118827   0.00281433  0.000125081      3.70393     -7.76126      18.3819     0.816974    0.0116837   -0.0244822    0.0579842   0.00257707
           0            0            0            0      2.12407      4.17784      9.89488     0.439772     0.260817     0.513004      1.21501    0.0540004      2.13768      4.20462      9.95831     0.442591     0.307355     0.604539       1.4318    0.0636357
           0           -0            0            0     0.792244     -2.21795      4.14401     0.184178  0.000212908 -0.000596052   0.00111367  4.94962e-05      3.50296     -9.80681      18.3231     0.814358   0.00608168   -0.0170261    0.0318117   0.00141385
          -0           -0           -0           -0      2.14618      4.52487      9.84044     0.437353     0.266763     0.562427      1.22314    0.0543616      2.17612        4.588      9.97772     0.443454      0.31814     0.670748      1.45871    0.0648314
           0           -0            0            0     0.778167     -2.40059      4.15487     0.184661  0.000192268 -0.000593133   0.00102658  4.56256e-05      3.43295     -10.5904      18.3296     0.814647   0.00272569  -0.00840858    0.0145533  0.000646813
           0            0            0            0      2.05268       4.3236       11.833     0.455116      0.21335     0.449383      1.22989    0.0473035       2.0211      4.25709       11.651     0.448114     0.223106     0.469933      1.28613    0.0494666
          -0           -0           -0           -0   0.00139185    0.0112058            0  0.000861982     0.699975      5.63552            0     0.433501     0.113147     0.910946            0    0.0700728     0.800188      6.44233            0     0.495564
          -0           -0           -0           -0      1.87361     0.204726      4.74494     0.197223     0.122524    0.0133879     0.310292    0.0128972       7.3794     0.806332      18.6884     0.776779     0.124459    0.0135994     0.315193    0.0131009
          -0           -0           -0           -0      1.10063      4.88779      12.6795     0.514504     0.123953     0.550462      1.42796    0.0579434     0.810987      3.60151      9.34271     0.379106     0.103637      0.46024      1.19391    0.0484463
          -0           -0           -0           -0      2.14466     0.130478      4.24126       0.1885     0.145184   0.00883272     0.287113    0.0127606      8.92686     0.543095      17.6536     0.784606     0.160797   0.00978263      0.31799    0.0141329
          -0            0           -0           -0       2.0327    -0.252477       4.0654     0.156362    0.0968594   -0.0120307     0.193719   0.00745073      10.8687     -1.34997      21.7373     0.836051   0.00177902 -0.000220968   0.00355803  0.000136847
           0           -0           -0           -0     -12.8047      1.59045      25.6094     0.984977    -0.101665    0.0126276      0.20333   0.00782038   -0.0875718    0.0108771     0.175144   0.00673629  -0.00605792  0.000752442    0.0121158  0.000465994
          -0           -0            0            0   -0.0981186     -3.32615       6.6523     0.255858 -0.000107634  -0.00364872   0.00729744  0.000280671     -0.28492     -9.65859      19.3172     0.742969 -0.000342374   -0.0116062    0.0232125  0.000892788
           0            0            0            0      1.83969     0.173448      4.35715     0.193651     0.121368    0.0114427     0.287451    0.0127756      7.41259     0.698867      17.5561     0.780273     0.126354    0.0119128      0.29926    0.0133004
          -0           -0           -0           -0      1.92358      1.64773      2.40509     0.173445     0.944883     0.809385      1.18141    0.0851985       5.4773      4.69185      6.84838     0.493879      2.74462      2.35103      3.43165     0.247477
          -0            0           -0           -0     0.887223     -1.73664      4.75292     0.182805   0.00161736  -0.00316581   0.00866431  0.000333243      3.94062     -7.71334      21.1102     0.811931    0.0239323    -0.046845     0.128207   0.00493105
          -0            0           -0           -0     0.475502     -2.07802      5.21683     0.218739  0.000382881  -0.00167325   0.00420066  0.000176131      1.69362      -7.4014      18.5811     0.779095   0.00432597   -0.0189052    0.0474611   0.00199002
           0            0            0            0      2.93145     0.859041      5.07366     0.225496     0.247773    0.0726082     0.428839    0.0190595       9.4227      2.76126      16.3085     0.724823     0.398079     0.116654     0.688983    0.0306215
           0            0            0            0      1.04833       4.9416      13.5244     0.520168     0.110996     0.523213      1.43195     0.055075     0.765698      3.60934      9.87821     0.379931    0.0903397     0.425843      1.16546    0.0448256
          -0            0            0            0     -0.18697     0.255854            0    0.0196811     -8.57783      11.7381            0     0.902929   -0.0115079    0.0157477            0   0.00121136    -0.723693     0.990317            0    0.0761782
          -0           -0           -0           -0      1.17958      4.79906      11.3662     0.505165     0.143658     0.584465      1.38426    0.0615226     0.887752      3.61178       8.5542     0.380187     0.124051     0.504696      1.19533    0.0531259
           0            0            0            0      1.22618       5.3963      11.2444     0.499749     0.154985     0.682072      1.42124    0.0631664     0.937073      4.12396      8.59316     0.381918     0.135356     0.595687      1.24124    0.0551663
           0            0           -0           -0     -4.20439     -5.75338      11.5068     0.442568   -0.0169214   -0.0231557    0.0463113    0.0017812     -4.90726      -6.7152      13.4304     0.516554    -0.371425    -0.508266      1.01653    0.0390974
           0            0           -0           -0      -6.2286     -4.55167      12.4572     0.479123           -0           -0            0            0     -6.13963     -4.48666      12.2793      0.47228    -0.631769    -0.461678      1.26354    0.0485976
          -0           -0           -0           -0      1.65102      1.65102      2.38463     0.173791     0.828111     0.828111      1.19608    0.0871696      4.67057      4.67057       6.7459     0.491639      2.35031      2.35031      3.39465     0.247401
          -0            0           -0           -0     0.517332     -2.07348      5.67478     0.218261  0.000725059  -0.00290605    0.0079534    0.0003059      1.84469     -7.39354      20.2349     0.778267   0.00750514   -0.0300807    0.0823262   0.00316639
           0           -0            0            0       0.4509     -2.08895      4.94752      0.21989   0.00026912   -0.0012468   0.00295294  0.000131242       1.5961      -7.3945      17.5133     0.778368   0.00330284   -0.0153016    0.0362406   0.00161069
           0           -0            0            0     0.412783     -2.57345      4.99483     0.221992  0.000213204   -0.0013292   0.00257986   0.00011466      1.44514     -9.00961      17.4868     0.777191   0.00130507  -0.00813633    0.0157918   0.00070186
          -0           -0           -0           -0      2.42307     0.101395      4.19377      0.18639     0.167185   0.00699597     0.289358    0.0128604      10.2193     0.427636      17.6873     0.786103     0.190404   0.00796761     0.329546    0.0146465
          -0           -0            0            0      -9.3951     -2.47883      18.7902       0.7227   -0.0146684  -0.00387017    0.0293369   0.00112834     -3.27603    -0.864357      6.55205     0.252002    -0.314202   -0.0829002     0.628405    0.0241694
          -0            0           -0           -0     0.385887     -2.89823      5.01617     0.222941  0.000170835  -0.00128307    0.0022207   9.8698e-05      1.34483     -10.1005      17.4816      0.77696            0           -0            0            0
           0            0            0            0    0.0280359    0.0467868            0   0.00492493      1.65882      2.76827            0     0.291396      0.83672      1.39633            0     0.146983      3.16907      5.28861            0     0.556696
          -0            0            0            0   -0.0699761     0.230731            0    0.0177485     -2.56244      8.44909            0      0.64993    -0.126788     0.418056            0    0.0321582     -1.18344      3.90213            0     0.300164
          -0            0            0            0     -6.03654      8.26053      11.3296     0.635425      -3.2444       4.4397       6.0892     0.341516    -0.179168     0.245178     0.336269    0.0188598   -0.0398932    0.0545907    0.0748729   0.00419929
           0            0           -0           -0     -1.74683      -4.5953       9.1906     0.353485   -0.0054534    -0.014346     0.028692   0.00110354     -3.07977      -8.1018      16.2036     0.623215    -0.109689    -0.288554     0.577109    0.0221965
          -0           -0           -0           -0     0.171555    0.0658302    0.0461879    0.0131965      1.28784     0.494178     0.346727    0.0990647      2.55714     0.981242     0.688461     0.196703      8.98346      3.44719      2.41862     0.691035
           0           -0           -0           -0    -0.010162     0.113496            0   0.00873047    -0.628169      7.01579            0     0.539676   -0.0602283     0.672668            0    0.0517437    -0.465414      5.19804            0     0.399849