 -0.00873566    0.0111179  -0.00721062   0.00318248   -0.0138432    0.0176183   -0.0114265   0.00504319           -0            0           -0            0   -0.0117088    0.0149019  -0.00966475   0.00426564           -0            0           -0            0     -2.71063      3.44984     -2.23742     0.987509
 -0.00846275    0.0114308  -0.00773393   0.00315506   -0.0134568    0.0181764   -0.0122979   0.00501693           -0            0           -0            0   -0.0113849    0.0153779   -0.0104045    0.0042445           -0            0           -0            0     -2.64898      3.57802     -2.42084     0.987584
 -0.00947776    0.0117977  -0.00747977   0.00353695   -0.0142404     0.017726   -0.0112384   0.00531428 -3.40653e-05  4.24036e-05 -2.68841e-05  1.27126e-05   -0.0121437    0.0151162   -0.0095837   0.00453183 -2.48303e-05  3.09082e-05 -1.95959e-05  9.26628e-06     -2.64372      3.29084      -2.0864     0.986595
 -0.00851542    0.0114481  -0.00679723   0.00317818   -0.0135031    0.0181534   -0.0107785    0.0050397           -0            0           -0            0   -0.0114204    0.0153535  -0.00911607    0.0042624           -0            0           -0            0      -2.6459      3.55713     -2.11203      0.98752
 -0.00894519    0.0113428  -0.00828191   0.00338344   -0.0137271    0.0174064   -0.0127092   0.00519215 -1.28348e-05  1.62749e-05 -1.18831e-05  4.85464e-06   -0.0116755    0.0148049   -0.0108098   0.00441615 -7.43114e-06  9.42293e-06 -6.88012e-06  2.81076e-06     -2.60945      3.30887     -2.41596     0.987001
 -0.00831701    0.0116877  -0.00729293   0.00315692   -0.0132241    0.0185836   -0.0115958   0.00501953           -0            0           -0            0   -0.0111863    0.0157199  -0.00980896   0.00424604           -0            0           -0            0      -2.6018      3.65626     -2.28144     0.987577
 -0.00920076    0.0122148  -0.00716069    0.0035329   -0.0138325    0.0183639   -0.0107654   0.00531138 -3.55331e-05  4.71735e-05 -2.76544e-05   1.3644e-05   -0.0117944    0.0156581  -0.00917923   0.00452879 -2.68458e-05  3.56402e-05 -2.08933e-05  1.03082e-05     -2.56942      3.41114     -1.99971     0.986603
 -0.00986094    0.0120708  -0.00852849   0.00378731    -0.014328    0.0175389   -0.0123919   0.00550298 -5.60896e-05  6.86591e-05 -4.85105e-05  2.15424e-05   -0.0122883    0.0150421   -0.0106279    0.0047196 -4.07965e-05  4.99389e-05 -3.52839e-05  1.56688e-05     -2.56711      3.14239     -2.22023     0.985953
 -0.00833142    0.0113093   -0.0085022   0.00322214   -0.0130885    0.0177666   -0.0133568   0.00506191           -0            0           -0            0   -0.0111035    0.0150722   -0.0113311   0.00429423           -0            0           -0            0     -2.55316      3.46572     -2.60549     0.987422
 -0.00798394    0.0117804  -0.00827823   0.00317192   -0.0126359    0.0186444   -0.0131016   0.00502007           -0            0           -0            0    -0.010713    0.0158072   -0.0111079   0.00425615           -0            0           -0            0     -2.48574      3.66773     -2.57736     0.987552
 -0.00806767    0.0119993   -0.0079054   0.00320677   -0.0127053    0.0188969   -0.0124497   0.00505015 -2.40435e-06  3.57606e-06 -2.35599e-06  9.55692e-07   -0.0107746    0.0160254   -0.0105579   0.00428274 -6.84211e-07  1.01765e-06  -6.7045e-07  2.71964e-07     -2.48427      3.69492      -2.4343     0.987459
  -0.0102378    0.0130806  -0.00819377   0.00408683   -0.0143601    0.0183476   -0.0114931   0.00573243 -9.68739e-05  0.000123774 -7.75325e-05  3.86711e-05   -0.0123855    0.0158246  -0.00991265   0.00494416 -7.58705e-05   9.6938e-05 -6.07226e-05  3.02868e-05     -2.46791       3.1532     -1.97518     0.985168
 -0.00974276     0.013126  -0.00782268   0.00394211   -0.0138899    0.0187132   -0.0111525   0.00562011 -7.47473e-05  0.000100703 -6.00163e-05  3.02442e-05   -0.0119509    0.0161009  -0.00959568   0.00483558 -5.70767e-05  7.68967e-05 -4.58281e-05  2.30943e-05     -2.43574      3.28156     -1.95571     0.985549
  -0.0111353    0.0137887  -0.00944553   0.00452363   -0.0149271     0.018484   -0.0126619   0.00606401 -0.000151331   0.00018739 -0.000128366  6.14769e-05    -0.012977    0.0160691   -0.0110077   0.00527178 -0.000121448  0.000150386 -0.000103018  4.93371e-05     -2.42228      2.99946     -2.05469      0.98403
 -0.00955773    0.0125351    -0.010295   0.00391335   -0.0136393    0.0178881   -0.0146914    0.0055845 -5.67331e-05  7.44064e-05 -6.11094e-05   2.3229e-05   -0.0117554    0.0154174   -0.0126622   0.00481318 -4.02268e-05  5.27582e-05 -4.33299e-05  1.64706e-05     -2.40729       3.1572     -2.59299     0.985649
 -0.00812863    0.0121185  -0.00931914   0.00334254   -0.0124974    0.0186316   -0.0143277   0.00513899           -0            0           -0            0   -0.0106594    0.0158916   -0.0122206   0.00438323           -0            0           -0            0     -2.40058       3.5789     -2.75217     0.987135
  -0.0105564    0.0132879   -0.0105057   0.00434574   -0.0143919    0.0181159   -0.0143229   0.00592471 -0.000115935  0.000145933 -0.000115379  4.77268e-05   -0.0124819    0.0157117   -0.0124221   0.00513843 -8.96928e-05  0.000112901 -8.92626e-05  3.69238e-05     -2.39149      3.01031     -2.38002     0.984506
 -0.00871807     0.012192   -0.0101582   0.00362673   -0.0128681    0.0179958   -0.0149938   0.00535316 -1.34519e-05  1.88121e-05  -1.5674e-05  5.59599e-06   -0.0110495    0.0154525   -0.0128748   0.00459661 -3.88388e-06  5.43151e-06 -4.52546e-06   1.6157e-06     -2.37119      3.31605     -2.76288     0.986416
 -0.00821584    0.0129227  -0.00788267   0.00344726   -0.0124683    0.0196114   -0.0119626   0.00523151 -1.23095e-05  1.93617e-05 -1.18104e-05  5.16492e-06   -0.0106373    0.0167315   -0.0102059   0.00446327 -5.39104e-06  8.47958e-06 -5.17242e-06  2.26201e-06     -2.35196      3.69941     -2.25658     0.986851
 -0.00847351    0.0130051  -0.00754862   0.00355907     -0.01267    0.0194458    -0.011287   0.00532169 -2.39479e-05  3.67551e-05  -2.1334e-05  1.00587e-05   -0.0108272    0.0166175  -0.00964537   0.00454766 -1.46941e-05  2.25524e-05 -1.30902e-05  6.17186e-06     -2.34881      3.60494     -2.09243     0.986555
 -0.00800986    0.0129335  -0.00847852   0.00341712   -0.0121877    0.0196794   -0.0129008   0.00519945  -7.8286e-06  1.26408e-05 -8.28665e-06  3.33979e-06    -0.010407    0.0168041   -0.0110159   0.00443977 -1.96181e-06  3.16771e-06 -2.07659e-06  8.36935e-07     -2.31343      3.73547     -2.44878     0.986939
  -0.0124028    0.0155747    -0.011792   0.00530572   -0.0155629     0.019543   -0.0147964   0.00665757 -0.000253162  0.000317906 -0.000240694  0.000108299   -0.0136942    0.0171964   -0.0130197   0.00585815 -0.000209773   0.00026342 -0.000199441  8.97373e-05     -2.29551      2.88256     -2.18245     0.981981
 -0.00928454    0.0140066   -0.0080219   0.00399328   -0.0131397    0.0198225   -0.0113528   0.00565139 -7.16376e-05  0.000108072 -6.18954e-05  3.08113e-05   -0.0113308    0.0170936   -0.0097899   0.00487339 -5.38275e-05  8.12038e-05 -4.65073e-05  2.31512e-05     -2.29116      3.45643     -1.97958     0.985428
 -0.00859094    0.0130548   -0.0109605   0.00374824   -0.0124506    0.0189199   -0.0158847   0.00543221 -1.69302e-05  2.57273e-05    -2.16e-05   7.3867e-06   -0.0107416     0.016323   -0.0137044    0.0046866 -4.92103e-06  7.47802e-06 -6.27835e-06  2.14705e-06     -2.26019      3.43459     -2.88359     0.986123
 -0.00801681    0.0132385   -0.0094449   0.00352448   -0.0119851    0.0197915   -0.0141201   0.00526909 -8.28467e-06  1.36808e-05 -9.76046e-06  3.64224e-06   -0.0102794    0.0169749   -0.0121106    0.0045192 -2.50839e-06  4.14221e-06 -2.95522e-06  1.10278e-06     -2.24432      3.70614     -2.64411     0.986682
  -0.0104099    0.0153189  -0.00897053     0.004601    -0.013832    0.0203549   -0.0119195   0.00611353 -0.000142837  0.000210196 -0.000123087  6.31317e-05   -0.0120573    0.0177433   -0.0103902   0.00532914 -0.000114078  0.000167875 -9.83048e-05  5.04207e-05     -2.22597      3.27568     -1.91819     0.983843
    -0.70775    -0.480596     0.107894     0.313814    -0.678007    -0.460399      0.10336     0.300626     -0.19283    -0.130941    0.0293963    0.0855001     -0.33897    -0.230177    0.0516749     0.150298    -0.102014   -0.0692722    0.0155517    0.0452325    -0.235749    -0.160085    0.0359391      0.10453
   -0.250556    -0.354879    -0.103716     0.111098     -1.58344     -2.24273    -0.655456     0.702103   -0.0653789   -0.0926004   -0.0270632    0.0289892    -0.207066    -0.293281   -0.0857137    0.0918137   -0.0387311   -0.0548574   -0.0160325    0.0171735    -0.110109    -0.155955   -0.0455791    0.0488229
   -0.651268    -0.414165   -0.0105899     0.289529    -0.722847    -0.459684   -0.0117538     0.321349    -0.161629    -0.102786  -0.00262817    0.0718541    -0.352575    -0.224215  -0.00573304     0.156741   -0.0904162   -0.0574989  -0.00147021    0.0401955    -0.270675    -0.172132  -0.00440131     0.120332
   -0.683796    -0.535866     0.100939     0.304013    -0.711289    -0.557411     0.104998     0.316237    -0.196845     -0.15426    0.0290575    0.0875166    -0.335471    -0.262897     0.049521     0.149149     -0.10309   -0.0807877    0.0152177    0.0458334     -0.21874    -0.171418    0.0322895    0.0972509
    -0.72434    -0.420027     0.116578     0.322376    -0.643723    -0.373279     0.103604     0.286496    -0.187786    -0.108893    0.0302231    0.0835764    -0.339367     -0.19679    0.0546192     0.151039    -0.100401   -0.0582198    0.0161589    0.0446845    -0.251264    -0.145702    0.0404396     0.111828
   -0.627468    -0.460134   -0.0150913     0.279384    -0.765458    -0.561325   -0.0184101     0.340825    -0.162278    -0.119001  -0.00390296    0.0722552    -0.349264    -0.256122  -0.00840017     0.155512    -0.090438   -0.0663199  -0.00217513     0.040268    -0.250994    -0.184058  -0.00603667     0.111756
   -0.352569    -0.420705    -0.145926      0.15724     -1.30135     -1.55284    -0.538621     0.580383   -0.0891528    -0.106382   -0.0368997    0.0397608    -0.279121    -0.333062    -0.115526     0.124484   -0.0532551   -0.0635468   -0.0220419    0.0237509     -0.16678    -0.199011   -0.0690292    0.0743814
   -0.599064    -0.502572   -0.0186951      0.26718    -0.817757     -0.68604   -0.0255199     0.364717     -0.16205    -0.135949  -0.00505713    0.0722739    -0.342918    -0.287683   -0.0107015      0.15294    -0.089774   -0.0753139  -0.00280159    0.0400389    -0.230607    -0.193462  -0.00719657      0.10285
   -0.668174    -0.363668  -0.00325733     0.298045    -0.682859     -0.37166  -0.00332892     0.304595    -0.159401   -0.0867573 -0.000777074     0.071102    -0.353479    -0.192388   -0.0017232     0.157672     -0.09002   -0.0489953 -0.000438845    0.0401542    -0.287928    -0.156711  -0.00140364     0.128433
  -0.0119221    0.0167147   -0.0103407   0.00532264   -0.0149314    0.0209337   -0.0129507   0.00666611  -0.00024308  0.000340796 -0.000210835  0.000108523   -0.0131484    0.0184339   -0.0114043    0.0058701 -0.000201728  0.000282821 -0.000174969  9.00616e-05     -2.19944       3.0836     -1.90769     0.981943
   -0.655663    -0.586858    0.0939725     0.293001    -0.748473    -0.669928     0.107274     0.334476    -0.199185    -0.178282     0.028548    0.0890112    -0.329879    -0.295261    0.0472797     0.147416    -0.103905   -0.0930011    0.0148921    0.0464327    -0.200645    -0.179589    0.0287573    0.0896637
   -0.761233    -0.547634       0.2444      0.34088    -0.607663    -0.437155     0.195095     0.272112    -0.228929    -0.164693    0.0734995     0.102514    -0.318245    -0.228947     0.102175      0.14251    -0.113707   -0.0818013    0.0365065     0.050918    -0.203363      -0.1463    0.0652912    0.0910658
   -0.146634    -0.245164   -0.0613461    0.0657295     -1.83535     -3.06861    -0.767842     0.822706   -0.0389083   -0.0650526   -0.0162778    0.0174409    -0.126627    -0.211713   -0.0529758    0.0567611   -0.0226893   -0.0379353  -0.00949234    0.0101706    -0.060661    -0.101422   -0.0253783    0.0271916
   -0.737531    -0.613418     0.234436      0.33118    -0.633538    -0.526925      0.20138     0.284483    -0.237327    -0.197389     0.075438     0.106569     -0.31507     -0.26205      0.10015     0.141479    -0.116158   -0.0966104    0.0369225    0.0521592    -0.187357    -0.155828    0.0595544    0.0841305
   -0.561913    -0.540835   -0.0203464     0.252398    -0.878712    -0.845751   -0.0318175     0.394696    -0.159279    -0.153304  -0.00576736    0.0715443    -0.331568     -0.31913   -0.0120058     0.148932   -0.0882893   -0.0849775  -0.00319688    0.0396574    -0.206539    -0.198792  -0.00747861    0.0927723
   -0.512697    -0.464036    -0.113696     0.230414    -0.933287    -0.844707    -0.206966     0.419434    -0.131109    -0.118665   -0.0290747    0.0589224    -0.339897    -0.307637   -0.0753755     0.152755   -0.0762239   -0.0689893   -0.0169034    0.0342562    -0.231896    -0.209886   -0.0514252     0.104218
   -0.778098     -0.47673     0.255393     0.349968    -0.579711    -0.355181     0.190277     0.260739    -0.219446    -0.134452    0.0720284    0.0987013     -0.31814     -0.19492     0.104422     0.143091    -0.110629   -0.0677806    0.0363114    0.0497578    -0.217316    -0.133147    0.0713292    0.0977431
   -0.459605     -0.48542    -0.104093     0.207017     -1.05362      -1.1128    -0.238627     0.474574    -0.121919    -0.128767   -0.0276126    0.0549152     -0.31673     -0.33452   -0.0717342     0.142663   -0.0711571   -0.0751538   -0.0161159    0.0320509    -0.197102    -0.208172   -0.0446403    0.0887793
   -0.234535     -0.33302    -0.139272     0.105761     -1.56815     -2.22663      -0.9312     0.707137   -0.0576142   -0.0818072   -0.0342126    0.0259804    -0.208213    -0.295644    -0.123641     0.093891   -0.0350659   -0.0497906   -0.0208229    0.0158126    -0.114025    -0.161905   -0.0677105    0.0514181
   -0.424398    -0.429716    -0.175346     0.191408     -1.09625     -1.10999    -0.452932     0.494423    -0.103629    -0.104927   -0.0428155    0.0467376    -0.317126    -0.321099    -0.131025     0.143027    -0.061838   -0.0626128   -0.0255492    0.0278896    -0.213994    -0.216675   -0.0884145    0.0965138
   -0.546157    -0.427997    -0.116891     0.246338      -0.8489    -0.665241    -0.181685     0.382886    -0.133014    -0.104236   -0.0284682    0.0599941    -0.350622    -0.274765   -0.0750416     0.158144   -0.0778358   -0.0609961   -0.0166588    0.0351069    -0.260582    -0.204205    -0.055771     0.117532
  -0.0123903    0.0164779   -0.0141805   0.00559271   -0.0152034    0.0202192   -0.0174001   0.00686252 -0.000267901  0.000356284 -0.000306609  0.000120925   -0.0134575    0.0178972   -0.0154019   0.00607442 -0.000220867  0.000293733 -0.000252779  9.96948e-05     -2.17389      2.89108     -2.48799      0.98125
    -0.73429    -0.354901     0.129619     0.331541    -0.600368    -0.290173     0.105979     0.271073    -0.180733   -0.0873529    0.0319037    0.0816032    -0.335366    -0.162091       0.0592     0.151422   -0.0980024   -0.0473671    0.0172997    0.0442493    -0.266021    -0.128575     0.046959     0.120112
  -0.0134805    0.0180819   -0.0121385   0.00608916   -0.0160519    0.0215309   -0.0144538   0.00725062 -0.000351272  0.000471173 -0.000316301  0.000158669   -0.0142666    0.0191363   -0.0128463   0.00644423 -0.000297168  0.000398602 -0.000267584  0.000134231     -2.16941      2.90991     -1.95344     0.979923
   -0.710936    -0.675374     0.224287     0.321334    -0.656934    -0.624074      0.20725     0.296926    -0.241874    -0.229775    0.0763064     0.109324     -0.31178    -0.296184    0.0983604     0.140921    -0.118309    -0.112391    0.0373243    0.0534744    -0.172617    -0.163982    0.0544572    0.0780206
   -0.679099    -0.308376    0.0091044     0.306948    -0.638919     -0.29013   0.00856572     0.288787     -0.15565     -0.07068   0.00208674    0.0703529    -0.348896    -0.158432   0.00467751     0.157699   -0.0886231   -0.0402433   0.00118813    0.0400571    -0.301233    -0.136788    0.0040385     0.136155
    -0.62117    -0.633468    0.0877819      0.28117    -0.784544    -0.800077     0.110869     0.355121    -0.197434    -0.201343    0.0279007    0.0893676    -0.320817    -0.327169     0.045337     0.145217    -0.103119    -0.105161    0.0145725    0.0466765    -0.182146    -0.185752    0.0257404    0.0824478
  -0.0136228    0.0177984   -0.0144767   0.00616926   -0.0161448    0.0210934   -0.0171567   0.00731138 -0.000360363  0.000470819  -0.00038295  0.000163195   -0.0143661    0.0187695   -0.0152666   0.00650587 -0.000304044  0.000397237   -0.0003231   0.00013769     -2.16338      2.82648     -2.29897     0.979713
   -0.383532    -0.477947   -0.0887103     0.173765      -1.2236     -1.52482    -0.283016      0.55437    -0.105524    -0.131501   -0.0244074     0.047809    -0.277836    -0.346231   -0.0642629     0.125878   -0.0616909   -0.0768776    -0.014269      0.02795    -0.155009    -0.193168   -0.0358532     0.070229
  -0.0107048    0.0148953   -0.0133845   0.00485153   -0.0138628    0.0192896    -0.017333   0.00628276 -0.000155741  0.000216708 -0.000194727  7.05834e-05   -0.0121736    0.0169391    -0.015221    0.0055172 -0.000121348  0.000168852 -0.000151725  5.49963e-05     -2.16946      3.01873     -2.71254     0.983223
    -0.57134    -0.389309    -0.116493     0.258956    -0.783014    -0.533544    -0.159653     0.354896    -0.133748   -0.0911354   -0.0272705    0.0606203    -0.355266    -0.242077    -0.072437     0.161022   -0.0785509   -0.0535243   -0.0160161    0.0356027    -0.284401     -0.19379   -0.0579881     0.128903
    -0.13938    -0.233397   -0.0831099    0.0632683     -1.81483       -3.039     -1.08215     0.823797   -0.0346719   -0.0580595   -0.0206743    0.0157385    -0.129175    -0.216308   -0.0770246    0.0586358   -0.0205892   -0.0344774    -0.012277   0.00934597   -0.0643587    -0.107771    -0.038376    0.0292141
   -0.592325    -0.349478    -0.113814     0.268889    -0.733376    -0.432699    -0.140916      0.33292    -0.133958   -0.0790366   -0.0257396     0.060811    -0.358283    -0.211391   -0.0688431     0.162645   -0.0792385   -0.0467515   -0.0152254    0.0359707    -0.305679    -0.180354   -0.0587353     0.138765
    -0.81213    -0.613891     0.400233     0.369925    -0.527951    -0.399079     0.260184     0.240482     -0.26919    -0.203481     0.132662     0.122616     -0.29098    -0.219952       0.1434     0.132541    -0.124018   -0.0937456    0.0611185    0.0564903    -0.171121    -0.129351    0.0843318    0.0779457
   -0.608198    -0.307446    -0.107145     0.277158    -0.690913    -0.349259    -0.121716     0.314852    -0.133471     -0.06747   -0.0235132    0.0608233    -0.358756    -0.181352   -0.0632011     0.163486   -0.0795346    -0.040205   -0.0140114    0.0362442    -0.323537    -0.163549   -0.0569965     0.147437
   -0.268535    -0.398448   -0.0642624     0.122547     -1.49161     -2.21323    -0.356953       0.6807   -0.0751285    -0.111474   -0.0179788     0.034285    -0.207726     -0.30822   -0.0497102     0.094796   -0.0443393     -0.06579   -0.0106107    0.0202344    -0.103951     -0.15424   -0.0248761    0.0474381
   -0.787435    -0.401547     0.269956     0.359561    -0.544765    -0.277799     0.186762     0.248752    -0.208519    -0.106333    0.0714864    0.0952144    -0.313383    -0.159808     0.107437     0.143098    -0.106758   -0.0544404    0.0365998    0.0487481    -0.229131    -0.116844    0.0785528     0.104626
   -0.787231    -0.689343     0.385803     0.359499    -0.546774    -0.478785     0.267961     0.249691    -0.279983    -0.245168     0.137213     0.127858    -0.289912    -0.253863     0.142079     0.132392    -0.127809    -0.111917    0.0626364    0.0583658    -0.158092    -0.138434    0.0774771    0.0721946
   -0.330561    -0.394969    -0.196738     0.151036     -1.27423      -1.5225    -0.758372     0.582203   -0.0785481   -0.0938527   -0.0467489    0.0358892    -0.282634    -0.337703    -0.168213     0.129137   -0.0487203   -0.0582131   -0.0289965    0.0222606    -0.173939    -0.207829    -0.103522    0.0794738
 -0.00949482     0.013996    -0.012652   0.00433948   -0.0128566    0.0189515   -0.0171316   0.00587593 -7.88726e-05  0.000116264 -0.000105099  3.60476e-05   -0.0112257    0.0165474   -0.0149584   0.00513054 -5.34035e-05  7.87205e-05  -7.1161e-05  2.44073e-05      -2.1543      3.17559     -2.87064     0.984594
   -0.510056    -0.569779   -0.0191565      0.23329    -0.952395     -1.06391   -0.0357697     0.435608    -0.150686     -0.16833  -0.00565941    0.0689211    -0.311188    -0.347624   -0.0116875     0.142331   -0.0839553   -0.0937856  -0.00315316    0.0383996    -0.178079    -0.198931  -0.00668823    0.0814502
   -0.468554    -0.405307    -0.192313      0.21441    -0.944737    -0.817214    -0.387758     0.432311    -0.108757   -0.0940767   -0.0446382    0.0497671    -0.342093    -0.295917    -0.140409     0.156542   -0.0658297   -0.0569439   -0.0270191    0.0301236    -0.255349    -0.220882    -0.104805     0.116848
   -0.831341    -0.533714     0.415536     0.380461    -0.506461    -0.325144     0.253148     0.231781    -0.254663    -0.163491      0.12729     0.116546    -0.290166    -0.186284     0.145036     0.132794     -0.11936   -0.0766282    0.0596606    0.0546248    -0.183099    -0.117548    0.0915196    0.0837946
 -0.00816959    0.0137056   -0.0106909   0.00373898   -0.0118388    0.0198611   -0.0154925   0.00541825 -1.06728e-05   1.7905e-05 -1.39666e-05   4.8846e-06   -0.0102234    0.0171512   -0.0133786   0.00467895           -0            0           -0            0     -2.15474      3.61486     -2.81974     0.986159
     -0.6801    -0.732016     0.214725     0.312073    -0.672598    -0.723942     0.212356      0.30863    -0.243778    -0.262387    0.0769669     0.111861    -0.305236    -0.328537    0.0963708     0.140062     -0.11924    -0.128342    0.0376471    0.0547148    -0.158348    -0.170435    0.0499944    0.0726599
   -0.759622    -0.760097     0.371001     0.349266    -0.561739     -0.56209     0.274354     0.258281    -0.289864    -0.290045      0.14157     0.133276    -0.287176    -0.287356     0.140257     0.132041    -0.130788     -0.13087    0.0638773    0.0601351    -0.145721    -0.145812    0.0711705    0.0670011
   -0.619408    -0.261319   -0.0947064     0.285622    -0.647263    -0.273071   -0.0989655     0.298466    -0.131937   -0.0556623    -0.020173    0.0608389    -0.354436    -0.149531   -0.0541927     0.163438   -0.0790544   -0.0333519   -0.0120873    0.0364536    -0.336532    -0.141978   -0.0514551     0.155182
 -0.00904446    0.0139995   -0.0124377   0.00417942   -0.0124357    0.0192487   -0.0171013   0.00574651 -5.63765e-05  8.72627e-05 -7.75276e-05  2.60514e-05   -0.0108403    0.0167792   -0.0149073   0.00500925  -3.4241e-05  5.30001e-05 -4.70873e-05  1.58226e-05     -2.13164      3.29947     -2.93138     0.985023
    -0.85944    -0.675794     0.573493     0.398882    -0.448232    -0.352454       0.2991     0.208033    -0.312074     -0.24539     0.208243     0.144839     -0.26088    -0.205135     0.174082     0.121079    -0.132443    -0.104143    0.0883777    0.0614694    -0.141551    -0.111304    0.0944552    0.0656965
   -0.841113    -0.448629      0.43286     0.390788    -0.479448    -0.255726     0.246738     0.222756    -0.238086    -0.126989     0.122526     0.110617    -0.285868    -0.152475     0.147116     0.132817    -0.114604   -0.0611271    0.0589786    0.0532461    -0.193232    -0.103065    0.0994424     0.089777
   -0.579635    -0.676986    0.0831561     0.269341    -0.808844    -0.944691     0.116039     0.375848    -0.191605    -0.223786    0.0274882    0.0890339    -0.307358     -0.35898    0.0440945     0.142821    -0.101151    -0.118139    0.0145113    0.0470019    -0.163456    -0.190909    0.0234498    0.0759536
   -0.495218    -0.368089    -0.200229     0.230176    -0.837959    -0.622844    -0.338808     0.389482    -0.109816   -0.0816251   -0.0444015    0.0510425    -0.351217    -0.261055    -0.142006     0.163245   -0.0673895   -0.0500898   -0.0272473    0.0313225    -0.289871    -0.215457    -0.117202     0.134731
   -0.155775    -0.272674    -0.039593     0.072417     -1.73988     -3.04554    -0.442221     0.808836   -0.0436667   -0.0764355   -0.0110987    0.0202998    -0.127875    -0.223836   -0.0325017    0.0594467   -0.0256892   -0.0449671  -0.00652936    0.0119424   -0.0582037    -0.101881   -0.0147935    0.0270578
   -0.680048    -0.244318    0.0290742     0.316269    -0.584796    -0.210097    0.0250018      0.27197    -0.149045   -0.0535468   0.00637214    0.0693162    -0.338174    -0.121494     0.014458     0.157274   -0.0861828   -0.0309625   0.00368458    0.0400809    -0.311974    -0.112082    0.0133379      0.14509
   -0.733268    -0.282285     0.149171     0.341075    -0.553148    -0.212944     0.112528     0.257294    -0.170294   -0.0655576    0.0346433    0.0792111    -0.324991    -0.125111    0.0661139     0.151168   -0.0944863   -0.0363742    0.0192216    0.0439498    -0.273683    -0.105359    0.0556761     0.127302
   -0.830836    -0.758108     0.552059     0.386729    -0.460459    -0.420152     0.305958      0.21433     -0.32857    -0.299808     0.218322     0.152939    -0.260267    -0.237484     0.172937     0.121146    -0.137064    -0.125066    0.0910739    0.0637991    -0.131174    -0.119692    0.0871602    0.0610575
   -0.883608    -0.588558     0.596031     0.411741    -0.432933     -0.28837     0.292032     0.201737    -0.292379     -0.19475     0.197222     0.136242    -0.259249    -0.172682     0.174875     0.120804    -0.126414   -0.0842023    0.0852714    0.0589058    -0.151448    -0.100877     0.102158    0.0705711
  -0.0714634    -0.140391   -0.0309384    0.0333394     -1.94898      -3.8288    -0.843763     0.909245   -0.0188876    -0.037105  -0.00817692   0.00881151    -0.064313    -0.126344   -0.0278428    0.0300036   -0.0108126   -0.0212416  -0.00468107   0.00504435   -0.0290578   -0.0570847   -0.0125799    0.0135562
   -0.728397    -0.823646     0.357078     0.340064    -0.569281    -0.643723     0.279075     0.265778    -0.293942    -0.332379     0.144097     0.137232    -0.283051    -0.320063     0.138758     0.132147    -0.133377    -0.150818    0.0653845    0.0622692    -0.133892    -0.151401    0.0656372    0.0625098
   -0.392473    -0.397155    -0.235422     0.183267     -1.05525     -1.06784    -0.632984     0.492756   -0.0888385   -0.0898984   -0.0532891    0.0414836    -0.323108    -0.326963    -0.193814     0.150877   -0.0558437   -0.0565099   -0.0334974    0.0260765    -0.226016    -0.228713    -0.135574      0.10554
  -0.0154337    0.0205187    -0.015188    0.0072079   -0.0173512    0.0230679   -0.0170749   0.00810341 -0.000508463  0.000675987 -0.000500368  0.000237464   -0.0155916    0.0207285   -0.0153433   0.00728163 -0.000438089  0.000582426 -0.000431114  0.000204598      -2.0919      2.78112     -2.05859     0.976965
   -0.800069    -0.834315     0.530151     0.374965    -0.471723    -0.491915     0.312579      0.22108     -0.34239    -0.357045     0.226878     0.160466    -0.258325    -0.269382     0.171174     0.121068    -0.140592     -0.14661    0.0931609    0.0658907     -0.12062    -0.125783    0.0799268    0.0565305
   -0.785328    -0.320603     0.289881     0.369474    -0.503555    -0.205572     0.185873     0.236908    -0.194037   -0.0792139    0.0716233    0.0912889    -0.303696    -0.123981     0.112101      0.14288    -0.102165   -0.0417079    0.0377113    0.0480656     -0.23675   -0.0966509    0.0873894     0.111384
   -0.516092     -0.33067    -0.203359     0.242925     -0.75967    -0.486735    -0.299337     0.357578    -0.110385   -0.0707258   -0.0434957    0.0519585    -0.354559    -0.227172    -0.139709     0.166891   -0.0684494   -0.0438568   -0.0269715    0.0322192    -0.315334     -0.20204    -0.124253     0.148428
   -0.905499    -0.731149     0.760552      0.42644    -0.377145    -0.304527     0.316774     0.177615    -0.358182    -0.289215     0.300846     0.168684    -0.229404    -0.185234     0.192683     0.108037    -0.137711    -0.111195     0.115667    0.0648543    -0.115449   -0.0932199    0.0969688    0.0543702
   -0.937926    -0.640109     0.793986     0.442416    -0.366809    -0.250337     0.310516     0.173022    -0.330434    -0.225513     0.279724     0.155865    -0.229075    -0.156337     0.193919     0.108054    -0.131951   -0.0900531     0.111701    0.0622408    -0.123815   -0.0845003     0.104813    0.0584029
  -0.0727178    -0.142614   -0.0438854    0.0343112     -1.91623     -3.75811     -1.15645     0.904156    -0.018205   -0.0357036   -0.0109868   0.00858987   -0.0693867    -0.136081   -0.0418751    0.0327394   -0.0104909   -0.0205747   -0.0063313   0.00495004   -0.0323272      -0.0634   -0.0195096    0.0152533
    -0.64468    -0.783848     0.206714     0.304485     -0.67405    -0.819558     0.216132     0.318357    -0.238869    -0.290434    0.0765925     0.112819    -0.296153    -0.360084    0.0949603     0.139874    -0.118534    -0.144123    0.0380076    0.0559843    -0.144993    -0.176293    0.0464916     0.068481
   -0.897007    -0.495361       0.6189     0.423892    -0.412833    -0.227982     0.284839      0.19509    -0.269209    -0.148667     0.185744     0.127218    -0.256075    -0.141414     0.176682     0.121011    -0.121167    -0.066913    0.0836006    0.0572591    -0.159829   -0.0882634     0.110276    0.0755292
   -0.868338    -0.814541     0.727478     0.410884    -0.384113    -0.360316     0.321803     0.181756    -0.381873    -0.358214     0.319927     0.180696    -0.228785    -0.214611     0.191672     0.108257    -0.142961    -0.134104     0.119771    0.0676472     -0.10727    -0.100624    0.0898688    0.0507584
   -0.532837     -0.29405    -0.201927     0.252151    -0.707145    -0.390244    -0.267984     0.334637    -0.110727   -0.0611054   -0.0419617    0.0523983    -0.355669    -0.196279    -0.134787     0.168311   -0.0691573    -0.038165   -0.0262083    0.0327268    -0.337635    -0.186327    -0.127952     0.159776
   -0.624052     -0.20656   -0.0738561     0.295316     -0.59324    -0.196361   -0.0702095     0.280735    -0.128256   -0.0424523    -0.015179    0.0606935    -0.343241    -0.113612   -0.0406223     0.162429   -0.0776522   -0.0257027  -0.00919008    0.0367468    -0.346729    -0.114766   -0.0410351      0.16408
   -0.547408    -0.258047     -0.19556     0.260168    -0.666441    -0.314159    -0.238085     0.316741      -0.1112   -0.0524192   -0.0397258      0.05285    -0.354998    -0.167345    -0.126822      0.16872   -0.0697971   -0.0329022   -0.0249349    0.0331726    -0.354216    -0.166977    -0.126543     0.168349
   -0.765893    -0.901424     0.509594     0.364321    -0.472234      -0.5558     0.314205     0.224633    -0.350966    -0.413072     0.233518     0.166948    -0.256455    -0.301837     0.170635     0.121991    -0.144505    -0.170077    0.0961479    0.0687384    -0.112195    -0.132049      0.07465    0.0533691
   -0.989321    -0.686465      1.00542     0.471253     -0.30867    -0.214179     0.313694     0.147032    -0.366724     -0.25446     0.372693     0.174685    -0.199604    -0.138501     0.202853    0.0950796    -0.134375   -0.0932392     0.136562     0.064008    -0.100646   -0.0698359     0.102284    0.0479419
   -0.830323    -0.889413     0.694078     0.395863    -0.391083    -0.418914     0.326911     0.186452    -0.401291    -0.429849     0.335445     0.191319    -0.227769    -0.243978     0.190395     0.108591    -0.148194     -0.15874     0.123877    0.0706525   -0.0988414    -0.105876    0.0826229    0.0471234
   -0.948244    -0.779584     0.959319     0.452389    -0.314935    -0.258919     0.318613      0.15025     -0.40015    -0.328977     0.404823     0.190904    -0.199267    -0.163824     0.201594    0.0950666    -0.140176    -0.115244     0.141813    0.0668753   -0.0933075   -0.0767114    0.0943973    0.0445153
   -0.957449    -0.540493     0.825336     0.456888    -0.352246    -0.198848     0.303641     0.168089    -0.302857    -0.170967     0.261067     0.144521    -0.226479     -0.12785     0.195228     0.108074    -0.125993    -0.071125     0.108608     0.060123    -0.130566   -0.0737063      0.11255    0.0623051
   -0.839574    -0.359702     0.454618     0.401599    -0.445534    -0.190882     0.241251     0.213115    -0.219647   -0.0941043     0.118936     0.105065    -0.277012    -0.118681     0.149998     0.132505    -0.108516   -0.0464917    0.0587597     0.051907    -0.200296   -0.0858135     0.108458    0.0958089
   -0.422942    -0.573671   -0.0130627     0.202614     -1.04841     -1.42204   -0.0323804     0.502248     -0.12916     -0.17519  -0.00398914     0.061875    -0.272394     -0.36947  -0.00841297     0.130492   -0.0735763   -0.0997975  -0.00227243    0.0352473     -0.14095    -0.191182  -0.00435328    0.0675232
   -0.428808    -0.369098    -0.259304     0.205507    -0.897728    -0.772723    -0.542864     0.430237   -0.0926213   -0.0797241   -0.0560089    0.0443888    -0.338375    -0.291257    -0.204618     0.162166   -0.0584439   -0.0503058   -0.0353416    0.0280093    -0.270614    -0.232932    -0.163643     0.129692
  -0.0086395    0.0145698   -0.0124162   0.00414341   -0.0119026    0.0200727   -0.0171056   0.00570833 -4.67742e-05  7.88809e-05  -6.7221e-05  2.24324e-05   -0.0103861    0.0175154   -0.0149263   0.00498108 -2.61667e-05  4.41281e-05 -3.76052e-05  1.25493e-05     -2.05412      3.46411     -2.95206     0.985132
   -0.558444    -0.218692    -0.182339     0.268004    -0.626116    -0.245193    -0.204435      0.30048    -0.111131   -0.0435197   -0.0362856    0.0533327     -0.35004    -0.137079    -0.114293     0.167988   -0.0699007   -0.0273738   -0.0228235    0.0335461    -0.368088    -0.144147    -0.120186      0.17665
   -0.694689    -0.881169      0.34616     0.333645    -0.561266    -0.711931     0.279676     0.269565    -0.292127    -0.370545     0.145565     0.140303    -0.276081    -0.350191      0.13757     0.132596    -0.133819    -0.169742    0.0666815    0.0642707    -0.124138    -0.157462    0.0618574     0.059621
    -1.01634    -0.582229      1.04762     0.488251    -0.299655    -0.171662     0.308876     0.143954    -0.333413    -0.191001     0.343673     0.160171    -0.198062    -0.113463     0.204157     0.095149    -0.128681   -0.0737169     0.132641    0.0618181    -0.105447   -0.0604073     0.108692    0.0506568
   -0.901282    -0.860904     0.911479     0.433009    -0.316855     -0.30266      0.32044     0.152229    -0.432971    -0.413573      0.43787     0.208015    -0.197839    -0.188976     0.200077    0.0950491    -0.146255    -0.139703      0.14791    0.0702664    -0.086238   -0.0823745    0.0872137    0.0414319
     -1.0332    -0.726826      1.22625     0.497615    -0.257987    -0.181487     0.306193     0.124253    -0.398889    -0.280607     0.473422     0.192115    -0.171406    -0.120579     0.203433    0.0825534    -0.135063   -0.0950132       0.1603    0.0650499   -0.0797578   -0.0561074    0.0946606    0.0384134
 -0.00831552    0.0152869    -0.010017   0.00401553     -0.01165    0.0214168   -0.0140337   0.00562573 -4.21413e-05  7.74707e-05  -5.0764e-05  2.03499e-05   -0.0101199     0.018604   -0.0121906   0.00488686 -2.52844e-05  4.64817e-05 -3.04579e-05  1.22097e-05     -2.04069      3.75151     -2.45824     0.985439
   -0.986372    -0.822239      1.16924     0.477172    -0.260388     -0.21706     0.308664     0.125967     -0.43671    -0.364042     0.517676     0.211265    -0.169678    -0.141443     0.201136    0.0820841    -0.140595      -0.1172     0.166662    0.0680151   -0.0733763   -0.0611665    0.0869801    0.0354969
   -0.791378    -0.955821     0.664738     0.383165    -0.389942    -0.470969     0.327542       0.1888    -0.415749    -0.502139     0.349219     0.201295    -0.225152    -0.271937     0.189122     0.109013    -0.150791    -0.182125     0.126661    0.0730094   -0.0923573    -0.111549    0.0775779    0.0447171
  -0.0794554    -0.161981   -0.0223092    0.0384731     -1.85382     -3.77929    -0.520511      0.89764   -0.0222825   -0.0454261  -0.00625641    0.0107894   -0.0678262    -0.138273    -0.019044    0.0328421   -0.0129331   -0.0263659  -0.00363131   0.00626232   -0.0288986   -0.0589141  -0.00811407     0.013993
   -0.855493    -0.931104     0.863795     0.414284    -0.318852    -0.347033     0.321946     0.154408    -0.464187    -0.505213     0.468692     0.224789    -0.196029    -0.213355     0.197932    0.0949299     -0.15079    -0.164118     0.152254    0.0730223   -0.0796387   -0.0866774    0.0804116    0.0385662
    -1.06878    -0.620262       1.2818     0.517575    -0.253108     -0.14689     0.303553     0.122572    -0.358754    -0.208201     0.430255     0.173732    -0.171092   -0.0992921     0.205191    0.0828539     -0.12835   -0.0744874     0.153931    0.0621557   -0.0848932   -0.0492673     0.101813    0.0411109
  -0.0166277    0.0225522   -0.0184162   0.00805823   -0.0180697     0.024508   -0.0200133   0.00875707 -0.000616774  0.000836533 -0.000683116  0.000298906   -0.0163441    0.0221675   -0.0181021   0.00792079 -0.000534665  0.000725168 -0.000592176  0.000259114     -2.01125      2.72786     -2.22758     0.974706
   -0.214667    -0.324795    -0.168283     0.104044      -1.4572     -2.20477     -1.14234     0.706271   -0.0509734   -0.0771238   -0.0399594    0.0247056    -0.198651    -0.300563    -0.155727    0.0962814   -0.0317315   -0.0480104   -0.0248752    0.0153795    -0.110009    -0.166446    -0.086239    0.0533189
   -0.896702    -0.398308      0.64389      0.43562    -0.386772    -0.171801     0.277727     0.187895    -0.246304    -0.109406     0.176862     0.119655    -0.248485    -0.110375     0.178429     0.120715    -0.114471    -0.050847    0.0821974    0.0556101    -0.165717   -0.0736101     0.118995    0.0805055
   -0.127514    -0.227252    -0.100642    0.0620677     -1.69228     -3.01594     -1.33566     0.823722   -0.0304792   -0.0543194   -0.0240562    0.0148359    -0.123255    -0.219662   -0.0972809    0.0599948    -0.018408   -0.0328064   -0.0145288   0.00896016   -0.0624937    -0.111375   -0.0493241     0.030419
 -0.00867994      0.01596  -0.00981211   0.00422877   -0.0118888    0.0218602   -0.0134395   0.00579207 -6.54845e-05  0.000120408  -7.4026e-05  3.19033e-05   -0.0103604    0.0190499   -0.0117117   0.00504746  -4.4829e-05  8.24282e-05 -5.06762e-05  2.18402e-05     -2.02155      3.71708     -2.28523     0.984878
   -0.927291     -0.89683      1.10123     0.452481    -0.259336    -0.250817     0.307982     0.126546    -0.482268    -0.466425      0.57273     0.235327    -0.167154    -0.161663     0.198508    0.0815644    -0.145674    -0.140889        0.173    0.0710832   -0.0676266   -0.0654051    0.0803118    0.0329991
   -0.730643    -0.962181     0.494372      0.35719    -0.463401    -0.610251      0.31355     0.226543    -0.350343    -0.461365     0.237051     0.171272    -0.251093    -0.330663     0.169896     0.122752    -0.145149    -0.191146    0.0982118    0.0709592    -0.104901    -0.138144    0.0709791    0.0512832
   -0.670385    -0.167991     0.059877     0.327908    -0.516244    -0.129365    0.0461095     0.252512    -0.139045   -0.0348431    0.0124192    0.0680118    -0.318018   -0.0796915    0.0284045     0.155553    -0.081831   -0.0205059   0.00730892    0.0400263    -0.318907   -0.0799144     0.028484     0.155988
    -1.06745    -0.762937      1.45606     0.522445    -0.215004    -0.153669     0.293276      0.10523    -0.418795    -0.299323     0.571257     0.204971    -0.145179    -0.103763     0.198031    0.0710551    -0.133601   -0.0954883     0.182239    0.0653886   -0.0631561   -0.0451393    0.0861479    0.0309105
   -0.721586    -0.200584      0.17883     0.353194    -0.492171    -0.136812     0.121974     0.240903    -0.156746   -0.0435719    0.0388463    0.0767225    -0.306118   -0.0850936    0.0758648     0.149835   -0.0892783   -0.0248173    0.0221257     0.043699     -0.27713   -0.0770357    0.0686808     0.135647
   -0.960904    -0.435934     0.856784      0.47045    -0.333351    -0.151232      0.29723     0.163206    -0.273935    -0.124276     0.244252     0.134116    -0.220526    -0.100046      0.19663     0.107967    -0.118862   -0.0539243     0.105983    0.0581939    -0.134942   -0.0612193      0.12032    0.0660665
   -0.524256    -0.707747    0.0819236     0.257113    -0.812647     -1.09708      0.12699      0.39855    -0.177359    -0.239435    0.0277153    0.0869829    -0.286438    -0.386692    0.0447606     0.140479   -0.0953517    -0.128725    0.0149003    0.0467637    -0.142959    -0.192995    0.0223397    0.0701119
   -0.564706    -0.170738    -0.159986     0.276992    -0.578256    -0.174835    -0.163824     0.283638    -0.109192   -0.0330139   -0.0309348    0.0535591    -0.339077     -0.10252   -0.0960632      0.16632   -0.0689932     -0.02086   -0.0195463    0.0338416    -0.378485    -0.114435    -0.107228     0.185649
    -1.10683    -0.653308      1.52062     0.543486    -0.212851    -0.125636     0.292427     0.104516    -0.374543    -0.221074     0.514568     0.183911      -0.1465    -0.086472      0.20127    0.0719359    -0.128199   -0.0756696     0.176127    0.0629494   -0.0676159   -0.0399104    0.0928944    0.0332014
   -0.872522    -0.957592      1.03482     0.428779    -0.256866    -0.281911     0.304645      0.12623    -0.528452    -0.579975     0.626746     0.259694    -0.164497    -0.180535     0.195094     0.080838    -0.150116    -0.164752     0.178038    0.0737708   -0.0624464   -0.0685348    0.0740617    0.0306877
   -0.450883    -0.330978    -0.273327      0.22166    -0.779495    -0.572201    -0.472532      0.38321   -0.0934655   -0.0686099   -0.0566591    0.0459489    -0.345487    -0.253611    -0.209436     0.169846   -0.0600322   -0.0440676   -0.0363917    0.0295126    -0.304757    -0.223712    -0.184745     0.149823
    -1.02561    -0.471437      1.08891      0.50441    -0.285276    -0.131131     0.302882     0.140302    -0.297883    -0.136926     0.316267     0.146503     -0.19372    -0.089046     0.205675    0.0952739    -0.120735   -0.0554975     0.128186     0.059379    -0.110065   -0.0505931     0.116858    0.0541316
   -0.806979    -0.989596     0.819136     0.396916    -0.314665    -0.385873     0.319405     0.154769    -0.491828    -0.603127     0.499238     0.241908     -0.19258     -0.23616     0.195481    0.0947213    -0.153319    -0.188015     0.155629    0.0754109   -0.0737494   -0.0904387    0.0748605     0.036274
    -1.01015    -0.854037      1.37991     0.497392    -0.213641    -0.180623     0.291843     0.105195    -0.468467    -0.396066     0.639946      0.23067    -0.142225    -0.120245     0.194286    0.0700307    -0.138791    -0.117341     0.189594    0.0683395   -0.0576231   -0.0487176    0.0787158    0.0283732
    -0.30276    -0.384892    -0.237207     0.149116     -1.17313     -1.49137    -0.919124     0.577789   -0.0692377   -0.0880202   -0.0542465     0.034101    -0.271435    -0.345068    -0.212664     0.133687   -0.0442226   -0.0562191   -0.0346476    0.0217806     -0.16959    -0.215595     -0.13287    0.0835264
   -0.270781    -0.444738   -0.0243385     0.133457     -1.33792     -2.19744    -0.120256     0.659405   -0.0804692    -0.132165  -0.00723278    0.0396599    -0.198961    -0.326779   -0.0178832    0.0980598    -0.047605   -0.0781877  -0.00427886    0.0234625   -0.0932429    -0.153145  -0.00838092    0.0459556
   -0.771004    -0.233547     0.318585     0.381244    -0.451078    -0.136637     0.186389     0.223047     -0.17793   -0.0538974    0.0735222    0.0879823    -0.286455   -0.0867709     0.118365     0.141645   -0.0961308   -0.0291193     0.039722    0.0475344    -0.239742   -0.0726211    0.0990635     0.118547
  -0.0147855    0.0208565   -0.0184991   0.00731226   -0.0165291    0.0233161   -0.0206807   0.00817459 -0.000485437  0.000684763 -0.000607365  0.000240076   -0.0148944    0.0210102   -0.0186355   0.00736614 -0.000414823  0.000585154 -0.000519014  0.000205154      -1.9749      2.78582     -2.47094     0.976702
    -1.08152    -0.503212      1.33142     0.535076    -0.242066    -0.112629     0.297999     0.119761    -0.320156    -0.148963     0.394133     0.158396    -0.167884   -0.0781139     0.206677    0.0830601    -0.121252   -0.0564167     0.149269     0.059989   -0.0883654    -0.041115     0.108784    0.0437184
   -0.619903    -0.137081   -0.0411844     0.307539    -0.523924    -0.115857   -0.0348078     0.259923      -0.1208   -0.0267129  -0.00802557    0.0599299    -0.323827   -0.0716089    -0.021514     0.160653   -0.0746794   -0.0165141  -0.00496146    0.0370491    -0.352557    -0.077962   -0.0234228     0.174906
   -0.944236    -0.922902      1.29395     0.468883    -0.209828    -0.205087     0.287541     0.104195    -0.525616     -0.51374     0.720285     0.261007    -0.138659    -0.135526     0.190014    0.0688545    -0.143145     -0.13991      0.19616    0.0710818   -0.0523168   -0.0511347    0.0716931    0.0259791
   -0.601348    -0.827852     0.201056     0.298846    -0.655258    -0.902069     0.219081     0.325638    -0.228226     -0.31419    0.0763057      0.11342    -0.281107    -0.386989     0.093986     0.139699    -0.114762    -0.157989      0.03837    0.0570325    -0.131528     -0.18107    0.0439756    0.0653645
 -0.00913372    0.0151636   -0.0138483   0.00454704   -0.0120545    0.0200127   -0.0182767   0.00600109 -8.99684e-05  0.000149364 -0.000136408  4.47889e-05   -0.0106116    0.0176171    -0.016089   0.00528275 -6.05593e-05  0.000100539 -9.18184e-05  3.01482e-05     -1.97677       3.2818     -2.99713     0.984094
   -0.816247     -1.00868     0.972179     0.406633    -0.251913    -0.311304     0.300038     0.125497    -0.570118    -0.704526      0.67903     0.284018    -0.160125    -0.197876     0.190715    0.0797704    -0.151706    -0.187472     0.180688    0.0755763   -0.0572196   -0.0707094    0.0681505    0.0285053
    -0.75198     -1.01665     0.643893     0.374783    -0.381124    -0.515268     0.326343     0.189951    -0.415194    -0.561328     0.355515     0.206931     -0.22062     -0.29827     0.188908     0.109956    -0.151253    -0.204489     0.129513    0.0753839   -0.0862683    -0.116632    0.0738684    0.0429957
   -0.881904    -0.971704      1.20587     0.439637    -0.205107    -0.225992     0.280453     0.102248    -0.590153    -0.650246     0.806944     0.294197    -0.134758     -0.14848     0.184261    0.0671781    -0.146516    -0.161435     0.200338    0.0730396   -0.0475418   -0.0523827    0.0650061       0.0237
  -0.0120055    0.0178577   -0.0166465   0.00599605   -0.0143032    0.0212754   -0.0198323   0.00714358 -0.000285122  0.000424107 -0.000395341  0.000142401   -0.0127713    0.0189968   -0.0177083   0.00637852 -0.000233359  0.000347112 -0.000323567  0.000116549     -1.96264      2.91935     -2.72133     0.980223
 -0.00813304    0.0153263   -0.0108711   0.00406199      -0.0113    0.0212944   -0.0151043   0.00564372 -3.76716e-05  7.09903e-05 -5.03542e-05  1.88148e-05  -0.00985136    0.0185644    -0.013168   0.00492019 -2.05102e-05  3.86505e-05 -2.74152e-05  1.02437e-05     -1.97289      3.71782     -2.63709     0.985345
   -0.602536    -0.908378      1.03286     0.301488   -0.0950248    -0.143258      0.16289    0.0475471     -1.10707     -1.66901      1.89772      0.55394   -0.0631677    -0.095231     0.108281    0.0316069    -0.117631    -0.177339      0.20164    0.0588582   -0.0131089   -0.0197629     0.022471   0.00655924
    -1.12364    -0.532428      1.57959     0.562704    -0.206113   -0.0976651      0.28975     0.103219    -0.330502    -0.156606     0.464615     0.165512     -0.14532   -0.0688588     0.204288    0.0727745    -0.120126   -0.0569211     0.168872    0.0601579   -0.0711523    -0.033715     0.100025    0.0356323
   -0.462058    -0.289524    -0.277415     0.231673    -0.700721    -0.439069    -0.420705     0.351337   -0.0921599   -0.0577471   -0.0553318    0.0462084     -0.34478    -0.216038    -0.207002     0.172871   -0.0599849   -0.0375863   -0.0360143     0.030076    -0.334736    -0.209745    -0.200972     0.167835
   -0.426383    -0.736826     0.736221     0.213872   -0.0655567    -0.113288     0.113194    0.0328829     -1.36344     -2.35614      2.35421     0.683896   -0.0430618   -0.0744144    0.0743533    0.0215996   -0.0880422    -0.152144     0.152019    0.0441615  -0.00715441   -0.0123634    0.0123533   0.00358862
   -0.822033    -0.266576     0.482106     0.412412    -0.404564    -0.131195     0.237269     0.202969    -0.198523   -0.0643787      0.11643    0.0995985    -0.263344   -0.0853996     0.154446     0.132119    -0.102221    -0.033149    0.0599505     0.051284    -0.202546   -0.0656834     0.118789     0.101617
    -1.08215    -0.791628      1.68483     0.543163    -0.178448    -0.130541      0.27783    0.0895684    -0.428349    -0.313352     0.666908     0.215001    -0.122832   -0.0898553      0.19124    0.0616529    -0.130809   -0.0956908      0.20366    0.0656568   -0.0497233   -0.0363742    0.0774155    0.0249576
   -0.815171     -1.00706      1.11572     0.409635    -0.196461    -0.242709     0.268894    0.0987247    -0.659986    -0.815349     0.903316     0.331653    -0.128823    -0.159148     0.176318    0.0647354    -0.147088    -0.181713     0.201318    0.0739138   -0.0424619   -0.0524576    0.0581172    0.0213378
  -0.0100101    0.0158359   -0.0148942   0.00503161   -0.0126927    0.0200797   -0.0188855   0.00637999 -0.000150661  0.000238344 -0.000224169  7.57298e-05   -0.0112388    0.0177796   -0.0167223   0.00564918 -0.000112873  0.000178564 -0.000167945  5.67358e-05     -1.95524      3.09318     -2.90923     0.982807
    -1.12455    -0.681824      1.75919     0.565914    -0.178372    -0.108148     0.279036    0.0897631    -0.380715    -0.230831     0.595571     0.191589    -0.124693   -0.0756022     0.195063    0.0627497    -0.125184   -0.0759004     0.195832    0.0629973    -0.053626   -0.0325139    0.0838897    0.0269865
   -0.656001    -0.931004     0.338645     0.330195    -0.538229    -0.763861     0.277848     0.270915    -0.281904    -0.400081     0.145526     0.141895    -0.264748    -0.375733     0.136669     0.133259    -0.131242     -0.18626    0.0677503    0.0660598    -0.114586    -0.162622    0.0591524    0.0576764
   -0.725145    -0.976392      1.24778     0.365413    -0.114466    -0.154126     0.196965    0.0576815    -0.916884     -1.23456      1.57771     0.462034   -0.0769562     -0.10362     0.132421    0.0387796    -0.132487    -0.178391     0.227974    0.0667626   -0.0185126   -0.0249268    0.0318552   0.00932884
  -0.0674495    -0.139817     -0.05342    0.0340058     -1.79168     -3.71401     -1.41901     0.903306   -0.0162307    -0.033645   -0.0128548     0.008183   -0.0669877     -0.13886   -0.0530543     0.033773  -0.00937125   -0.0194258  -0.00742204   0.00472467   -0.0317505   -0.0658161   -0.0251464    0.0160075
    -0.81639    -0.999796      1.26387     0.411676    -0.155124    -0.189974      0.24015    0.0782236    -0.734486    -0.899492      1.13707     0.370375     -0.10373    -0.127033     0.160586    0.0523072    -0.142466    -0.174472     0.220554    0.0718404    -0.030893   -0.0378332    0.0478258    0.0155782
    -1.02007    -0.878948      1.59239     0.514706    -0.175523     -0.15124     0.274001     0.088565    -0.485887    -0.418665     0.758496     0.245167    -0.119398    -0.102879     0.186387    0.0602454    -0.136054    -0.117231     0.212387    0.0686496    -0.044923   -0.0387079    0.0701272    0.0226671
   -0.474195    -0.253385     -0.27662     0.239755     -0.65151    -0.348133    -0.380056     0.329407   -0.0921344   -0.0492318   -0.0537463    0.0465836    -0.343322    -0.183454    -0.200276     0.173585   -0.0603648   -0.0322558   -0.0352136    0.0305207    -0.356303     -0.19039    -0.207848     0.180149
   -0.887921    -0.981096       1.3824     0.449142    -0.164941    -0.182249     0.256795    0.0834328    -0.634677    -0.701277     0.988125     0.321042     -0.11062    -0.122228     0.172223    0.0559554    -0.143104    -0.158121     0.222798    0.0723869   -0.0356668   -0.0394096    0.0555295    0.0180415
   -0.356346    -0.383732    -0.283726     0.180305    -0.960302     -1.03411    -0.764603     0.485897   -0.0771688   -0.0830995   -0.0614425    0.0390461    -0.309488    -0.333273    -0.246417     0.156596    -0.050141   -0.0539945   -0.0399227    0.0253705    -0.222904    -0.240035    -0.177479     0.112786
   -0.725221      -0.9937      1.12402     0.367226    -0.140288    -0.192223     0.217433    0.0710369    -0.852922     -1.16868      1.32195      0.43189   -0.0936681    -0.128344     0.145177    0.0474303    -0.137249     -0.18806     0.212724    0.0694983   -0.0255117   -0.0349563    0.0395408    0.0129183
   -0.154304     -0.29801   -0.0178427    0.0781672     -1.57286     -3.03768    -0.181874     0.796774   -0.0451851   -0.0872666  -0.00522489    0.0228898    -0.121888    -0.235403   -0.0140942    0.0617455   -0.0268605    -0.051876  -0.00310596    0.0136069   -0.0529362    -0.102236  -0.00612117    0.0268163
   -0.758808     -1.04549     0.786526      0.38475    -0.305417    -0.420807     0.316574     0.154861    -0.498046    -0.686213     0.516239     0.252532    -0.187728    -0.258653     0.194585    0.0951865    -0.153724    -0.211803      0.15934    0.0779453   -0.0684859   -0.0943605    0.0709875    0.0347254
    -0.95313    -0.943403      1.49166     0.483454    -0.170117    -0.168381     0.266235    0.0862882     -0.55384    -0.548188     0.866766     0.280923    -0.114642    -0.113472     0.179416    0.0581497    -0.139895    -0.138467     0.218936    0.0709584   -0.0398764   -0.0394695    0.0624071    0.0202265
   -0.485531    -0.219198    -0.269223      0.24642    -0.616471    -0.278313    -0.341829     0.312875   -0.0925527    -0.041784   -0.0513199     0.046973    -0.341084    -0.153986    -0.189129     0.173109   -0.0608346   -0.0274645   -0.0337324    0.0308752    -0.373868    -0.168787    -0.207307     0.189748
  -0.0266828   -0.0622401   -0.0125581    0.0135598     -1.89501     -4.42029    -0.891872     0.963019  -0.00708315   -0.0165221  -0.00333363   0.00359956   -0.0243563   -0.0568134   -0.0114631    0.0123776  -0.00401151  -0.00935722  -0.00188799    0.0020386   -0.0106369   -0.0248116  -0.00500619   0.00540555
   -0.880064    -0.299533     0.673405     0.447517    -0.354247    -0.120569     0.271062     0.180136    -0.220643   -0.0750968     0.168831     0.112198     -0.23691   -0.0806331     0.181278      0.12047    -0.106981   -0.0364114    0.0818595    0.0544004    -0.167705    -0.057079     0.128324    0.0852787
   -0.419134    -0.728752     0.807169     0.213328   -0.0561357   -0.0976037     0.108106    0.0285716     -1.36135     -2.36699      2.62169      0.69289   -0.0369231   -0.0641986    0.0711067    0.0187929   -0.0861449    -0.149781     0.165898    0.0438455  -0.00505406  -0.00878753   0.00973311   0.00257238
   -0.590072    -0.896997      1.13078     0.300939   -0.0803136    -0.122089     0.153909    0.0409602     -1.11329     -1.69236      2.13344     0.567781   -0.0536333   -0.0815306      0.10278    0.0273532      -0.1138    -0.172992     0.218079    0.0580382  -0.00966304   -0.0146893    0.0185177   0.00492819
   -0.815029    -0.996646      1.41744     0.416037    -0.125607    -0.153597     0.218448    0.0641171    -0.772201    -0.944275      1.34296     0.394175   -0.0850531    -0.104006     0.147919    0.0434159    -0.138506     -0.16937     0.240881    0.0707015   -0.0226323   -0.0276756    0.0393605    0.0115528
    -0.49706    -0.183463     -0.25494     0.253861    -0.581348    -0.214573    -0.298171     0.296909   -0.0930195   -0.0343331   -0.0477093    0.0475074    -0.336534    -0.124213    -0.172607     0.171877   -0.0612742    -0.022616   -0.0314273    0.0312943    -0.388764    -0.143491    -0.199395     0.198552
   -0.566886    -0.107491    -0.125815     0.289883    -0.513061   -0.0972848    -0.113869     0.262359    -0.104932   -0.0198969   -0.0232887    0.0536582    -0.320777   -0.0608246   -0.0711933     0.164033   -0.0674923   -0.0127976   -0.0149792    0.0345128     -0.38242   -0.0725131   -0.0848743     0.195554
   -0.595835    -0.928062     0.932894       0.3047    -0.116023    -0.180715     0.181656    0.0593321     -1.02667     -1.59912      1.60744      0.52502    -0.077312     -0.12042     0.121047    0.0395361     -0.12095    -0.188389      0.18937    0.0618517   -0.0186942   -0.0291177    0.0292693   0.00955988
   -0.690773     -1.01376     0.484635     0.353307    -0.443528     -0.65091     0.311172      0.22685    -0.338765    -0.497163     0.237673     0.173267    -0.241813    -0.354878     0.169652     0.123679    -0.142953    -0.209793     0.100293    0.0731155   -0.0973288    -0.142837    0.0682844    0.0497805
   -0.251861     -0.50318     0.446033      0.12894   -0.0365815   -0.0730842     0.064784    0.0187279     -1.58504     -3.16666      2.80702     0.811459   -0.0234999   -0.0469493    0.0416172    0.0120308   -0.0535337    -0.106952    0.0948054    0.0274065  -0.00280382   -0.0056016   0.00496543   0.00143541
   -0.943387    -0.329145     0.889387     0.483003    -0.307968    -0.107449      0.29034     0.157676    -0.243879   -0.0850888     0.229919     0.124863     -0.21086   -0.0735685      0.19879     0.107958    -0.111028   -0.0387375     0.104673    0.0568451    -0.136048   -0.0474666      0.12826    0.0696547
    -1.14714    -0.561023      1.83062     0.588095    -0.173339   -0.0847733     0.276615     0.088864    -0.334174    -0.163431     0.533275     0.171318    -0.123289   -0.0602958     0.196745    0.0632053    -0.116651   -0.0570497     0.186153    0.0598026   -0.0560134    -0.027394    0.0893864    0.0287159
  -0.0334817   -0.0775367   -0.0216091    0.0171673     -1.85577     -4.29758     -1.19772     0.951521  -0.00826344   -0.0191364  -0.00533324   0.00423697   -0.0333018     -0.07712    -0.021493     0.017075  -0.00464607   -0.0107593  -0.00299858   0.00238221    -0.014857   -0.0344057  -0.00958871    0.0076177
   -0.748867     -1.04733     0.909114     0.383999    -0.237903    -0.332721      0.28881      0.12199    -0.609041     -0.85178     0.739367       0.3123    -0.152437    -0.213192     0.185056    0.0781656    -0.150668    -0.210718     0.182908    0.0772584   -0.0512642   -0.0716959     0.062234    0.0262869
   -0.736003     -1.03069      1.02057     0.377749    -0.181924    -0.254763     0.252263    0.0933714    -0.728275     -1.01986      1.00986     0.373783    -0.119873    -0.167868     0.166221    0.0615243    -0.145691    -0.204023     0.202022    0.0747752   -0.0366231   -0.0512863    0.0507831    0.0187966
    -1.00702      -0.3558      1.12605     0.517799    -0.265572   -0.0938322     0.296964     0.136555    -0.264206   -0.0933495     0.295436     0.135853    -0.185412   -0.0655098     0.207328    0.0953371    -0.112419   -0.0397199     0.125707    0.0578048    -0.110175   -0.0389272     0.123198    0.0566512
  -0.0172031    0.0103788    -0.034589   0.00886569   -0.0185917    0.0112166   -0.0373811   0.00958134 -0.000851098  0.000513476  -0.00171124  0.000438618   -0.0165206   0.00996702   -0.0332167   0.00851395 -0.000705778  0.000425803  -0.00141906  0.000363726     -1.88654      1.13817     -3.79313     0.972237
    -1.06248    -0.379626      1.37431     0.549604    -0.226897   -0.0810706      0.29349      0.11737    -0.280896    -0.100364     0.363337     0.145303    -0.161229   -0.0576072     0.208548    0.0834009    -0.112759   -0.0402887     0.145852    0.0583281   -0.0889146   -0.0317692      0.11501    0.0459939
   -0.714746    -0.976232      1.38103     0.369948   -0.0950116    -0.129771     0.183581    0.0491773    -0.916167     -1.25134      1.77022     0.474202   -0.0642766   -0.0877919     0.124195    0.0332691    -0.128256    -0.175178     0.247816    0.0663844   -0.0135622   -0.0185239     0.026205   0.00701972
   -0.886998    -0.991309      1.56306     0.459599    -0.132385    -0.147954     0.233289    0.0685956    -0.656529    -0.733736      1.15693     0.340181   -0.0899983    -0.100582     0.158595    0.0466327     -0.13782    -0.154027     0.242865    0.0714114   -0.0262094   -0.0292916    0.0461861    0.0135804
   -0.251402    -0.504647     0.494859     0.130349   -0.0319869   -0.0642081    0.0629627    0.0165848     -1.56997     -3.15145      3.09032      0.81401   -0.0204291   -0.0410079    0.0402126    0.0105922   -0.0530835    -0.106556     0.104489    0.0275231  -0.00181528  -0.00364387   0.00357319  0.000941201
     -0.4242    -0.765079     0.678479     0.220005   -0.0774933    -0.139766     0.123945    0.0401907     -1.27176     -2.29372      2.03409     0.659578    -0.051737    -0.093312    0.0827498    0.0268326   -0.0927685    -0.167316     0.148377    0.0481129   -0.0101825    -0.018365    0.0162862     0.005281
   -0.505338    -0.139327    -0.230636     0.262264    -0.541424    -0.149276    -0.247106     0.280992   -0.0928418   -0.0255975    -0.042373    0.0481837    -0.326655   -0.0900623    -0.149085      0.16953     -0.06123   -0.0168818   -0.0279454    0.0317776    -0.399342    -0.110103     -0.18226     0.207253
  -0.0228477    0.0111231   -0.0438967    0.0118657   -0.0236095    0.0114939   -0.0453602    0.0122613  -0.00136374   0.00066392  -0.00262012  0.000708247   -0.0213326    0.0103855   -0.0409857    0.0110789  -0.00117447  0.000571777  -0.00225649  0.000609952     -1.85519     0.903175     -3.56433     0.963476
  -0.0108637    0.0199098   -0.0115049   0.00565808   -0.0132143    0.0242175   -0.0139942   0.00688229 -0.000226196  0.000414545 -0.000239546  0.000117808    -0.011751    0.0215358   -0.0124445   0.00612017  -0.00018516  0.000339339 -0.000196088  9.64354e-05      -1.8838       3.4524     -1.99498     0.981125
  -0.0272849    0.0196084   -0.0497609    0.0142237     -0.02728    0.0196049    -0.049752    0.0142212  -0.00168607    0.0012117  -0.00307498  0.000878955   -0.0248499    0.0178584     -0.04532    0.0129543  -0.00145945   0.00104884  -0.00266168  0.000760817     -1.83571      1.31924     -3.34788     0.956961
    -1.08146    -0.818225      1.92053     0.564694     -0.14634     -0.11072     0.259881    0.0764128    -0.420383     -0.31806     0.746548     0.219508    -0.102268   -0.0773757     0.181616    0.0534005    -0.126491   -0.0957025     0.224632    0.0660486     -0.03818   -0.0288868    0.0678028    0.0199361
   -0.383533     -0.35142    -0.312535     0.200439    -0.802951    -0.735722    -0.654313     0.419633    -0.078722   -0.0721308   -0.0641494    0.0411412    -0.326039    -0.298741    -0.265685     0.170393   -0.0521966   -0.0478263   -0.0425342    0.0272786    -0.270018     -0.24741    -0.220034     0.141115
 -0.00961551    0.0185436   -0.0108655   0.00502824   -0.0122184    0.0235634   -0.0138068    0.0063894 -0.000143767  0.000277257 -0.000162456  7.51803e-05   -0.0107987    0.0208255   -0.0122025   0.00564698 -0.000111751  0.000215514 -0.000126279  5.84382e-05     -1.87941      3.62446     -2.12373     0.982802
   -0.705023     -1.06588     0.629562     0.369076    -0.362305    -0.547746     0.323526     0.189665    -0.402265    -0.608159     0.359209     0.210583    -0.212075    -0.320623     0.189376      0.11102    -0.148679    -0.224778     0.132765    0.0778326   -0.0798932    -0.120786     0.071342    0.0418237
    -1.12574    -0.709128      2.00484     0.589339    -0.147456   -0.0928859     0.262606    0.0771952    -0.371603    -0.234081     0.661793     0.194539    -0.104399   -0.0657636     0.185926    0.0546545    -0.119094   -0.0750204     0.212097    0.0623476   -0.0418804   -0.0263814    0.0745854    0.0219249
    -1.10478     -0.40291      1.62814     0.578414    -0.193932   -0.0707267     0.285802     0.101535    -0.288421    -0.105187     0.425053     0.151005    -0.139857   -0.0510057     0.206111    0.0732233    -0.111274   -0.0405815     0.163987    0.0582584   -0.0717498   -0.0261671      0.10574    0.0375652
    -1.01928    -0.903836      1.81406      0.53375    -0.143019    -0.126821     0.254537    0.0748926    -0.482952    -0.428252     0.859529     0.252899   -0.0987855    -0.087597     0.175813    0.0517294    -0.131408    -0.116525     0.233872    0.0688123   -0.0342145   -0.0303393    0.0608929    0.0179165
   -0.952222    -0.963049      1.69445       0.4987    -0.137745    -0.139312     0.245114    0.0721403    -0.559587     -0.56595      0.99577     0.293068   -0.0943901   -0.0954633     0.167964    0.0494342    -0.135556    -0.137097     0.241218    0.0709936   -0.0299089    -0.030249     0.053222     0.015664
   -0.650615   -0.0809982    0.0982022     0.341016    -0.443308   -0.0551896    0.0669118     0.232358    -0.125534   -0.0156284    0.0189478     0.065798    -0.293795    -0.036576    0.0443447     0.153991   -0.0766581  -0.00954353    0.0115706    0.0401799    -0.317959   -0.0395843    0.0479919     0.166657
   -0.695857    -0.109969      0.21471     0.365093    -0.426439   -0.0673917      0.13158     0.223739    -0.140392   -0.0221867    0.0433188    0.0736593    -0.283284   -0.0447684    0.0874087      0.14863   -0.0830857   -0.0131303    0.0256365    0.0435923    -0.276911   -0.0437613    0.0854423     0.145286
  -0.0394543   -0.0943998   -0.0123972    0.0207247     -1.79893     -4.30418    -0.565255     0.944948   -0.0112647   -0.0269523  -0.00353956   0.00591716   -0.0340369    -0.081438    -0.010695    0.0178791  -0.00649674   -0.0155444  -0.00204139   0.00341264   -0.0135518   -0.0324245  -0.00425821   0.00711853
  -0.0128051    0.0224212   -0.0131331   0.00672969   -0.0146567    0.0256633   -0.0150321    0.0077028 -0.000366039  0.000640917 -0.000375413  0.000192371   -0.0131713    0.0230624   -0.0135087   0.00692216 -0.000311266  0.000545013 -0.000319238  0.000163585     -1.86147      3.25935     -1.90914     0.978289
  -0.0118497   0.00622299   -0.0263279   0.00623006   -0.0137127   0.00720137   -0.0304671   0.00720955  -0.00046536  0.000244388  -0.00103394  0.000244666   -0.0118898   0.00624407    -0.026417   0.00625116 -0.000367164   0.00019282 -0.000815771  0.000193039     -1.86374     0.978759     -4.14088     0.979872
  -0.0346263     0.020701   -0.0599616    0.0182142   -0.0337221    0.0201604   -0.0583958    0.0177386    -0.002377   0.00142106  -0.00411619   0.00125035   -0.0309601    0.0185092   -0.0536128    0.0162857  -0.00208861   0.00124865  -0.00361679   0.00109865     -1.79729      1.07449     -3.11232     0.945412
  -0.0158729    0.0261043   -0.0159749   0.00835289    -0.017016    0.0279841   -0.0171253   0.00895441 -0.000596101  0.000980336 -0.000599931   0.00031369   -0.0154613    0.0254274   -0.0155607    0.0081363 -0.000519564  0.000854465 -0.000522902  0.000273413     -1.85082      3.04383     -1.86272     0.973969
  -0.0190265    0.0293788   -0.0193324    0.0100157   -0.0194359     0.030011   -0.0197483    0.0102312 -0.000840682    0.0012981 -0.000854197  0.000442543   -0.0178119    0.0275034   -0.0180982   0.00937635 -0.000741761   0.00114536 -0.000753686  0.000390471      -1.8418      2.84393     -1.87141     0.969544
  -0.0840763    -0.186938   -0.0130298    0.0443656     -1.67514     -3.72457    -0.259606     0.883944    -0.024657   -0.0548231  -0.00382123    0.0130111   -0.0686075    -0.152544   -0.0106325     0.036203   -0.0145305   -0.0323076  -0.00225187   0.00766748   -0.0280647   -0.0623999  -0.00434934    0.0148092
   -0.805559      -1.0074      1.58177     0.426165    -0.103465    -0.129389      0.20316     0.054736    -0.759452    -0.949739      1.49123     0.401773    -0.070782   -0.0885171     0.138985    0.0374458    -0.134197    -0.167821     0.263504    0.0709942   -0.0167961   -0.0210045    0.0329802   0.00888564
   -0.742213    -0.140579     0.352326     0.392656    -0.397298   -0.0752503     0.188596     0.210184    -0.157357   -0.0298041    0.0746967    0.0832469    -0.266636   -0.0505022     0.126571     0.141059   -0.0887005   -0.0168003    0.0421058    0.0469255    -0.238035   -0.0450851     0.112995     0.125929
   -0.015865   0.00648128   -0.0338491   0.00839376   -0.0173538   0.00708953   -0.0370257   0.00918149 -0.000807312  0.000329809  -0.00172246  0.000427129   -0.0154003   0.00629143   -0.0328576   0.00814789 -0.000677401  0.000276737  -0.00144529  0.000358396     -1.83999     0.751685     -3.92575     0.973491
   -0.605922   -0.0547658 -0.000561262     0.320851    -0.449107   -0.0405923 -0.000416006     0.237814    -0.111555   -0.0100829 -0.000103333    0.0590715    -0.298763   -0.0270035 -0.000276743     0.158203   -0.0708838  -0.00640679 -6.56594e-05    0.0375349    -0.352249   -0.0318378 -0.000326286     0.186525
  -0.0212404    0.0313867   -0.0227085      0.01125   -0.0211117    0.0311966    -0.022571    0.0111819  -0.00101784   0.00150406   -0.0010882  0.000539103   -0.0194446     0.028733   -0.0207886    0.0102989 -0.000902327   0.00133336 -0.000964696   0.00047792     -1.82431      2.69577     -1.95041     0.966252
  -0.0407238   -0.0950209   -0.0321284    0.0216401     -1.76567     -4.11985       -1.393     0.938255   -0.0098066   -0.0228818  -0.00773676   0.00521109   -0.0413523   -0.0964873   -0.0326242     0.021974  -0.00553625   -0.0129177  -0.00436773   0.00294189   -0.0187769   -0.0438123   -0.0148138   0.00997781
   -0.249403    -0.521013      0.41422     0.132722   -0.0430559   -0.0899456    0.0715092    0.0229126     -1.49732     -3.12796      2.48681     0.796811    -0.028398   -0.0593247    0.0471647    0.0151123   -0.0565343    -0.118102    0.0938947    0.0300852   -0.0044299  -0.00925425   0.00735738   0.00235741
    -1.14476    -0.585487      2.07298      0.60982    -0.145593   -0.0744634     0.263646    0.0775582    -0.325311     -0.16638     0.589087     0.173295    -0.104892   -0.0536469     0.189943    0.0558766    -0.112005   -0.0572849     0.202824    0.0596657   -0.0446478    -0.022835      0.08085    0.0237841
  -0.0212594    0.0309781   -0.0248549    0.0113641   -0.0210963    0.0307405   -0.0246642     0.011277  -0.00102298   0.00149064    -0.001196  0.000546834   -0.0194384    0.0283247   -0.0227259    0.0103908 -0.000905153   0.00131894  -0.00105824  0.000483848     -1.80702       2.6331     -2.11263     0.965937
  -0.0121606   0.00925187   -0.0265732   0.00650789   -0.0139156    0.0105871   -0.0304082    0.0074471  -0.00045639  0.000347224 -0.000997294  0.000244242   -0.0121268   0.00922615   -0.0264993    0.0064898 -0.000355341  0.000270345 -0.000776485  0.000190164     -1.82959      1.39196     -3.99798     0.979121
   -0.791523    -0.171271     0.514455     0.423696    -0.358629   -0.0776006     0.233093     0.191971    -0.176367   -0.0381625     0.114631    0.0944077    -0.245465    -0.053114     0.159541     0.131395    -0.094694     -0.02049     0.061547    0.0506889    -0.201463   -0.0435929     0.130942     0.107841
    -1.13049    -0.429331      1.88516     0.605502    -0.163879   -0.0622369     0.273278    0.0877751    -0.289279    -0.109861     0.482391     0.154941    -0.119077   -0.0452223     0.198568    0.0637788    -0.107494   -0.0408235     0.179253     0.057575   -0.0568099   -0.0215749    0.0947341     0.030428
   -0.701254     -1.09167     0.762555     0.375917    -0.286497    -0.446001     0.311541     0.153581    -0.487409    -0.758769     0.530016     0.261282    -0.177881    -0.276914      0.19343    0.0953554    -0.149959    -0.233447     0.163068    0.0803877     -0.06245   -0.0972184    0.0679091    0.0334772
 -0.00833723     0.016444   -0.0128892    0.0044754   -0.0110416    0.0217779   -0.0170701   0.00592709 -7.06431e-05  0.000139333 -0.000109213  3.79211e-05  -0.00973917    0.0192091   -0.0150566   0.00522796 -4.52847e-05  8.93175e-05 -7.00093e-05  2.43087e-05     -1.83367      3.61664     -2.83481     0.984307
   -0.511033   -0.0795935    -0.194354     0.274326    -0.482347   -0.0751255    -0.183444     0.258927   -0.0903094   -0.0140657   -0.0343461    0.0484786    -0.310208   -0.0483149    -0.117977     0.166522   -0.0602414   -0.0093826   -0.0229107     0.032338    -0.408731   -0.0636599    -0.155447     0.219409
   -0.121542    -0.282019     0.226708    0.0653044    -0.016496   -0.0382762    0.0307693   0.00886325     -1.68633     -3.91283      3.14543     0.906057   -0.0102488   -0.0237807    0.0191167   0.00550667    -0.025785   -0.0598298    0.0480957    0.0138542 -0.000772172   -0.0017917    0.0014403  0.000414885
   -0.397139    -0.309846    -0.330113     0.214209    -0.695044    -0.542271     -0.57774     0.374893   -0.0778373   -0.0607285   -0.0647006    0.0419839    -0.326229    -0.254523    -0.271171     0.175961   -0.0522501   -0.0407654   -0.0434318    0.0281827    -0.305481    -0.238335    -0.253924      0.16477
  -0.0181707    0.0271817   -0.0239799   0.00980516   -0.0186873    0.0279545   -0.0246617    0.0100839 -0.000784624   0.00117372  -0.00103547  0.000423393   -0.0171194     0.025609   -0.0225924   0.00923784 -0.000685494   0.00102543 -0.000904646  0.000369901     -1.79773      2.68924     -2.37247      0.97008
  -0.0189582    0.0168091    -0.037927    0.0102353   -0.0198573    0.0176062   -0.0397255    0.0107207 -0.000957125  0.000848625  -0.00191478  0.000516739   -0.0178831    0.0158559   -0.0357762   0.00965488  -0.00080324  0.000712185  -0.00160693  0.000433659     -1.79378      1.59044     -3.58856     0.968439
 -0.00860266    0.0162217   -0.0141658   0.00464755   -0.0111906    0.0211017   -0.0184273   0.00604566 -9.19226e-05  0.000173335 -0.000151367  4.96608e-05   -0.0099122    0.0186911   -0.0163222   0.00535502 -6.17966e-05  0.000116528 -0.000101759  3.33854e-05     -1.82115      3.43408     -2.99885     0.983869
   -0.542582    -0.855063     0.197079     0.293283    -0.615234    -0.969556     0.223468     0.332553    -0.210418    -0.331602    0.0764292     0.113738     -0.25862    -0.407564    0.0939374     0.139793    -0.107837    -0.169941    0.0391689    0.0582891    -0.115339    -0.181764    0.0418939    0.0623442
  -0.0391537    0.0343412   -0.0637736     0.021165   -0.0368553    0.0323253     -0.06003    0.0199226  -0.00271213   0.00237878  -0.00441753   0.00146607   -0.0340185    0.0298372   -0.0554093     0.018389  -0.00238563   0.00209241  -0.00388572   0.00128958      -1.7348      1.52158     -2.82565     0.937768
    -0.86859      -1.0011       1.7373     0.470227    -0.110599    -0.127472     0.221212    0.0598747    -0.637635    -0.734915      1.27536     0.345196   -0.0762235   -0.0878524     0.152457     0.041265    -0.133844    -0.154264     0.267706     0.072459    -0.020279   -0.0233728    0.0405607    0.0109784
    -0.84681    -0.199932     0.704856     0.458446    -0.319199   -0.0753629     0.265691     0.172808    -0.194337   -0.0458831      0.16176      0.10521    -0.222335   -0.0524933     0.185064     0.120368   -0.0989725   -0.0233674    0.0823814    0.0535818    -0.165477   -0.0390692     0.137738    0.0895861
   -0.602943    -0.961035     0.331417     0.326455    -0.503895    -0.803161     0.276974     0.272827    -0.263635    -0.420209     0.144911     0.142741    -0.247841    -0.395036      0.13623      0.13419    -0.125315    -0.199741    0.0688815    0.0678502    -0.103312    -0.164669    0.0567869    0.0559367
   -0.557038   -0.0306651   -0.0827079     0.301842    -0.444183   -0.0244524   -0.0659514      0.24069    -0.098012  -0.00539558   -0.0145526    0.0531098    -0.297761   -0.0163918   -0.0442109     0.161348   -0.0645234  -0.00355203  -0.00958029    0.0349633    -0.383942   -0.0211361    -0.057007     0.208047
   -0.457603    -0.729689    0.0869437     0.248301    -0.765248     -1.22026     0.145396     0.415232    -0.159083    -0.253672    0.0302254    0.0863202    -0.254238    -0.405405    0.0483047     0.137952   -0.0870508     -0.13881    0.0165395    0.0472347    -0.119717    -0.190899     0.022746    0.0649598
   -0.599096     -1.00037     0.870129     0.325589    -0.147328    -0.246009      0.21398    0.0800679    -0.839207     -1.40131      1.21887     0.456081   -0.0982491    -0.164056     0.142697    0.0533951    -0.128979    -0.215369      0.18733    0.0700958   -0.0271809   -0.0453867    0.0394776    0.0147719
   -0.129538    -0.301276     0.266534     0.070503   -0.0153035   -0.0355925    0.0314881   0.00832916     -1.65549     -3.85031      3.40631     0.901028  -0.00934308   -0.0217299    0.0192241   0.00508511   -0.0272051   -0.0632728    0.0559765    0.0148068 -0.000456467  -0.00106164  0.000939217  0.000248439
  -0.0139766    0.0220878   -0.0207595   0.00761274   -0.0153791    0.0243042   -0.0228426   0.00837663 -0.000467963  0.000739543 -0.000695067  0.000254889   -0.0139512    0.0220478   -0.0207218   0.00759893 -0.000396716  0.000626948 -0.000589243  0.000216082     -1.79178      2.83162     -2.66133     0.975941
   -0.908823    -0.222869     0.924233     0.495352    -0.279364    -0.068508     0.284101     0.152267    -0.212227   -0.0520441     0.215826     0.115674    -0.198094   -0.0485781     0.201453     0.107971    -0.101972   -0.0250064     0.103701    0.0555796     -0.13422   -0.0329145     0.136496    0.0731564
   -0.671194     -1.07803     0.856484     0.365919    -0.217172    -0.348806     0.277124     0.118397    -0.615135    -0.987989      0.78495     0.335357    -0.140758    -0.226076     0.179616    0.0767381    -0.144844    -0.232639      0.18483    0.0789657   -0.0451665   -0.0725434    0.0576353    0.0246237
  -0.0512557    0.0383161   -0.0786122    0.0279853   -0.0470996    0.0352093   -0.0722379    0.0257161   -0.0039626   0.00296223  -0.00607754   0.00216356   -0.0436967    0.0326654   -0.0670187    0.0238582  -0.00353407   0.00264189   -0.0054203   0.00192958     -1.68197      1.25736     -2.57968     0.918347
 -0.00883774   0.00596345   -0.0211632   0.00482604   -0.0107905   0.00728109   -0.0258393   0.00589238 -0.000264758  0.000178651 -0.000633998  0.000144577  -0.00917329   0.00618987   -0.0219667   0.00500928 -0.000195684  0.000132042 -0.000468593  0.000106858       -1.802      1.21593     -4.31513     0.984021
   -0.390732    -0.726541     0.869655     0.214085   -0.0481521   -0.0895358     0.107172    0.0263829     -1.26949     -2.36053       2.8255     0.695559   -0.0318572   -0.0592363    0.0709047    0.0174547    -0.081118    -0.150834     0.180545    0.0444451  -0.00378477  -0.00703752   0.00842377    0.0020737
    -0.96967    -0.240866       1.1656     0.531414    -0.241219   -0.0599187     0.289959     0.132196    -0.227321   -0.0564665     0.273254      0.12458     -0.17448   -0.0433409     0.209736    0.0956214     -0.10329   -0.0256572     0.124161    0.0566066    -0.108719   -0.0270058     0.130687     0.059582
   -0.555445    -0.900192      1.22598     0.304729   -0.0682369    -0.110589     0.150613    0.0374362     -1.03789     -1.68207      2.29084     0.569409   -0.0459895   -0.0745336     0.101508    0.0252308    -0.107796    -0.174701     0.237927    0.0591391  -0.00739181   -0.0119797    0.0163152   0.00405531
   -0.638824     -1.04684     0.477928     0.350484    -0.412683    -0.676261     0.308743     0.226414    -0.318704    -0.522258     0.238434     0.174854    -0.227046    -0.372059     0.169862     0.124567    -0.137085     -0.22464     0.102558    0.0752101   -0.0883476    -0.144775     0.066096     0.048471
  -0.0110215    0.0186945   -0.0179517   0.00605682   -0.0129976    0.0220463   -0.0211704   0.00714277 -0.000261412  0.000443402 -0.000425785  0.000143658   -0.0116827    0.0198159   -0.0190286   0.00642014 -0.000210116  0.000356394 -0.000342234  0.000115468     -1.78352      3.02516     -2.90497     0.980121
 -0.00927147    0.0167838   -0.0157562   0.00509528   -0.0116056    0.0210092   -0.0197229   0.00637804 -0.000144753  0.000262041 -0.000245997  7.95511e-05   -0.0103528    0.0187412   -0.0175938   0.00568952 -0.000106562  0.000192906 -0.000181095   5.8563e-05     -1.78814        3.237     -3.03881     0.982699
   -0.352753     -0.59942    0.0207359     0.193922    -0.952825      -1.6191    0.0560101     0.523807    -0.112455    -0.191091   0.00661048    0.0618212    -0.227972    -0.387385    0.0134009     0.125326   -0.0652846    -0.110936   0.00383764    0.0358896    -0.107749    -0.183095   0.00633386    0.0592342
   -0.928268    -0.975784      1.88427     0.511578    -0.115335    -0.121238     0.234115    0.0635621    -0.538164    -0.565711      1.09241     0.296587   -0.0799108   -0.0840012     0.162209    0.0440396    -0.129346    -0.135967     0.262556    0.0712839   -0.0234962    -0.024699    0.0476945     0.012949
  -0.0299601    0.0122425   -0.0573293    0.0165118   -0.0298242     0.012187   -0.0570693    0.0164369  -0.00208255  0.000850985    -0.003985   0.00114774   -0.0273211    0.0111642   -0.0522796    0.0150574  -0.00183864  0.000751317  -0.00351827   0.00101332     -1.72344     0.704246     -3.29785     0.949833
 -0.00854624    0.0179966   -0.0117062   0.00471827   -0.0110666     0.023304   -0.0151584   0.00610971 -9.42602e-05  0.000198493 -0.000129112  5.20398e-05  -0.00980204    0.0206411   -0.0134263   0.00541157 -6.78443e-05  0.000142866 -9.29293e-05  3.74559e-05     -1.78173      3.75197     -2.44052     0.983671
    -1.02389    -0.256507      1.42164     0.565375    -0.207363   -0.0519489     0.287917     0.114502    -0.237275   -0.0594425     0.329448     0.131019    -0.152082   -0.0380997      0.21116    0.0839767    -0.102828   -0.0257606     0.142773    0.0567797   -0.0875579   -0.0219351     0.121571    0.0483478
   -0.404212    -0.267558    -0.337723     0.223298    -0.620898    -0.410988    -0.518766     0.343002   -0.0764128   -0.0505795   -0.0638436    0.0422126    -0.323133     -0.21389     -0.26998     0.178508    -0.052001   -0.0344208   -0.0434473    0.0287268    -0.333533    -0.220774    -0.278669     0.184253
  -0.0499722    -0.123279   -0.0105021    0.0276265     -1.67736     -4.13796    -0.352511     0.927307   -0.0146344   -0.0361024  -0.00307555   0.00809046   -0.0420429    -0.103718  -0.00883568    0.0232429  -0.00853201    -0.021048  -0.00179307   0.00471682   -0.0163087   -0.0402327  -0.00342741   0.00901606
   -0.992548    -0.920116       2.0241     0.550187    -0.118364    -0.109726     0.241379    0.0656113    -0.458988    -0.425493     0.936013     0.254425   -0.0828802    -0.076832     0.169017     0.045942    -0.124549     -0.11546     0.253991    0.0690395   -0.0266906   -0.0247428      0.05443    0.0147951
    -1.05013    -0.833948      2.14124     0.582407    -0.121028   -0.0961133      0.24678    0.0671229    -0.396958    -0.315241     0.809411     0.220156   -0.0858241   -0.0681564     0.174998    0.0475986    -0.119125   -0.0946017     0.242899    0.0660673   -0.0300192   -0.0238395    0.0612101    0.0166488
    -1.09721    -0.728202      2.23885     0.609874    -0.121824   -0.0808532     0.248582    0.0677151    -0.348228    -0.231115      0.71056      0.19356     -0.08735   -0.0579731     0.178238    0.0485529    -0.111647   -0.0740987     0.227816    0.0620582   -0.0328138   -0.0217781    0.0669566    0.0182393
    -1.12796    -0.453641      2.12692     0.627127    -0.138989   -0.0558984     0.262082    0.0772756    -0.280721      -0.1129     0.529338     0.156076    -0.102051    -0.041043     0.192432     0.056739    -0.103253   -0.0415264     0.194699    0.0574073   -0.0456386   -0.0183549     0.086058    0.0253744
  -0.0273254    0.0287658   -0.0494305    0.0152086   -0.0266684    0.0280741   -0.0482419    0.0148429  -0.00163482     0.001721  -0.00295732  0.000909896   -0.0244624    0.0257519   -0.0442514    0.0136151   -0.0014121   0.00148653  -0.00255442  0.000785935     -1.71521      1.80562     -3.10273     0.954638
   -0.677381    -0.984789      1.50481     0.377192   -0.0811679    -0.118003     0.180315    0.0451975    -0.849899      -1.2356      1.88806     0.473257   -0.0554558   -0.0806227     0.123196      0.03088    -0.121154    -0.176136     0.269144    0.0674632   -0.0107928   -0.0156907    0.0239763   0.00600984
   -0.130311    -0.313248      0.22988    0.0726062   -0.0209374   -0.0503302    0.0369353    0.0116658     -1.59859     -3.84275      2.82004     0.890694    -0.013557   -0.0325888    0.0239156   0.00755361    -0.029787   -0.0716032    0.0525467    0.0165966  -0.00158708  -0.00381508   0.00279973  0.000884278
   -0.412114    -0.229384    -0.336844      0.22967    -0.575979    -0.320591     -0.47078     0.320992   -0.0758794   -0.0422347   -0.0620205    0.0422875    -0.320777    -0.178545    -0.262189     0.178769   -0.0520656   -0.0289798   -0.0425562    0.0290161    -0.357555    -0.199016     -0.29225     0.199265
   -0.422317    -0.194096     -0.32873     0.235563    -0.545662    -0.250786    -0.424742     0.304363   -0.0762912   -0.0350634   -0.0593848    0.0425542    -0.318491    -0.146378    -0.247912      0.17765   -0.0524616   -0.0241113   -0.0408359    0.0292624    -0.377578    -0.173535    -0.293905     0.210608
   -0.235428      -0.5055     0.535756     0.131375   -0.0275879   -0.0592355    0.0627809    0.0153948     -1.46009     -3.13504      3.32269     0.814771   -0.0176129   -0.0378175    0.0400809   0.00982844   -0.0500865    -0.107543      0.11398    0.0279496  -0.00121996  -0.00261943   0.00277621  0.000680767
   -0.433612    -0.157237    -0.312388     0.242003    -0.519501    -0.188382    -0.374265     0.289939   -0.0771321   -0.0279698   -0.0555684    0.0430482    -0.313725    -0.113763    -0.226017     0.175093    -0.052943   -0.0191983   -0.0381418     0.029548    -0.394847     -0.14318     -0.28446     0.220368
  -0.0207065   0.00672133    -0.044027    0.0115719   -0.0215841   0.00700622   -0.0458931    0.0120623  -0.00127528  0.000413958  -0.00271156  0.000712695    -0.019539   0.00634237   -0.0415447    0.0109194  -0.00111031  0.000360407  -0.00236079  0.000620499     -1.72516      0.55999     -3.66812     0.964113
 -0.00882337   0.00425746    -0.022077   0.00493265   -0.0107115   0.00516854   -0.0268013   0.00598822 -0.000292724  0.000141245 -0.000732424  0.000163645  -0.00912354    0.0044023    -0.022828   0.00510045 -0.000222684   0.00010745 -0.000557178   0.00012449      -1.7596     0.849042     -4.40268     0.983691
    -1.06231    -0.272682      1.67796     0.594305    -0.177887   -0.0456613     0.280978    0.0995181    -0.242732   -0.0623064     0.383405     0.135796    -0.132229   -0.0339416     0.208861    0.0739752    -0.101585   -0.0260757     0.160458    0.0568316   -0.0707373   -0.0181574     0.111732    0.0395738
   -0.042894    0.0224109   -0.0738887    0.0240309   -0.0407274     0.021279   -0.0701565    0.0228171  -0.00329336   0.00172069   -0.0056731   0.00184507   -0.0376438    0.0196679   -0.0648447    0.0210896  -0.00293566    0.0015338  -0.00505693   0.00164467     -1.65746     0.865975     -2.85511     0.928573
  -0.0118936   0.00428357   -0.0286844   0.00668178   -0.0135223   0.00487018   -0.0326126   0.00759681 -0.000542788   0.00019549  -0.00130907  0.000304937    -0.011849    0.0042675   -0.0285768   0.00665672 -0.000448601  0.000161567  -0.00108192  0.000252023     -1.74174     0.627304     -4.20067     0.978508
   -0.444283    -0.112951    -0.286045     0.249946    -0.485207    -0.123355    -0.312394     0.272969   -0.0773357   -0.0196612   -0.0497915    0.0435077    -0.305456   -0.0776565    -0.196663     0.171844    -0.053123   -0.0135055   -0.0342025     0.029886    -0.412115    -0.104773    -0.265334     0.231848
   -0.184618    -0.324115    -0.184751     0.103887     -1.24908     -2.19288     -1.24998      0.70287   -0.0431792   -0.0758053   -0.0432103    0.0242974    -0.176102    -0.309164    -0.176229    0.0990944   -0.0275059   -0.0482893   -0.0275257    0.0154779   -0.0966282     -0.16964   -0.0966978    0.0543738
   -0.508148  -0.00889962    -0.149243     0.286037    -0.423413  -0.00741559    -0.124356      0.23834   -0.0857723   -0.0015022   -0.0251912    0.0482814    -0.289302  -0.00506679   -0.0849676     0.162848   -0.0582261  -0.00101976   -0.0171009    0.0327755    -0.411648  -0.00720954    -0.120901     0.231717
   -0.107472    -0.222298    -0.108604    0.0606441     -1.46382     -3.02781     -1.47925     0.826004   -0.0253453    -0.052425   -0.0256124    0.0143018     -0.10647    -0.220225    -0.107592    0.0600787   -0.0155568   -0.0321783   -0.0157208   0.00877842   -0.0535078    -0.110677   -0.0540718    0.0301934
   -0.235615    -0.458793 -6.92943e-05      0.13299     -1.17387     -2.28577 -0.000345235     0.662578   -0.0723466    -0.140874 -2.12771e-05    0.0408352    -0.170729    -0.332446 -5.02113e-05    0.0963661   -0.0435122   -0.0847275 -1.27969e-05      0.02456   -0.0755986    -0.147207 -2.22335e-05    0.0426708
    -1.11672    -0.605799      2.30794     0.630444    -0.120918   -0.0655957     0.249903    0.0682643    -0.305293    -0.165616     0.630954     0.172353   -0.0881371   -0.0478127     0.182155    0.0497579    -0.104941   -0.0569285     0.216884    0.0592445   -0.0353133   -0.0191568    0.0729828    0.0199362
   -0.397884    -0.794036     0.626997     0.224911   -0.0821782    -0.163999     0.129499    0.0464527     -1.12858     -2.25225      1.77845     0.637951   -0.0557221    -0.111202    0.0878084     0.031498   -0.0927179    -0.185032     0.146108    0.0524105   -0.0119877   -0.0239233    0.0188906   0.00677628
 -0.00878972     0.018861   -0.0116968   0.00497598   -0.0111251    0.0238721   -0.0148046   0.00629805 -0.000118317  0.000253883 -0.000157449  6.69806e-05  -0.00990097    0.0212455   -0.0131756   0.00560507 -8.94221e-05  0.000191882 -0.000118998  5.06231e-05     -1.73641      3.72598     -2.31071     0.983003
   -0.644463     -1.09735     0.620662     0.364876    -0.331732    -0.564851     0.319481     0.187817    -0.378508    -0.644497     0.364529       0.2143    -0.197402    -0.336123     0.190112     0.111763     -0.14236    -0.242401     0.137102    0.0806001   -0.0717853    -0.122231    0.0691342    0.0406428
   -0.763775     -1.01666      1.72425     0.435202   -0.0887121    -0.118085     0.200271    0.0505485    -0.699621    -0.931267      1.57942     0.398647   -0.0615092    -0.081875     0.138859    0.0350482    -0.127749    -0.170047     0.288399    0.0727921   -0.0136224   -0.0181328    0.0307531    0.0077621
   -0.618294     0.013554     0.139045     0.352636    -0.377989   0.00828612    0.0850041     0.215581     -0.11023   0.00241643    0.0247892    0.0628685    -0.267638   0.00586706    0.0601879     0.152644    -0.070627   0.00154825    0.0158829    0.0402812    -0.308571   0.00676435    0.0693929     0.175989
   -0.261342    -0.385872    -0.261014      0.14922    -0.997264     -1.47246    -0.996011     0.569413   -0.0583387   -0.0861372   -0.0582655      0.03331    -0.243659    -0.359763    -0.243353     0.139123    -0.038398   -0.0566947   -0.0383498    0.0219243    -0.152388    -0.225001    -0.152197    0.0870098
    -0.65973    -0.014094     0.253618     0.376902    -0.364059  -0.00777749     0.139954     0.207986    -0.122572  -0.00261855    0.0471202    0.0700253    -0.257827  -0.00550804    0.0991159     0.147296   -0.0759293   -0.0016221    0.0291893    0.0433783    -0.270283  -0.00577413     0.103904     0.154412
    -1.08577    -0.295811      1.93445     0.621151    -0.151703   -0.0413305      0.27028    0.0867868    -0.242809   -0.0661516     0.432597     0.138907    -0.113338   -0.0308781     0.201927    0.0648387   -0.0976164   -0.0265949     0.173917    0.0558446   -0.0567612   -0.0154642     0.101128    0.0324721
 -0.00839028    0.0181915   -0.0125551   0.00480199   -0.0107521    0.0233124   -0.0160893   0.00615374 -9.93651e-05   0.00021544 -0.000148689  5.68694e-05  -0.00956236    0.0207328    -0.014309    0.0054728 -7.19263e-05  0.000155948  -0.00010763  4.11655e-05     -1.71837      3.72572     -2.57135     0.983473
   -0.579412    0.0361372    0.0424377     0.332266    -0.381622    0.0238013     0.027951     0.218843     -0.09948   0.00620445   0.00728618    0.0570472    -0.272096    0.0169703     0.019929     0.156034   -0.0658592   0.00410756    0.0048237    0.0377672    -0.345351    0.0215391    0.0252944     0.198043
   -0.702436   -0.0447035     0.388913     0.403931    -0.342956   -0.0218259     0.189882     0.197215    -0.136515   -0.0086879    0.0755832     0.078502     -0.24389   -0.0155213     0.135033     0.140247   -0.0811051  -0.00516157    0.0449048    0.0466389    -0.232098   -0.0147708     0.128504     0.133466
  -0.0541635    0.0578981    -0.077356    0.0311709   -0.0481503    0.0514703   -0.0687679    0.0277103  -0.00416446   0.00445161  -0.00594766   0.00239663   -0.0449705    0.0480712   -0.0642265    0.0258804   -0.0037392   0.00399702  -0.00534029   0.00215189     -1.58244      1.69155     -2.26003      0.91069
    -0.45364   -0.0539103    -0.247689     0.261258     -0.43739   -0.0519791    -0.238816     0.251899   -0.0765687  -0.00909937   -0.0418068     0.044097    -0.290848   -0.0345642    -0.158804     0.167503   -0.0528787  -0.00628407    -0.028872    0.0304536    -0.425045    -0.050512    -0.232076     0.244789
  -0.0540728    -0.129694   -0.0545416    0.0313189      -1.5703     -3.76638     -1.58392     0.909518   -0.0126903   -0.0304377   -0.0128003    0.0073502   -0.0559079    -0.134095   -0.0563927    0.0323818  -0.00741142   -0.0177763  -0.00747568   0.00429269    -0.026137   -0.0626897   -0.0263636    0.0151385
   -0.006681   0.00422227   -0.0178603   0.00387151   -0.0085979   0.00543372   -0.0229848   0.00498232 -0.000157753  9.96972e-05 -0.000421721   9.1415e-05  -0.00716155   0.00452598    -0.019145   0.00414999 -0.000108891  6.88174e-05 -0.000291099  6.31005e-05     -1.70297      1.07625     -4.55256     0.986842
   -0.750045   -0.0754429     0.549906     0.435276    -0.314303    -0.031614     0.230436       0.1824    -0.151708   -0.0152594     0.111226    0.0880408    -0.226056   -0.0227378     0.165736     0.131188   -0.0860447  -0.00865476    0.0630848    0.0499346    -0.194992   -0.0196132     0.142961      0.11316
 -0.00872498   0.00847726   -0.0215648   0.00507405   -0.0105132    0.0102147   -0.0259845   0.00611398 -0.000250249  0.000243144 -0.000618517  0.000145533  -0.00904093   0.00878424   -0.0223457   0.00525779  -0.00018387   0.00017865 -0.000454456   0.00010693     -1.69082      1.64281     -4.17904     0.983302
   -0.539944    0.0530301   -0.0382691      0.31401    -0.380623    0.0373825    -0.026977     0.221355   -0.0893358   0.00877403  -0.00633177    0.0519542    -0.272504    0.0267637    -0.019314     0.158478   -0.0609399   0.00598515  -0.00431918    0.0354403    -0.376164    0.0369446    -0.026661     0.218762
  -0.0115966    0.0128961   -0.0264824   0.00674757   -0.0130772    0.0145427   -0.0298637    0.0076091 -0.000407731  0.000453422 -0.000931111  0.000237242   -0.0115643    0.0128602   -0.0264087    0.0067288 -0.000316296   0.00035174 -0.000722305   0.00018404     -1.68167      1.87012     -3.84032     0.978493
  -0.0613573    0.0411919   -0.0934538    0.0357327   -0.0554417    0.0372205   -0.0844438    0.0322876  -0.00513352   0.00344636  -0.00781891   0.00298961   -0.0515914    0.0346356   -0.0785792    0.0300453  -0.00461588   0.00309885  -0.00703049   0.00268815     -1.53898      1.03319     -2.34403     0.896257
   -0.067896    0.0633361    -0.090678    0.0395554   -0.0592675     0.055287   -0.0791542    0.0345285   -0.0056262   0.00524834  -0.00751402   0.00327775   -0.0553693    0.0516506   -0.0739479    0.0322574  -0.00506862    0.0047282  -0.00676935   0.00295291     -1.52325      1.42095     -2.03437     0.887428
    -0.23351    -0.539015     0.387377     0.136171   -0.0439767    -0.101512    0.0729542    0.0256449     -1.34699     -3.10927      2.23455     0.785492   -0.0295654   -0.0682462    0.0490468     0.017241   -0.0556952    -0.128562    0.0923944    0.0324786  -0.00509686   -0.0117652   0.00845532   0.00297222
  -0.0168679    0.0276941   -0.0261282   0.00984157   -0.0173175    0.0284323   -0.0268247    0.0101039  -0.00071903   0.00118052  -0.00111377  0.000419519   -0.0159149    0.0261295   -0.0246521   0.00928558 -0.000622548   0.00102212 -0.000964322  0.000363226      -1.6625      2.72953      -2.5752     0.969986
  -0.0226963    0.0358044   -0.0308397    0.0132477   -0.0218107    0.0344073   -0.0296363    0.0127308  -0.00118547   0.00187013  -0.00161082  0.000691952   -0.0202489    0.0319434   -0.0275141    0.0118191  -0.00105362   0.00166213  -0.00143166  0.000614991     -1.64623        2.597      -2.2369     0.960895
   -0.127132    -0.314335     0.300082    0.0742362   -0.0136564   -0.0337657    0.0322347   0.00797442     -1.53634     -3.79861      3.62637     0.897115  -0.00828827   -0.0204928    0.0195637   0.00483978   -0.0268687   -0.0664331    0.0634209    0.0156895 -0.000248009 -0.000613206  0.000585402   0.00014482
   -0.829451     -1.01903      1.91092     0.484835   -0.0918191    -0.112805     0.211536    0.0536706    -0.582992    -0.716238      1.34312     0.340774   -0.0642706     -0.07896     0.148069    0.0375678    -0.126505    -0.155418     0.291446    0.0739452   -0.0157524   -0.0193526    0.0362908   0.00920765
   -0.132432    -0.301119  -0.00404912    0.0774395     -1.36762     -3.10966   -0.0418153     0.799718   -0.0398447   -0.0905977  -0.00121826    0.0232992    -0.103397      -0.2351  -0.00316137    0.0604613   -0.0241013   -0.0548007   -0.0007369    0.0140932   -0.0427335   -0.0971661  -0.00130658    0.0249885
   -0.801675     -0.10205     0.739144     0.469664    -0.282385   -0.0359465     0.260359     0.165436    -0.167109   -0.0212724     0.154075    0.0979017    -0.205365   -0.0261421     0.189346     0.120314    -0.089849   -0.0114374    0.0828407    0.0526384    -0.160527   -0.0204345     0.148006    0.0940454
  -0.0353617    0.0450656   -0.0562877    0.0207194   -0.0323282    0.0411996    -0.051459    0.0189419  -0.00231617   0.00295177  -0.00368681   0.00135711   -0.0300262    0.0382659   -0.0477947    0.0175931  -0.00204315   0.00260382  -0.00325221   0.00119713     -1.60462      2.04496     -2.55419     0.940191
   -0.305896    -0.384961    -0.313664     0.179404    -0.807366     -1.01605    -0.827869     0.473509   -0.0642346   -0.0808373   -0.0658658    0.0376727    -0.280355    -0.352818    -0.287475     0.164424   -0.0434078   -0.0546275   -0.0445102    0.0254581     -0.20381    -0.256489    -0.208986     0.119532
    -1.10167    -0.476389      2.36301     0.648371    -0.116079    -0.050195      0.24898    0.0683161    -0.262351    -0.113447     0.562724     0.154402   -0.0861355    -0.037247     0.184754    0.0506936   -0.0964717   -0.0417166     0.206925    0.0567768   -0.0364295    -0.015753    0.0781387      0.02144
   -0.038606    -0.105654    0.0791603     0.022727  -0.00497397   -0.0136124     0.010199   0.00292814     -1.64429     -4.49998      3.37156      0.96798  -0.00290794  -0.00795824   0.00596264   0.00171188  -0.00780823    -0.021369    0.0160105   0.00459665 -9.53915e-05 -0.000261061  0.000195597  5.61562e-05
  -0.0157831     0.020045   -0.0329631   0.00930498   -0.0166198    0.0211077   -0.0347106   0.00979828 -0.000690558  0.000877028  -0.00144223  0.000407121   -0.0150308    0.0190895   -0.0313918   0.00886144 -0.000566537  0.000719517  -0.00118321  0.000334004     -1.64751      2.09238     -3.44083     0.971294
   -0.625755     -1.12068     0.744754     0.368953    -0.256192    -0.458821     0.304911     0.151054    -0.454962    -0.814806     0.541482     0.268251     -0.16244    -0.290918     0.193331    0.0957765    -0.142103    -0.254496     0.169126    0.0837855   -0.0545783    -0.097746    0.0649574    0.0321801
