 -0.00945565    0.0120343  -0.00780491   0.00344478   -0.0151565    0.0192898   -0.0125105   0.00552165           -0            0           -0            0   -0.0127864    0.0162733   -0.0105542    0.0046582           -0            0           -0            0     -2.70752      3.44588     -2.23485     0.986375
 -0.00900946    0.0121693  -0.00823356   0.00335888   -0.0146184    0.0197453   -0.0133594   0.00544998           -0            0           -0            0   -0.0123192    0.0166398   -0.0112582    0.0045928           -0            0           -0            0     -2.64633      3.57446     -2.41843     0.986598
  -0.0100182    0.0124704  -0.00790627   0.00373863   -0.0154059    0.0191768   -0.0121582   0.00574923 -2.40668e-05  2.99578e-05 -1.89933e-05  8.98137e-06   -0.0130752    0.0162757   -0.0103188   0.00487946 -1.78314e-05   2.2196e-05 -1.40724e-05  6.65439e-06      -2.6411      3.28757     -2.08433     0.985617
 -0.00934791    0.0125672  -0.00746175   0.00348889   -0.0148834    0.0200091   -0.0118803   0.00555488 -2.34339e-06  3.15043e-06 -1.87056e-06  8.74615e-07   -0.0125696    0.0168984   -0.0100334    0.0046913 -8.85221e-07  1.19008e-06 -7.06607e-07  3.30388e-07     -2.64254       3.5526     -2.10934     0.986264
 -0.00951747    0.0120685  -0.00881175   0.00359989    -0.014904    0.0188988   -0.0137989   0.00563731 -1.07507e-05  1.36322e-05 -9.95354e-06  4.06635e-06   -0.0126228    0.0160061   -0.0116868   0.00477445 -7.38817e-06  9.36844e-06 -6.84033e-06   2.7945e-06     -2.60676      3.30545     -2.41347     0.985981
 -0.00895738    0.0125876  -0.00785446   0.00339999   -0.0144442    0.0202981   -0.0126657   0.00548265 -2.86664e-06  4.02842e-06 -2.51367e-06   1.0881e-06   -0.0121818    0.0171188   -0.0106818   0.00462389 -1.82273e-06  2.56145e-06  -1.5983e-06  6.91863e-07     -2.59894      3.65224     -2.27893     0.986492
 -0.00978585    0.0129916  -0.00761605   0.00375756   -0.0150064    0.0199224   -0.0116791   0.00576215 -2.45978e-05  3.26558e-05 -1.91438e-05  9.44503e-06   -0.0127442     0.016919  -0.00991841   0.00489349 -1.81058e-05  2.40371e-05 -1.40912e-05  6.95226e-06     -2.56673      3.40757     -1.99761      0.98557
   -0.010778    0.0131933   -0.0093216   0.00413951   -0.0157709    0.0193051   -0.0136399   0.00605716 -7.75259e-05  9.48994e-05 -6.70503e-05  2.97755e-05   -0.0134894    0.0165124   -0.0116667   0.00518091 -6.33992e-05  7.76068e-05 -5.48324e-05  2.43498e-05      -2.5635      3.13798     -2.21711     0.984568
 -0.00912404    0.0123852  -0.00931106   0.00352868   -0.0144084    0.0195584   -0.0147038   0.00557239           -0            0           -0            0   -0.0122031    0.0165648   -0.0124532   0.00471949           -0            0           -0            0     -2.54994      3.46136     -2.60221     0.986179
 -0.00886779    0.0130845  -0.00919466   0.00352306   -0.0140079    0.0206688   -0.0145242   0.00556516           -0            0           -0            0   -0.0118677    0.0175108   -0.0123051   0.00471487           -0            0           -0            0     -2.48233       3.6627     -2.57383     0.986197
  -0.0087868    0.0130689  -0.00861007   0.00349262   -0.0139517    0.0207507   -0.0136711   0.00554557 -1.36834e-06  2.03517e-06 -1.34082e-06  5.43895e-07   -0.0118055    0.0175586    -0.011568    0.0046925 -3.58206e-07   5.3277e-07 -3.51002e-07  1.42382e-07     -2.48127      3.69047     -2.43137     0.986269
  -0.0111004    0.0141827  -0.00888415   0.00443117   -0.0157342    0.0201032   -0.0125928   0.00628093 -0.000107251  0.000137032 -8.58379e-05  4.28136e-05   -0.0135274    0.0172837   -0.0108266   0.00540001 -8.82313e-05  0.000112731 -7.06155e-05  3.52211e-05     -2.46451      3.14885     -1.97246      0.98381
  -0.0105305    0.0141872  -0.00845514   0.00426082   -0.0151947    0.0204712   -0.0122002   0.00614808 -8.21691e-05  0.000110702 -6.59754e-05  3.32472e-05   -0.0130289    0.0175532   -0.0104612   0.00527173 -6.67112e-05  8.98768e-05 -5.35639e-05  2.69926e-05     -2.43256      3.27727     -1.95315     0.984259
  -0.0120632    0.0149377   -0.0102326   0.00490059    -0.016351    0.0202471   -0.0138697   0.00664246 -0.000171124    0.0002119 -0.000145156  6.95177e-05   -0.0141613    0.0175356   -0.0120123   0.00575289 -0.000143748  0.000178001 -0.000121934  5.83965e-05      -2.4187      2.99503     -2.05166     0.982576
 -0.00994116     0.013038    -0.010708   0.00407034   -0.0146285    0.0191855   -0.0157569   0.00598954  -4.2075e-05  5.51821e-05 -4.53207e-05  1.72273e-05   -0.0125233    0.0164245   -0.0134893   0.00512757 -2.98033e-05  3.90875e-05 -3.21023e-05  1.22028e-05     -2.40518      3.15443     -2.59071     0.984783
 -0.00887626    0.0132331   -0.0101763   0.00364997   -0.0137464    0.0204937   -0.0157597    0.0056526           -0            0           -0            0   -0.0116949    0.0174353   -0.0134077   0.00480901           -0            0           -0            0     -2.39755      3.57438      -2.7487     0.985888
  -0.0115416     0.014528   -0.0114862   0.00475132   -0.0158409    0.0199398   -0.0157649   0.00652121 -0.000140545  0.000176912 -0.000139871  5.78582e-05   -0.0137019    0.0172473   -0.0136361   0.00564065 -0.000115849  0.000145826 -0.000115293  4.76916e-05     -2.38779      3.00564     -2.37634     0.982981
 -0.00948656    0.0132667   -0.0110536   0.00394642   -0.0141317    0.0197628   -0.0164661    0.0058788  -2.1122e-05  2.95385e-05 -2.46111e-05  8.78676e-06   -0.0120964    0.0169165   -0.0140946    0.0050321 -1.24822e-05  1.74561e-05 -1.45442e-05  5.19263e-06     -2.36809      3.31172     -2.75928     0.985129
  -0.0088599    0.0139358  -0.00850061   0.00371749   -0.0136222    0.0214264   -0.0130698   0.00571569  -1.1252e-05  1.76984e-05 -1.07957e-05   4.7212e-06   -0.0115863    0.0182242   -0.0111165   0.00486147 -6.33152e-06  9.95887e-06 -6.07476e-06  2.65662e-06     -2.34921      3.69509     -2.25395     0.985698
 -0.00912145    0.0139995  -0.00812583   0.00383122   -0.0138315    0.0212284   -0.0123217   0.00580953  -1.8467e-05  2.83431e-05 -1.64513e-05  7.75659e-06   -0.0117799    0.0180797   -0.0104941   0.00494783 -1.13147e-05  1.73657e-05 -1.00797e-05  4.75244e-06     -2.34606      3.60072     -2.08998     0.985399
 -0.00872533    0.0140887  -0.00923585   0.00372235   -0.0133873    0.0216163   -0.0141706    0.0057112   -8.749e-06  1.41269e-05 -9.26091e-06  3.73245e-06   -0.0114015    0.0184099   -0.0120686   0.00486403 -5.57641e-06  9.00417e-06 -5.90268e-06  2.37897e-06     -2.31051      3.73076      -2.4457     0.985696
  -0.0130952    0.0164442   -0.0124502   0.00560191   -0.0167852    0.0210778   -0.0159585   0.00718042 -0.000256797   0.00032247 -0.000244149  0.000109853   -0.0146808    0.0184353   -0.0139578    0.0062802 -0.000218415  0.000274272 -0.000207658  9.34342e-05     -2.29259      2.87891     -2.17968     0.980734
 -0.00998247    0.0150595  -0.00862492   0.00429346   -0.0143335    0.0216234   -0.0123842   0.00616482 -7.41197e-05  0.000111816 -6.40399e-05  3.18789e-05   -0.0123117    0.0185734   -0.0106374   0.00529528 -5.90993e-05  8.91568e-05 -5.10622e-05  2.54186e-05     -2.28828      3.45208     -1.97709     0.984189
 -0.00938878    0.0142672   -0.0119784   0.00409634   -0.0137061    0.0208279   -0.0174866   0.00598001 -3.04986e-05  4.63458e-05 -3.89108e-05  1.33066e-05   -0.0117876    0.0179125   -0.0150389   0.00514296 -1.95994e-05  2.97833e-05 -2.50053e-05  8.55124e-06     -2.25706      3.42984      -2.8796     0.984759
 -0.00847833    0.0140006  -0.00998863   0.00372738   -0.0129723    0.0214216   -0.0152831   0.00570307           -0            0           -0            0   -0.0110687    0.0182781   -0.0130404   0.00486618           -0            0           -0            0     -2.24209      3.70246     -2.64149     0.985703
  -0.0113215    0.0166605   -0.0097561   0.00500392   -0.0151859    0.0223472   -0.0130861   0.00671191 -0.000164614  0.000242242 -0.000141853  7.27567e-05   -0.0131888    0.0194084   -0.0113652   0.00582925 -0.000138374  0.000203628 -0.000119241  6.11591e-05     -2.22253      3.27062     -1.91522     0.982321
   -0.705184    -0.478854     0.107503     0.312676    -0.678176    -0.460514     0.103386     0.300701    -0.194031    -0.131757    0.0295794    0.0860327     -0.33525    -0.227651    0.0511078     0.148649    -0.103333   -0.0701677    0.0157527    0.0458172    -0.239346    -0.162527    0.0364875     0.106125
   -0.247061    -0.349929     -0.10227     0.109548     -1.58985     -2.25181     -0.65811     0.704946   -0.0653072   -0.0924989   -0.0270336    0.0289575    -0.204343    -0.289424   -0.0845867    0.0906065   -0.0390798   -0.0553513   -0.0161769    0.0173281    -0.109638    -0.155287    -0.045384    0.0486139
    -0.64839    -0.412334   -0.0105431     0.288249    -0.724497    -0.460733   -0.0117807     0.322083    -0.162527    -0.103357  -0.00264276    0.0722531    -0.349059    -0.221979  -0.00567586     0.155178   -0.0917158   -0.0583254  -0.00149134    0.0407733    -0.273222    -0.173752  -0.00444273     0.121464
   -0.681017    -0.533688     0.100529     0.302778    -0.714404    -0.559853     0.105458     0.317622    -0.197542    -0.154806    0.0291604    0.0878263    -0.331847    -0.260057    0.0489861     0.147538    -0.104616    -0.081984    0.0154431     0.046512    -0.219803    -0.172252    0.0324466    0.0977238
    -0.72143    -0.418339      0.11611     0.321081    -0.643368    -0.373073     0.103547     0.286338    -0.189274    -0.109755    0.0304626    0.0842386    -0.335872    -0.194764    0.0540568     0.149484    -0.101735   -0.0589938    0.0163737    0.0452785    -0.255201    -0.147984    0.0410731      0.11358
   -0.624315    -0.457821   -0.0150154      0.27798    -0.768163    -0.563308   -0.0184752     0.342029    -0.163468    -0.119874  -0.00393159    0.0727853    -0.345588    -0.253426  -0.00831176     0.153875   -0.0917261   -0.0672645  -0.00220611    0.0408416     -0.25264    -0.185265  -0.00607625     0.112489
   -0.347976    -0.415224    -0.144025     0.155192     -1.30918     -1.56219    -0.541862     0.583875   -0.0887396    -0.105889   -0.0367287    0.0395765    -0.276356    -0.329762    -0.114382      0.12325   -0.0538163   -0.0642166   -0.0222742    0.0240013     -0.16616    -0.198272   -0.0687727     0.074105
   -0.595906    -0.499923   -0.0185965     0.265772    -0.821109    -0.688852   -0.0256245     0.366212    -0.162581    -0.136394  -0.00507368    0.0725104    -0.339779    -0.285051   -0.0106035      0.15154   -0.0910876    -0.076416  -0.00284258    0.0406248    -0.231707    -0.194385   -0.0072309      0.10334
   -0.665592    -0.362263  -0.00324474     0.296893    -0.684048    -0.372308  -0.00333472     0.305125    -0.160119   -0.0871481 -0.000780574    0.0714223    -0.350032    -0.190513   -0.0017064     0.156135   -0.0910778   -0.0495711 -0.000444002     0.040626     -0.29099    -0.158378  -0.00141857     0.129799
  -0.0128185    0.0179715   -0.0111181   0.00572283   -0.0162796    0.0228239   -0.0141201   0.00726804 -0.000263071  0.000368824 -0.000228175  0.000117448   -0.0142663    0.0200012   -0.0123739   0.00636919 -0.000225612  0.000316306 -0.000195684  0.000100724     -2.19604      3.07883     -1.90473     0.980422
   -0.653121    -0.584582    0.0936081     0.291865     -0.75184    -0.672942     0.107757      0.33598    -0.199663     -0.17871    0.0286165    0.0892248    -0.326283    -0.292042    0.0467642     0.145808    -0.104938   -0.0939257    0.0150402    0.0468944    -0.201906    -0.180718     0.028938    0.0902272
   -0.758837    -0.545911     0.243631     0.339807     -0.61311    -0.441074     0.196844      0.27455    -0.228692    -0.164522    0.0734234     0.102408    -0.314446    -0.226214     0.100955     0.140809    -0.114906   -0.0826641    0.0368916     0.051455    -0.203149    -0.146146    0.0652224    0.0909699
   -0.143938    -0.240656   -0.0602181    0.0645209     -1.84109     -3.07821    -0.770242     0.825278   -0.0388931   -0.0650273   -0.0162714     0.017434    -0.123868      -0.2071   -0.0518215    0.0555244   -0.0228677   -0.0382336  -0.00956697    0.0102506   -0.0602155    -0.100677   -0.0251919    0.0269919
   -0.735159    -0.611445     0.233682     0.330115    -0.637372    -0.530114     0.202599     0.286205    -0.236907     -0.19704    0.0753047      0.10638    -0.312089     -0.25957    0.0992025      0.14014    -0.117484   -0.0977137    0.0373442    0.0527549    -0.187968    -0.156337    0.0597487     0.084405
     -0.5585     -0.53755   -0.0202228     0.250865    -0.884961    -0.851765   -0.0320437     0.397503    -0.159335    -0.153359   -0.0057694    0.0715696    -0.328084    -0.315777   -0.0118796     0.147367   -0.0889214   -0.0855859  -0.00321977    0.0399413    -0.206499    -0.198753  -0.00747715    0.0927542
   -0.506946    -0.458831     -0.11242      0.22783    -0.942182    -0.852757    -0.208938     0.423432    -0.129675    -0.117368   -0.0287568    0.0582782    -0.336626    -0.304676   -0.0746502     0.151285   -0.0762136     -0.06898   -0.0169011    0.0342516    -0.233467    -0.211308   -0.0517735     0.104924
   -0.776744    -0.475901     0.254949     0.349359    -0.581546    -0.356306      0.19088     0.261564    -0.220626    -0.135174    0.0724155    0.0992316    -0.313961    -0.192359     0.103051     0.141211    -0.111709   -0.0684425     0.036666    0.0502437    -0.218754    -0.134028    0.0718011    0.0983898
   -0.458036    -0.483763    -0.103738      0.20631     -1.05676     -1.11612    -0.239339      0.47599    -0.123441    -0.130375   -0.0279574    0.0556009    -0.313528    -0.331139    -0.071009     0.141221   -0.0721804   -0.0762346   -0.0163477    0.0325118    -0.196183    -0.207203   -0.0444323    0.0883657
   -0.233183      -0.3311    -0.138469     0.105151     -1.57073      -2.2303    -0.932735     0.708302   -0.0584328   -0.0829694   -0.0346987    0.0263495    -0.205829     -0.29226    -0.122226    0.0928162   -0.0358128   -0.0508511   -0.0212664    0.0161493    -0.113611    -0.161318   -0.0674649    0.0512316
   -0.417314    -0.422543    -0.172419     0.188213     -1.10697     -1.12084     -0.45736     0.499256    -0.101745    -0.103019   -0.0420372     0.045888    -0.314686    -0.318629    -0.130017     0.141927   -0.0614412    -0.062211   -0.0253852    0.0277107    -0.215082    -0.217777   -0.0888641    0.0970046
   -0.542957    -0.425488    -0.116206     0.244894    -0.851861    -0.667561    -0.182319     0.384221    -0.133546    -0.104654   -0.0285822    0.0602345    -0.348015    -0.272723   -0.0744838     0.156968   -0.0787781   -0.0617346   -0.0168605    0.0355319    -0.261953    -0.205279   -0.0560643      0.11815
  -0.0131459    0.0174829   -0.0150453   0.00593379   -0.0164438    0.0218687   -0.0188197   0.00742239 -0.000281146  0.000373899 -0.000321768  0.000126904   -0.0144666    0.0192393   -0.0165569   0.00652995 -0.000238792  0.000317571 -0.000273294  0.000107786     -2.17085      2.88704     -2.48451     0.979879
   -0.732427    -0.354001     0.129291       0.3307    -0.601995     -0.29096     0.106266     0.271808    -0.181869    -0.087902    0.0321042    0.0821161    -0.331144     -0.16005    0.0584547     0.149515   -0.0989481   -0.0478241    0.0174667    0.0446762    -0.268397    -0.129723    0.0473784     0.121185
  -0.0145125    0.0194661   -0.0130677   0.00655528   -0.0175126    0.0234903   -0.0157691   0.00791044 -0.000381883  0.000512233 -0.000343865  0.000172496   -0.0154844    0.0207697   -0.0139428   0.00699428 -0.000331783  0.000445032 -0.000298752  0.000149866     -2.16564      2.90485     -1.95004     0.978218
   -0.708053    -0.672636     0.223377     0.320031    -0.662008    -0.628893     0.208851     0.299219    -0.242685    -0.230545    0.0765623      0.10969    -0.307987    -0.292581    0.0971639     0.139206    -0.119547    -0.113567    0.0377149    0.0540339     -0.17217    -0.163557    0.0543162    0.0778185
   -0.677514    -0.307656   0.00908315     0.306232    -0.638271    -0.289836   0.00855703     0.288494    -0.156053   -0.0708631   0.00209214    0.0705351    -0.346116     -0.15717   0.00464023     0.156442   -0.0895256   -0.0406532   0.00120023     0.040465     -0.30494    -0.138472   0.00408821     0.137831
   -0.617978    -0.630213    0.0873308     0.279725    -0.790204    -0.805849     0.111669     0.357683    -0.198126    -0.202048    0.0279985    0.0896809     -0.31706    -0.323337     0.044806     0.143516     -0.10411    -0.106172    0.0147126    0.0471251    -0.181753    -0.185351    0.0256848    0.0822698
  -0.0140469    0.0183524   -0.0149273   0.00636129   -0.0171264    0.0223758   -0.0181998   0.00775587 -0.000343057  0.000448208 -0.000364559  0.000155357   -0.0151274    0.0197641   -0.0160755   0.00685062   -0.0002945  0.000384767 -0.000312958  0.000133368     -2.16124      2.82368      -2.2967     0.978743
   -0.381834    -0.475831   -0.0883174     0.172995     -1.22408     -1.52541    -0.283127     0.554587    -0.106698    -0.132965   -0.0246791    0.0483412    -0.276364    -0.344397   -0.0639225     0.125211   -0.0626335   -0.0780522    -0.014487     0.028377    -0.155581    -0.193881   -0.0359857    0.0704884
  -0.0114791    0.0159728   -0.0143527   0.00520246   -0.0150981    0.0210084   -0.0188775    0.0068426 -0.000170081  0.000236662 -0.000212657  7.70826e-05     -0.01319    0.0183534   -0.0164918   0.00597784 -0.000139042  0.000193472 -0.000173848  6.30152e-05      -2.1664      3.01448     -2.70871     0.981837
   -0.568042    -0.387062    -0.115821     0.257461    -0.784337    -0.534445    -0.159923     0.355496    -0.134463   -0.0916224   -0.0274163    0.0609443    -0.352895    -0.240462   -0.0719537     0.159948   -0.0795817   -0.0542267   -0.0162263    0.0360699    -0.287001    -0.195562   -0.0585182     0.130081
   -0.138064    -0.231194   -0.0823253    0.0626711     -1.81938     -3.04662     -1.08486     0.825864   -0.0354199    -0.059312   -0.0211203     0.016078    -0.125984    -0.210964   -0.0751218    0.0571873   -0.0210847   -0.0353072   -0.0125725   0.00957092   -0.0630692    -0.105612    -0.037607    0.0286288
   -0.590166    -0.348204    -0.113399     0.267909     -0.73339    -0.432708    -0.140919     0.332926    -0.134921   -0.0796048   -0.0259247    0.0612482    -0.355763    -0.209904   -0.0683588       0.1615   -0.0803814   -0.0474259   -0.0154451    0.0364896    -0.308238    -0.181864   -0.0592271     0.139926
   -0.810475     -0.61264     0.399417     0.369171    -0.532667    -0.402644     0.262509      0.24263    -0.268056    -0.202624     0.132103       0.1221    -0.288236    -0.217878     0.142048     0.131292    -0.124981   -0.0944735    0.0615931    0.0569289    -0.170974     -0.12924    0.0842594    0.0778788
   -0.606506     -0.30659    -0.106846     0.276387    -0.692146    -0.349882    -0.121933     0.315413    -0.134288   -0.0678831   -0.0236572    0.0611956    -0.356201    -0.180061   -0.0627509     0.162322   -0.0805446   -0.0407155   -0.0141893    0.0367045    -0.324724    -0.164149   -0.0572056     0.147978
    -0.26413    -0.391912   -0.0632082     0.120536     -1.50175     -2.22827     -0.35938     0.685327   -0.0751272    -0.111473   -0.0179785    0.0342845    -0.202978    -0.301175   -0.0485739    0.0926292    -0.044415   -0.0659023   -0.0106288    0.0202689    -0.102889    -0.152665    -0.024622    0.0469535
   -0.785701    -0.400663     0.269362     0.358769    -0.547477    -0.279182     0.187692     0.249991    -0.208882    -0.106518     0.071611    0.0953803    -0.309472    -0.157813     0.106096     0.141312    -0.107317   -0.0547256    0.0367915    0.0490035    -0.231141    -0.117869    0.0792421     0.105544
   -0.784625    -0.687061     0.384527     0.358309    -0.551023    -0.482507     0.270044     0.251632    -0.280634    -0.245738     0.137532     0.128155    -0.286979    -0.251295     0.140642     0.131053     -0.12886    -0.112837    0.0631514    0.0588457    -0.157678    -0.138071    0.0772743    0.0720056
   -0.326844    -0.390527    -0.194525     0.149337      -1.2826      -1.5325    -0.763354     0.586028   -0.0787981   -0.0941513   -0.0468976    0.0360034    -0.278063    -0.332241    -0.165492     0.127049    -0.049207   -0.0587947   -0.0292862     0.022483     -0.17312    -0.206851    -0.103034    0.0790997
  -0.0103816    0.0153032   -0.0138336   0.00474476    -0.014165    0.0208801    -0.018875    0.0064739 -0.000100387  0.000147977 -0.000133767  4.58804e-05   -0.0123201    0.0181606   -0.0164167   0.00563072 -7.68217e-05  0.000113241 -0.000102366  3.51103e-05     -2.15097      3.17067      -2.8662      0.98307
   -0.504226    -0.563266   -0.0189375     0.230624    -0.961937     -1.07457    -0.036128     0.439972     -0.14903     -0.16648   -0.0055972    0.0681634    -0.308253    -0.344346   -0.0115772     0.140989   -0.0839476    -0.093777  -0.00315287     0.038396    -0.178967    -0.199922  -0.00672156    0.0818561
   -0.466471    -0.403506    -0.191458     0.213457    -0.949212    -0.821085    -0.389594     0.434358    -0.109507    -0.094725   -0.0449458    0.0501101    -0.339082    -0.293312    -0.139173     0.155164    -0.066926   -0.0578922   -0.0274691    0.0306253    -0.254122     -0.21982    -0.104302     0.116286
       -0.83    -0.532853     0.414865     0.379847     -0.51165    -0.328475     0.255742     0.234155     -0.25318     -0.16254     0.126549     0.115867    -0.287258    -0.184417     0.143582     0.131463    -0.120126   -0.0771197    0.0600433    0.0549751    -0.182877    -0.117405    0.0914087     0.083693
 -0.00883026     0.014814   -0.0115555   0.00404135   -0.0129564    0.0217362   -0.0169551   0.00592977 -2.02658e-05  3.39986e-05 -2.65203e-05  9.27505e-06   -0.0111445    0.0186964    -0.014584    0.0051005 -1.19871e-05  2.01101e-05 -1.56867e-05  5.48616e-06     -2.15202       3.6103     -2.81618     0.984914
   -0.675944    -0.727543     0.213413     0.310166    -0.679026     -0.73086     0.214386      0.31158    -0.244448    -0.263108    0.0771783     0.112168    -0.301973    -0.325025    0.0953405     0.138564    -0.120488    -0.129685     0.038041    0.0552874    -0.157422    -0.169439    0.0497021    0.0722351
   -0.756047    -0.756519     0.369255     0.347622    -0.563728    -0.564081     0.275326     0.259196    -0.291581    -0.291763     0.142409     0.134066    -0.285126    -0.285304     0.139256     0.131098    -0.132741    -0.132824     0.064831    0.0610329    -0.145688    -0.145779    0.0711541    0.0669856
     -0.6174    -0.260472   -0.0943995     0.284696    -0.648241    -0.273483    -0.099115     0.298917    -0.132299    -0.055815   -0.0202283    0.0610058    -0.352189    -0.148583   -0.0538492     0.162402   -0.0798476   -0.0336865   -0.0122086    0.0368194    -0.338653    -0.142873   -0.0517794      0.15616
 -0.00989492    0.0153159   -0.0136073   0.00457241   -0.0137055    0.0212142   -0.0188475   0.00633329 -7.60881e-05  0.000117773 -0.000104635    3.516e-05   -0.0119014    0.0184217   -0.0163666   0.00549961 -5.57955e-05  8.63634e-05 -7.67286e-05  2.57829e-05     -2.12842      3.29448     -2.92695     0.983534
   -0.859073    -0.675506     0.573248     0.398712    -0.452733    -0.355993     0.302103     0.210122    -0.310635    -0.244259     0.207283     0.144172    -0.258387    -0.203175     0.172419     0.119923     -0.13278    -0.104408    0.0886025    0.0616258    -0.141011     -0.11088    0.0940949     0.065446
    -0.83973    -0.447891     0.432149     0.390146    -0.484364    -0.258348     0.249267      0.22504    -0.237202    -0.126518     0.122071     0.110206     -0.28306    -0.150977     0.145671     0.131512    -0.115002   -0.0613394    0.0591835    0.0534311    -0.192992    -0.102937     0.099319    0.0896656
   -0.574364    -0.670829    0.0823998     0.266892    -0.818794    -0.956312     0.117466     0.380472    -0.191043    -0.223129    0.0274075    0.0887725    -0.303264    -0.354198    0.0435071     0.140919    -0.101468     -0.11851    0.0145569    0.0471497    -0.163116    -0.190512    0.0234011    0.0757958
    -0.49603    -0.368692    -0.200557     0.230554    -0.836614    -0.621844    -0.338264     0.388857    -0.111384   -0.0827905   -0.0450355    0.0517712    -0.350336      -0.2604     -0.14165     0.162835   -0.0689327   -0.0512368   -0.0278712    0.0320398    -0.288174    -0.214196    -0.116516     0.133943
   -0.152594    -0.267106   -0.0387845    0.0709382     -1.74731     -3.05855     -0.44411     0.812293   -0.0435252   -0.0761878   -0.0110627     0.020234    -0.123973    -0.217006   -0.0315099    0.0576327    -0.025688   -0.0449651  -0.00652906    0.0119419   -0.0579943    -0.101515   -0.0147403    0.0269604
   -0.677961    -0.243568    0.0289849     0.315298    -0.586067    -0.210554    0.0250561     0.272561    -0.149594   -0.0537441   0.00639561    0.0695716     -0.33605    -0.120731    0.0143672     0.156286   -0.0870244   -0.0312649   0.00372056    0.0404723    -0.313524    -0.112638    0.0134041      0.14581
    -0.73123      -0.2815     0.148756     0.340127    -0.553343    -0.213019     0.112568     0.257384    -0.171658    -0.066083    0.0349209    0.0798459    -0.321387    -0.123724    0.0653806     0.149491   -0.0951636   -0.0366349    0.0193594    0.0442648    -0.277089     -0.10667    0.0563689     0.128886
    -0.82723    -0.754817     0.549663      0.38505    -0.463592    -0.423011     0.308039     0.215788    -0.330694    -0.301746     0.219734     0.153928     -0.25797    -0.235388     0.171411     0.120077    -0.138346    -0.126236    0.0919259     0.064396    -0.130538    -0.119111    0.0867375    0.0607614
   -0.882811    -0.588028     0.595494      0.41137    -0.437136     -0.29117     0.294867     0.203695    -0.290177    -0.193282     0.195737     0.135215    -0.257421    -0.171465     0.173642     0.119952    -0.127409   -0.0848653    0.0859428    0.0593696    -0.151076    -0.100629     0.101907    0.0703977
  -0.0657645    -0.129196   -0.0284712    0.0306808     -1.96519     -3.86066    -0.850782     0.916809   -0.0178464   -0.0350597   -0.0077262    0.0083258   -0.0579169    -0.113779   -0.0250738    0.0270197   -0.0101013   -0.0198442  -0.00437312    0.0047125   -0.0266912   -0.0524353   -0.0115553    0.0124521
   -0.726106    -0.821055     0.355954     0.338994    -0.568756    -0.643129     0.278818     0.265533    -0.296044    -0.334756     0.145128     0.138213    -0.281435    -0.318237     0.137966     0.131392    -0.134954    -0.152601    0.0661575    0.0630054    -0.134646    -0.152253    0.0660069    0.0628619
   -0.389651      -0.3943    -0.233729      0.18195     -1.06366     -1.07635    -0.638028     0.496682   -0.0895112   -0.0905791   -0.0536926    0.0417978    -0.317449    -0.321236    -0.190419     0.148235    -0.056323    -0.056995   -0.0337849    0.0263004    -0.224936    -0.227619    -0.134926     0.105035
   -0.015826    0.0210402    -0.015574    0.0073911   -0.0183036    0.0243341   -0.0180122   0.00854822 -0.000486129  0.000646294 -0.000478389  0.000227033   -0.0163194    0.0216961   -0.0160596   0.00762153 -0.000425139   0.00056521 -0.000418371   0.00019855     -2.08986      2.77841     -2.05659     0.976014
   -0.795563    -0.829615     0.527165     0.372853    -0.471792    -0.491986     0.312624     0.221112    -0.345298    -0.360078     0.228805     0.161829    -0.257272    -0.268284     0.170476     0.120574    -0.142853    -0.148967    0.0946587    0.0669501    -0.120943     -0.12612    0.0801409    0.0566819
    -0.78348    -0.319849     0.289199     0.368605    -0.505864    -0.206514     0.186725     0.237994    -0.194582   -0.0794364    0.0718245    0.0915453    -0.300498    -0.122676      0.11092     0.141376    -0.102486    -0.041839    0.0378299    0.0482168    -0.238619   -0.0974141    0.0880795     0.112263
   -0.514577    -0.329699    -0.202762     0.242212    -0.760786     -0.48745    -0.299777     0.358103    -0.110943   -0.0710831   -0.0437154    0.0522209    -0.353458    -0.226467    -0.139275     0.166373   -0.0694029   -0.0444677   -0.0273472     0.032668    -0.315323    -0.202033    -0.124249     0.148423
   -0.904771    -0.730561      0.75994     0.426097    -0.379932    -0.306778     0.319115     0.178927    -0.358248    -0.289268     0.300901     0.168715    -0.227501    -0.183696     0.191084      0.10714    -0.137736    -0.111215     0.115688    0.0648659    -0.115204   -0.0930216    0.0967624    0.0542545
   -0.938162     -0.64027     0.794185     0.442527    -0.369702    -0.252312     0.312966     0.174387    -0.328488    -0.224184     0.278076     0.154947    -0.227731     -0.15542     0.192782      0.10742    -0.132748   -0.0905968     0.112375    0.0626166    -0.123179   -0.0840666     0.104275    0.0581032
   -0.070265    -0.137804   -0.0424052    0.0331539     -1.92297     -3.77133     -1.16052     0.907337   -0.0180709   -0.0354405   -0.0109058   0.00852657   -0.0664396    -0.130301   -0.0400965    0.0313489   -0.0104876   -0.0205683  -0.00632931   0.00494849   -0.0311237   -0.0610397   -0.0187833    0.0146854
    -0.64103     -0.77941     0.205544     0.302761    -0.678329     -0.82476     0.217504     0.320377    -0.239943     -0.29174    0.0769368     0.113326    -0.293594    -0.356972    0.0941398     0.138666    -0.119641    -0.145468    0.0383625    0.0565071    -0.144743    -0.175989    0.0464114    0.0683628
   -0.896769    -0.495229     0.618735      0.42378    -0.417108    -0.230342     0.287788      0.19711    -0.267955    -0.147975     0.184879     0.126626    -0.253897    -0.140211     0.175179     0.119982    -0.121196   -0.0669291    0.0836208    0.0572729    -0.159195   -0.0879133     0.109838    0.0752296
   -0.866005    -0.812353     0.725524      0.40978    -0.386154    -0.362231     0.323514     0.182722    -0.383102    -0.359367     0.320956     0.181278    -0.227339    -0.213254     0.190461     0.107573     -0.14416    -0.135229     0.120775    0.0682143     -0.10658   -0.0999767    0.0892906    0.0504319
    -0.53182    -0.293489    -0.201542     0.251669    -0.708578    -0.391035    -0.268528     0.335315    -0.111285   -0.0614136   -0.0421733    0.0526626    -0.354807    -0.195803     -0.13446     0.167903   -0.0698972   -0.0385734   -0.0264887     0.033077    -0.336783    -0.185856     -0.12763     0.159373
   -0.621578    -0.205741   -0.0735632     0.294145    -0.595133    -0.196988   -0.0704336     0.281631    -0.128274   -0.0424583   -0.0151811    0.0607021    -0.342102    -0.113235   -0.0404875      0.16189   -0.0783507   -0.0259339  -0.00927275    0.0370773    -0.347733    -0.115099   -0.0411539     0.164555
   -0.545861    -0.257318    -0.195008     0.259432    -0.667974    -0.314881    -0.238632     0.317469    -0.111468   -0.0525456   -0.0398216    0.0529774    -0.353057     -0.16643    -0.126129     0.167798   -0.0702653   -0.0331229   -0.0251021    0.0333951    -0.355435    -0.167551    -0.126978     0.168928
   -0.762348    -0.897251     0.507235     0.362634    -0.473231    -0.556973     0.314868     0.225107    -0.354856    -0.417651     0.236106     0.168798    -0.254208    -0.299192      0.16914     0.120922    -0.145305    -0.171018      0.09668    0.0691189    -0.112302    -0.132175    0.0747214    0.0534201
   -0.988909    -0.686179        1.005     0.471057     -0.31096    -0.215767     0.316021     0.148123    -0.367286    -0.254851     0.373264     0.174953    -0.197861    -0.137291     0.201082    0.0942492    -0.134554   -0.0933635     0.136744    0.0640933   -0.0997702    -0.069228     0.101394    0.0475245
   -0.827403    -0.886286     0.691638     0.394471    -0.390622     -0.41842     0.326526     0.186232    -0.405296    -0.434139     0.338793     0.193228    -0.226335    -0.242442     0.189196     0.107907    -0.148787    -0.159375     0.124373    0.0709352   -0.0990579    -0.106107    0.0828039    0.0472267
    -0.94768    -0.779121     0.958748      0.45212    -0.317103    -0.260701     0.320807     0.151284    -0.402224    -0.330682     0.406921     0.191893    -0.196792     -0.16179      0.19909    0.0938858     -0.13948    -0.114671     0.141109    0.0665431   -0.0928009   -0.0762948    0.0938847    0.0442735
   -0.957359    -0.540442     0.825257     0.456844    -0.355205    -0.200518     0.306192     0.169501    -0.301845    -0.170396     0.260195     0.144038    -0.224887    -0.126952     0.193856     0.107314    -0.126173   -0.0712266     0.108763    0.0602089    -0.130121   -0.0734553     0.112166    0.0620929
   -0.838139    -0.359087     0.453841     0.400912    -0.449299    -0.192495     0.243289     0.214916    -0.219169   -0.0938994     0.118677     0.104837    -0.274952    -0.117799     0.148883      0.13152    -0.108872   -0.0466444    0.0589527    0.0520774    -0.200148   -0.0857502     0.108378    0.0957382
   -0.418984    -0.568302   -0.0129404     0.200718     -1.05737      -1.4342   -0.0326572     0.506542    -0.129743     -0.17598  -0.00400714    0.0621542    -0.267925    -0.363409  -0.00827495     0.128352   -0.0739376    -0.100288  -0.00228358    0.0354204    -0.139469    -0.189173  -0.00430754    0.0668136
   -0.424697    -0.365559    -0.256818     0.203536    -0.899187    -0.773978    -0.543746     0.430936   -0.0920533   -0.0792352   -0.0556655    0.0441166    -0.339561    -0.292278    -0.205336     0.162735   -0.0590702   -0.0508449   -0.0357203    0.0283095    -0.272022    -0.234144    -0.164494     0.130367
 -0.00930646    0.0156946   -0.0133747   0.00446327   -0.0130046    0.0219312   -0.0186895   0.00623687 -5.69018e-05  9.59603e-05 -8.17758e-05  2.72894e-05    -0.011292    0.0190431   -0.0162282   0.00541554 -3.92581e-05  6.62057e-05 -5.64194e-05  1.88277e-05     -2.05142      3.45956     -2.94818     0.983838
   -0.555789    -0.217652    -0.181473     0.266729    -0.630193    -0.246789    -0.205766     0.302436    -0.111094   -0.0435056   -0.0362738    0.0533154    -0.348178     -0.13635    -0.113685     0.167094   -0.0702248   -0.0275007   -0.0229293    0.0337016    -0.368241    -0.144207    -0.120236     0.176723
    -0.69286     -0.87885     0.345249     0.332767    -0.561516    -0.712248     0.279801     0.269685    -0.294576    -0.373652     0.146786     0.141479    -0.273928    -0.347461     0.136497     0.131562    -0.134647    -0.170792    0.0670941    0.0646683    -0.124592    -0.158038    0.0620838    0.0598392
    -1.01638    -0.582252      1.04766      0.48827    -0.301451    -0.172691     0.310728     0.144817    -0.332928    -0.190724     0.343174     0.159939     -0.19669    -0.112677     0.202743      0.09449    -0.128884   -0.0738334      0.13285    0.0619158    -0.105263   -0.0603018     0.108503    0.0505684
   -0.898795    -0.858529     0.908964     0.431814    -0.318747    -0.304467     0.322354     0.153138    -0.436698    -0.417134     0.441639     0.209806    -0.195798    -0.187026     0.198013    0.0940684    -0.146018    -0.139476      0.14767    0.0701524   -0.0853837   -0.0815584    0.0863497    0.0410215
     -1.0335    -0.727042      1.22662     0.497763    -0.260255    -0.183082     0.308884     0.125345    -0.398496    -0.280331     0.472956     0.191926    -0.169923    -0.119536     0.201673    0.0818392    -0.134487   -0.0946081     0.159616    0.0647726   -0.0796348   -0.0560209    0.0945147    0.0383542
 -0.00907592    0.0166848    -0.010933   0.00438273   -0.0128187    0.0235653   -0.0154415   0.00619008 -5.80216e-05  0.000106664 -6.98936e-05  2.80184e-05   -0.0110948    0.0203962   -0.0133649   0.00535763 -4.51491e-05      8.3e-05 -5.43871e-05  2.18023e-05     -2.03775       3.7461      -2.4547      0.98402
   -0.982937    -0.819375      1.16517      0.47551    -0.261311    -0.217829     0.309758     0.126413    -0.441611    -0.368126     0.523485     0.213636    -0.167833    -0.139906     0.198949    0.0811919    -0.139896    -0.116617     0.165832    0.0676767   -0.0735317    -0.061296    0.0871643    0.0355721
   -0.788698    -0.952584     0.662487     0.381868    -0.390236    -0.471325     0.327789     0.188943    -0.418187    -0.505084     0.351267     0.202476    -0.224098    -0.270664     0.188237     0.108503    -0.152096    -0.183701     0.127757    0.0736411   -0.0920539    -0.111182     0.077323    0.0445702
  -0.0748211    -0.152534    -0.021008    0.0362291     -1.86551     -3.80312    -0.523793     0.903301   -0.0212986   -0.0434202  -0.00598014     0.010313   -0.0634156    -0.129282   -0.0178056    0.0307064   -0.0123488   -0.0251749  -0.00346726   0.00597942   -0.0278211   -0.0567174  -0.00781153    0.0134713
     -0.8523    -0.927629     0.860571     0.412738    -0.319505    -0.347744     0.322606     0.154725    -0.467878     -0.50923     0.472418     0.226576    -0.194611    -0.211811     0.196499    0.0942429    -0.151463    -0.164849     0.152933    0.0733479   -0.0792339   -0.0862369    0.0800029    0.0383701
    -1.06727    -0.619385      1.27998     0.516844    -0.254439    -0.147663      0.30515     0.123216    -0.359636    -0.208713     0.431313      0.17416    -0.170019   -0.0986699     0.203905    0.0823347    -0.128955   -0.0748386     0.154657    0.0624487   -0.0846578   -0.0491307      0.10153    0.0409969
  -0.0167867    0.0227679   -0.0185923   0.00813531   -0.0188235    0.0255304   -0.0208483   0.00912241 -0.000576113  0.000781383 -0.000638081    0.0002792   -0.0168838    0.0228995   -0.0186998   0.00818234 -0.000506209  0.000686573 -0.000560659  0.000245323     -2.00986      2.72598     -2.22605     0.974035
   -0.213894    -0.323625    -0.167677     0.103669     -1.45932     -2.20799       -1.144       0.7073   -0.0519621   -0.0786197   -0.0407344    0.0251848    -0.196078    -0.296671    -0.153711    0.0950347    -0.032455   -0.0491051   -0.0254423    0.0157302    -0.109517    -0.165702   -0.0858536    0.0530806
   -0.895696    -0.397862     0.643168     0.435131    -0.389092    -0.172832     0.279393     0.189022     -0.24617    -0.109347     0.176766      0.11959    -0.246989    -0.109711     0.177354     0.119988    -0.114608   -0.0509081     0.082296    0.0556769    -0.165895   -0.0736891     0.119123     0.080592
   -0.127558    -0.227331    -0.100677    0.0620894     -1.69438     -3.01969     -1.33732     0.824747   -0.0317853   -0.0566471    -0.025087    0.0154716    -0.120697    -0.215104   -0.0952621    0.0587497   -0.0191682   -0.0341611   -0.0151288   0.00933017   -0.0608367    -0.108422   -0.0480163    0.0296124
 -0.00931666    0.0171308   -0.0105319   0.00453898   -0.0129608    0.0238314   -0.0146513   0.00631436 -7.20155e-05  0.000132417 -8.14088e-05  3.50852e-05   -0.0112394    0.0206662   -0.0127055   0.00547573 -5.54581e-05  0.000101972 -6.26918e-05  2.70186e-05     -2.01895      3.71229     -2.28229     0.983609
   -0.926764     -0.89632       1.1006     0.452223    -0.261255    -0.252673     0.310261     0.127482    -0.484783    -0.468858     0.575716     0.236554    -0.164987    -0.159568     0.195935    0.0805072    -0.144463    -0.139718     0.171561    0.0704922   -0.0670976   -0.0648935    0.0796836    0.0327409
   -0.726998    -0.957381     0.491906     0.355408    -0.464367    -0.611523     0.314203     0.227016    -0.353882    -0.466026     0.239446     0.173003    -0.249259    -0.328248     0.168655     0.121855     -0.14648    -0.192899    0.0991126      0.07161    -0.104543    -0.137672    0.0707366     0.051108
   -0.669863     -0.16786    0.0598303     0.327653    -0.516365    -0.129395    0.0461203     0.252571    -0.139593   -0.0349802     0.012468    0.0682794    -0.317398   -0.0795362    0.0283491      0.15525   -0.0831139   -0.0208274   0.00742351    0.0406538    -0.318098   -0.0797117    0.0284117     0.155593
    -1.06493     -0.76113      1.45261     0.521208    -0.215651    -0.154131     0.294158     0.105546    -0.423272    -0.302523     0.577363     0.207162    -0.143797    -0.102775     0.196145    0.0703784    -0.132689    -0.094836     0.180994    0.0649419   -0.0628552   -0.0449242    0.0857375    0.0307633
   -0.718189     -0.19964     0.177988     0.351531    -0.492767    -0.136978     0.122122     0.241194    -0.157642   -0.0438209    0.0390683     0.077161     -0.30454   -0.0846551    0.0754739     0.149063   -0.0896913   -0.0249321    0.0222281    0.0439011      -0.2802   -0.0778892    0.0694417     0.137149
    -0.96045    -0.435728      0.85638     0.470228    -0.335477    -0.152196     0.299126     0.164246    -0.273687    -0.124164     0.244032     0.133995    -0.219462   -0.0995637     0.195682     0.107447    -0.119121   -0.0540417     0.106213    0.0583205    -0.134322   -0.0609382     0.119768    0.0657631
   -0.515854    -0.696404    0.0806107     0.252992    -0.831425     -1.12243     0.129924     0.407759    -0.176561    -0.238359    0.0275906    0.0865918    -0.278921    -0.376544     0.043586     0.136792   -0.0946984    -0.127843    0.0147982    0.0464433    -0.141551    -0.191094    0.0221197    0.0694215
   -0.563158     -0.17027    -0.159547     0.276233    -0.579719    -0.175277    -0.164239     0.284356    -0.109401   -0.0330773   -0.0309942     0.053662     -0.33853    -0.102354   -0.0959082     0.166051   -0.0696892   -0.0210704   -0.0197435     0.034183    -0.378212    -0.114352     -0.10715     0.185515
    -1.10592    -0.652772      1.51938      0.54304    -0.213874    -0.126239     0.293832     0.105018    -0.377564    -0.222858     0.518718     0.185395    -0.145206   -0.0857078     0.199491    0.0713001    -0.126559   -0.0747015     0.173874    0.0621441   -0.0674152   -0.0397919    0.0926187    0.0331028
   -0.870767    -0.955666      1.03273     0.427916    -0.258583    -0.283795     0.306681     0.127074    -0.531042    -0.582818     0.629818     0.260967    -0.163058    -0.178956     0.193388    0.0801309    -0.149744    -0.164344     0.177598    0.0735881   -0.0617049    -0.067721    0.0731822    0.0303233
   -0.447387    -0.328412    -0.271207     0.219941     -0.78494    -0.576199    -0.475833     0.385887   -0.0930741   -0.0683226   -0.0564218    0.0457565    -0.343262    -0.251977    -0.208087     0.168752   -0.0601335    -0.044142   -0.0364531    0.0295624    -0.305323    -0.224128    -0.185088     0.150101
    -1.02295    -0.470214      1.08608     0.503101    -0.287293    -0.132058     0.305024     0.141295    -0.300008    -0.137903     0.318524     0.147548    -0.192343   -0.0884131     0.204214    0.0945968    -0.121225    -0.055723     0.128707    0.0596203     -0.10947   -0.0503196     0.116227     0.053839
   -0.807587    -0.990342     0.819754     0.397216    -0.316231    -0.387794     0.320995      0.15554    -0.488461    -0.598999      0.49582     0.240252    -0.192478    -0.236036     0.195378    0.0946714    -0.154748    -0.189767     0.157079    0.0761135    -0.073614   -0.0902726     0.074723    0.0362074
    -1.00677    -0.851173      1.37529     0.495724    -0.214228     -0.18112     0.292645     0.105484    -0.474039    -0.400778     0.647559     0.233413    -0.140882    -0.119109     0.192451    0.0693693    -0.137592    -0.116328     0.187957    0.0677494   -0.0573921   -0.0485223    0.0784002    0.0282595
    -0.30017    -0.381599    -0.235178      0.14784     -1.17925     -1.49915    -0.923922     0.580806   -0.0698815   -0.0888386   -0.0547509    0.0344181    -0.266958    -0.339377    -0.209157     0.131482   -0.0447271   -0.0568605   -0.0350429     0.022029    -0.169383    -0.215333    -0.132709    0.0834249
   -0.264928    -0.435124   -0.0238124     0.130572     -1.34822     -2.21436    -0.121182     0.664484   -0.0795736    -0.130694  -0.00715228    0.0392185    -0.195945    -0.321825    -0.017612     0.096573   -0.0475963   -0.0781735  -0.00427808    0.0234583   -0.0927129    -0.152274  -0.00833327    0.0456943
   -0.768772    -0.232871     0.317663      0.38014    -0.452628    -0.137107     0.187029     0.223814    -0.178367   -0.0540296    0.0737025    0.0881982    -0.284941   -0.0863123      0.11774     0.140897   -0.0963922   -0.0291984      0.03983    0.0476637    -0.241241   -0.0730749    0.0996825     0.119288
  -0.0153611    0.0216686   -0.0192194   0.00759696    -0.017597    0.0248225   -0.0220169   0.00870273  -0.00048554  0.000684909 -0.000607494  0.000240128   -0.0157375    0.0221995   -0.0196903   0.00778309 -0.000422612  0.000596142  -0.00052876  0.000209006     -1.97241       2.7823     -2.46782     0.975468
    -1.07955    -0.502299        1.329     0.534105    -0.244172    -0.113609     0.300592     0.120803     -0.32072    -0.149226     0.394828     0.158675    -0.167141   -0.0777682     0.205762    0.0826925     -0.12207   -0.0567971     0.150276    0.0603935   -0.0875829   -0.0407509      0.10782    0.0433313
   -0.617441    -0.136537   -0.0410208     0.306318    -0.525497    -0.116205   -0.0349123     0.260703    -0.121203    -0.026802  -0.00805232    0.0601297    -0.322913   -0.0714069   -0.0214533       0.1602   -0.0752603   -0.0166426  -0.00500006    0.0373373    -0.353376   -0.0781431   -0.0234771     0.175312
   -0.939506    -0.918279      1.28747     0.466534    -0.211094    -0.206324     0.289275     0.104823    -0.532793    -0.520755      0.73012     0.264571     -0.13708    -0.133983     0.187849    0.0680702     -0.14128    -0.138088     0.193606    0.0701561   -0.0520475   -0.0508715     0.071324    0.0258454
   -0.596761    -0.821538     0.199523     0.296567    -0.659702    -0.908186     0.220566     0.327846    -0.230313    -0.317063    0.0770033     0.114456    -0.278558     -0.38348    0.0931338     0.138433    -0.115884    -0.159533    0.0387448    0.0575897    -0.131012     -0.18036     0.043803     0.065108
 -0.00993364    0.0164916   -0.0150611   0.00494526   -0.0132471    0.0219927    -0.020085   0.00659481 -0.000109785  0.000182264 -0.000166454  5.46544e-05   -0.0116039    0.0192646   -0.0175936   0.00577678 -8.35765e-05  0.000138752 -0.000126717  4.16068e-05     -1.97374      3.27677     -2.99254     0.982587
   -0.814908     -1.00703     0.970584     0.405966    -0.251814    -0.311181      0.29992     0.125447    -0.572487    -0.707454     0.681852     0.285198    -0.159159    -0.196682     0.189564     0.079289    -0.152424    -0.188359     0.181543    0.0759338   -0.0565371   -0.0698661    0.0673377    0.0281653
   -0.748874     -1.01245     0.641233     0.373235    -0.380998    -0.515097     0.326235     0.189888    -0.417739    -0.564769     0.357695     0.208199    -0.219984     -0.29741     0.188364     0.109639    -0.152821    -0.206609     0.130855    0.0761653   -0.0860241    -0.116302    0.0736593     0.042874
   -0.880107    -0.969724      1.20341     0.438742    -0.206022       -0.227     0.281703     0.102704    -0.593638    -0.654085     0.811709     0.295934    -0.133256    -0.146825     0.182207    0.0664293    -0.146024    -0.160893     0.199666    0.0727945   -0.0469331    -0.051712    0.0641738    0.0233966
  -0.0128894    0.0191725   -0.0178721   0.00643751   -0.0155835    0.0231798   -0.0216076   0.00778304 -0.000312388  0.000464665 -0.000433147  0.000156019   -0.0138347    0.0205785   -0.0191827   0.00690959 -0.000265214  0.000394496 -0.000367738  0.000132459     -1.95935      2.91446     -2.71678     0.978581
 -0.00903656     0.017029   -0.0120789   0.00451325   -0.0125629    0.0236741   -0.0167923   0.00627444 -6.69962e-05  0.000126251 -8.95515e-05  3.34608e-05   -0.0109197    0.0205777    -0.014596   0.00545377  -5.2558e-05  9.90431e-05 -7.02524e-05  2.62497e-05     -1.96959       3.7116     -2.63268     0.983699
   -0.598275    -0.901954      1.02555     0.299356   -0.0936663     -0.14121     0.160561    0.0468674     -1.11402     -1.67949      1.90964     0.557419   -0.0622457   -0.0938411       0.1067    0.0311456    -0.117703    -0.177448     0.201765    0.0588946   -0.0126261    -0.019035    0.0216435   0.00631767
    -1.12074    -0.531057      1.57553     0.561256    -0.206825   -0.0980026     0.290751     0.103576    -0.335439    -0.158945     0.471554     0.167984    -0.143712   -0.0680971     0.202028    0.0719695    -0.120068   -0.0568935      0.16879    0.0601288   -0.0700612    -0.033198    0.0984909    0.0350859
   -0.460729    -0.288691    -0.276616     0.231007    -0.704357    -0.441348    -0.422888      0.35316   -0.0923369    -0.057858   -0.0554381    0.0462972    -0.343863    -0.215463    -0.206451     0.172411   -0.0605135   -0.0379176   -0.0363316    0.0303411    -0.332641    -0.208432    -0.199714     0.166784
   -0.422737    -0.730525     0.729925     0.212043   -0.0652773    -0.112805     0.112712    0.0327428      -1.3689     -2.36557      2.36362     0.686631    -0.042512   -0.0734644    0.0734041    0.0213238   -0.0873081    -0.150876     0.150752    0.0437933  -0.00691062   -0.0119421    0.0119323   0.00346633
   -0.820425    -0.266054     0.481163     0.411606    -0.407188    -0.132046     0.238808     0.204285     -0.19839   -0.0643357     0.116352     0.099532    -0.262403   -0.0850944     0.153894     0.131647    -0.102398   -0.0332066    0.0600546     0.051373    -0.202426   -0.0656444     0.118719     0.101557
    -1.07983    -0.789934      1.68122     0.542001    -0.179659    -0.131426     0.279715     0.090176    -0.432607    -0.316466     0.673538     0.217139    -0.121491   -0.0888747     0.189153      0.06098    -0.129218   -0.0945275     0.201184    0.0648586   -0.0495003   -0.0362111    0.0770683    0.0248457
   -0.813985      -1.0056      1.11409      0.40904    -0.196795    -0.243121     0.269351    0.0988924    -0.663027    -0.819105     0.907478     0.333181    -0.127568    -0.157598     0.174601     0.064105     -0.14694     -0.18153     0.201115    0.0738394   -0.0416758   -0.0514864    0.0570412    0.0209427
  -0.0109759    0.0173638   -0.0163312   0.00551706   -0.0140212    0.0221815   -0.0208623    0.0070478 -0.000184786   0.00029233 -0.000274945  9.28831e-05   -0.0123569    0.0195484   -0.0183859    0.0062112 -0.000150078  0.000237422 -0.000223302   7.5437e-05     -1.95176      3.08767     -2.90404     0.981056
    -1.12354     -0.68121       1.7576     0.565404     -0.17931    -0.108717     0.280504    0.0902354     -0.38467    -0.233229     0.601759      0.19358    -0.123277   -0.0747437     0.192848    0.0620372    -0.122539   -0.0742967     0.191694    0.0616662   -0.0538072   -0.0326238    0.0841732    0.0270777
   -0.651326    -0.924369     0.336231     0.327842    -0.540483    -0.767059     0.279011     0.272049    -0.284782    -0.404166     0.147012     0.143344    -0.263345    -0.373742     0.135945     0.132553    -0.132587    -0.188169    0.0684447    0.0667369    -0.114186    -0.162055    0.0589459    0.0574751
   -0.721159    -0.971026      1.24092     0.363405    -0.114304    -0.153908     0.196687       0.0576    -0.923004     -1.24281      1.58824     0.465118   -0.0760108    -0.102347     0.130794    0.0383032    -0.131965    -0.177687     0.227075    0.0664993   -0.0180072   -0.0242464    0.0309856   0.00907417
  -0.0655623    -0.135905   -0.0519254    0.0330543     -1.79711     -3.72526     -1.42331     0.906042   -0.0162282   -0.0336397   -0.0128527   0.00818172   -0.0643765    -0.133447   -0.0509863    0.0324565  -0.00942284   -0.0195328   -0.0074629   0.00475068   -0.0307726   -0.0637891   -0.0243719    0.0155145
   -0.812751    -0.995339      1.25823     0.409841    -0.156097    -0.191165     0.241656    0.0787139    -0.739713    -0.905893      1.14516      0.37301    -0.102591    -0.125638     0.158822    0.0517328    -0.141553    -0.173354     0.219141    0.0713802   -0.0303849    -0.037211    0.0470393     0.015322
    -1.01892    -0.877953      1.59059     0.514123    -0.175641    -0.151341     0.274185    0.0886242    -0.491149    -0.423199      0.76671     0.247822    -0.117532    -0.101271     0.183473    0.0593038    -0.134039    -0.115495     0.209242    0.0676329   -0.0445792   -0.0384117    0.0695905    0.0224936
   -0.472409    -0.252431    -0.275578     0.238852    -0.655148    -0.350077    -0.382178     0.331246   -0.0922507    -0.049294   -0.0538141    0.0466424    -0.342649    -0.183094    -0.199883     0.173245   -0.0607795   -0.0324774   -0.0354555    0.0307304    -0.354594    -0.189477    -0.206851     0.179285
   -0.886019    -0.978994      1.37944     0.448179    -0.163831    -0.181023     0.255067    0.0828714    -0.642321    -0.709723      1.00002     0.324908    -0.108181    -0.119533     0.168426    0.0547217     -0.14173    -0.156602     0.220658    0.0716919   -0.0348486   -0.0385054    0.0542555    0.0176276
   -0.355047    -0.382333    -0.282692     0.179648    -0.961628     -1.03553    -0.765658     0.486568   -0.0781094   -0.0841124   -0.0621915     0.039522    -0.306678    -0.330248     -0.24418     0.155174   -0.0509019   -0.0548139   -0.0405286    0.0257555    -0.223986      -0.2412     -0.17834     0.113333
   -0.722325    -0.989732      1.11954      0.36576    -0.142399    -0.195116     0.220705    0.0721059     -0.85503     -1.17157      1.32522     0.432957   -0.0934532     -0.12805     0.144844    0.0473214      -0.1362    -0.186622     0.211098    0.0689671   -0.0254519   -0.0348743    0.0394481    0.0128879
   -0.147525    -0.284917   -0.0170588     0.074733     -1.58783      -3.0666    -0.183606     0.804361   -0.0435858   -0.0841778  -0.00503996    0.0220796    -0.116892    -0.225756   -0.0135166     0.059215   -0.0259999    -0.050214  -0.00300645     0.013171   -0.0521939    -0.100803  -0.00603534    0.0264403
   -0.755498     -1.04093     0.783094     0.383072    -0.305873    -0.421435     0.317046     0.155091    -0.502271    -0.692034     0.520618     0.254674    -0.186529    -0.257001     0.193342    0.0945786    -0.154109    -0.212333     0.159738    0.0781401   -0.0679308   -0.0935957    0.0704121     0.034444
   -0.950716    -0.941014      1.48788      0.48223    -0.169957    -0.168222     0.265984    0.0862067    -0.560732    -0.555009     0.877551     0.284419    -0.112539    -0.111391     0.176125     0.057083    -0.138113    -0.136703     0.216148    0.0700548   -0.0394437   -0.0390412    0.0617298    0.0200069
   -0.484181    -0.218589    -0.268475     0.245735    -0.619169    -0.279531    -0.343325     0.314245    -0.092593   -0.0418022   -0.0513422    0.0469934    -0.340069    -0.153528    -0.188566     0.172594   -0.0611636    -0.027613   -0.0339148    0.0310422    -0.373166     -0.16847    -0.206918     0.189392
    -0.02206   -0.0514571   -0.0103824    0.0112106     -1.90743     -4.44926    -0.897717     0.969331  -0.00593218   -0.0138374  -0.00279194   0.00301465   -0.0200045   -0.0466624  -0.00941499     0.010166  -0.00334418  -0.00780062  -0.00157391   0.00169947  -0.00900963   -0.0210158  -0.00424032   0.00457858
    -0.87889    -0.299134     0.672507      0.44692    -0.356378    -0.121295     0.272692      0.18122    -0.220672   -0.0751065     0.168853     0.112213    -0.236389   -0.0804558     0.180879     0.120205    -0.107146   -0.0364675    0.0819855    0.0544841    -0.167075   -0.0568648     0.127842    0.0849586
   -0.413615    -0.719156     0.796541     0.210519   -0.0550129   -0.0956514     0.105944    0.0280001     -1.37096     -2.38371      2.64021     0.697784   -0.0358622    -0.062354    0.0690636    0.0182529   -0.0845609    -0.147027     0.162847    0.0430392  -0.00472428  -0.00821415   0.00909803   0.00240453
   -0.585884     -0.89063      1.12276     0.298803   -0.0788269    -0.119828     0.151059     0.040202      -1.1216     -1.70499      2.14937     0.572019   -0.0523467   -0.0795747     0.100314     0.026697    -0.112988    -0.171758     0.216523    0.0576241  -0.00912699   -0.0138744    0.0174904    0.0046548
   -0.816223    -0.998106      1.41952     0.416646    -0.126669    -0.154896     0.220295    0.0646592    -0.770941    -0.942734      1.34077     0.393532   -0.0845412     -0.10338     0.147028    0.0431546    -0.138333    -0.169159     0.240579    0.0706131   -0.0223224   -0.0272966    0.0388216    0.0113946
   -0.495128    -0.182749    -0.253949     0.252874    -0.585605    -0.216144    -0.300355     0.299083   -0.0931102   -0.0343665   -0.0477558    0.0475537    -0.335398    -0.123794    -0.172024     0.171296   -0.0615767   -0.0227277   -0.0315824    0.0314488    -0.387182    -0.142907    -0.198584     0.197744
   -0.561784    -0.106523    -0.124682     0.287274    -0.514654   -0.0975868    -0.114222     0.263173    -0.104793   -0.0198706   -0.0232579    0.0535872    -0.320348   -0.0607432   -0.0710979     0.163813   -0.0675295   -0.0128047   -0.0149875    0.0345319    -0.386462   -0.0732794   -0.0857712     0.197621
   -0.604347     -0.94132     0.946221     0.309053    -0.115573    -0.180015     0.180952    0.0591022     -1.01705     -1.58414      1.59238     0.520101   -0.0766646    -0.119411     0.120033     0.039205    -0.123689    -0.192656     0.193659    0.0632527    -0.018158   -0.0282825    0.0284298   0.00928569
   -0.687291     -1.00865     0.482193     0.351527     -0.44362    -0.651044     0.311237     0.226897    -0.341663    -0.501416     0.239706     0.174749    -0.240897    -0.353534     0.169009     0.123211    -0.144708    -0.212369     0.101525    0.0740132    -0.096982    -0.142328     0.068041    0.0496031
    -0.24742    -0.494307     0.438168     0.126666   -0.0358864   -0.0716954    0.0635529     0.018372     -1.59252     -3.18161      2.82027     0.815289   -0.0228282   -0.0456071    0.0404275    0.0116869   -0.0519928    -0.103873    0.0920765    0.0266176  -0.00267247  -0.00533917    0.0047328   0.00136817
   -0.943034    -0.329022     0.889055     0.482822    -0.308935    -0.107787     0.291251     0.158171    -0.243125   -0.0848257     0.229208     0.124477    -0.210243   -0.0733534     0.198209     0.107642    -0.111385    -0.038862      0.10501    0.0570279    -0.136448   -0.0476062     0.128637    0.0698595
    -1.14042    -0.557734      1.81988     0.584647    -0.174851    -0.085513     0.279028    0.0896393    -0.340517    -0.166534     0.543398      0.17457    -0.122659   -0.0599875     0.195739    0.0628822    -0.116084   -0.0567721     0.185247    0.0595116   -0.0560807   -0.0274269    0.0894937    0.0287503
  -0.0316514   -0.0732982   -0.0204279    0.0162288     -1.86049     -4.30852     -1.20077     0.953942  -0.00799258   -0.0185092  -0.00515843   0.00409809   -0.0315311   -0.0730195   -0.0203502    0.0161671  -0.00457312   -0.0105904   -0.0029515    0.0023448   -0.0140788   -0.0326037  -0.00908651   0.00721874
   -0.749863     -1.04873     0.910323      0.38451    -0.240123    -0.335826     0.291506     0.123129    -0.606849    -0.848714     0.736706     0.311176    -0.151914    -0.212461     0.184422    0.0778976     -0.15047    -0.210441     0.182669    0.0771571   -0.0509603   -0.0712709     0.061865    0.0261311
   -0.727115     -1.01824      1.00825     0.373187     -0.18134    -0.253946     0.251454     0.093072    -0.745502     -1.04399      1.03374     0.382625    -0.117539    -0.164599     0.162985    0.0603262    -0.141244    -0.197796     0.195855    0.0724927   -0.0356495   -0.0499229    0.0494331    0.0182969
    -1.00659     -0.35565      1.12557     0.517581    -0.267309   -0.0944459     0.298906     0.137448    -0.263939   -0.0932553     0.295138     0.135715     -0.18479     -0.06529     0.206632    0.0950173     -0.11174   -0.0394802     0.124948     0.057456    -0.110429    -0.039017     0.123482    0.0567819
  -0.0182422    0.0110057   -0.0366783   0.00940119    -0.019866    0.0119854   -0.0399432     0.010238 -0.000984757  0.000594114  -0.00197998  0.000507499   -0.0174785     0.010545   -0.0351428   0.00900764 -0.000858578  0.000517989  -0.00172628  0.000442472     -1.88298      1.13602     -3.78598     0.970403
    -1.06298    -0.379803      1.37496     0.549861    -0.228305   -0.0815734      0.29531     0.118098    -0.279818    -0.099979     0.361942     0.144745    -0.160563   -0.0573693     0.207687    0.0830565     -0.11259   -0.0402284     0.145634    0.0582408   -0.0889239   -0.0317725     0.115022    0.0459988
   -0.711721    -0.972101      1.37519     0.368382   -0.0954784    -0.130409     0.184483     0.049419    -0.918655     -1.25474      1.77503     0.475489   -0.0641586   -0.0876308     0.123967    0.0332081    -0.128672    -0.175747     0.248621       0.0666   -0.0133342   -0.0182124    0.0257643   0.00690167
   -0.882157    -0.985898      1.55453      0.45709    -0.133581     -0.14929     0.235396    0.0692152    -0.661133    -0.738882      1.16505     0.342567   -0.0895761     -0.10011     0.157851    0.0464139     -0.13736    -0.153514     0.242056    0.0711734   -0.0261324   -0.0292056    0.0460504    0.0135405
    -0.24691    -0.495629     0.486016      0.12802   -0.0306661   -0.0615568    0.0603628    0.0158999     -1.57924     -3.17004      3.10856     0.818813   -0.0193066   -0.0387546    0.0380029    0.0100102   -0.0510033     -0.10238     0.100395    0.0264445  -0.00156789  -0.00314727   0.00308622   0.00081293
   -0.423321    -0.763495     0.677074     0.219549   -0.0798755    -0.144062     0.127756    0.0414262     -1.26794     -2.28683      2.02798     0.657597    -0.052901   -0.0954114    0.0846116    0.0274363   -0.0936851    -0.168969     0.149843    0.0485883   -0.0104175   -0.0187889    0.0166621   0.00540288
   -0.504635    -0.139133    -0.230315     0.261899    -0.542353    -0.149533     -0.24753     0.281474   -0.0931174   -0.0256735   -0.0424988    0.0483267    -0.325269   -0.0896803    -0.148453     0.168811   -0.0615882   -0.0169805   -0.0281089    0.0319635    -0.399868    -0.110248      -0.1825     0.207526
  -0.0236774     0.011527   -0.0454908    0.0122966    -0.024803     0.012075   -0.0476533    0.0128812  -0.00145744  0.000709534  -0.00280014  0.000756907   -0.0221763    0.0107962   -0.0426067     0.011517  -0.00129455  0.000630236  -0.00248719  0.000672314     -1.85211     0.901675     -3.55841     0.961876
  -0.0114585    0.0209998   -0.0121348   0.00596786   -0.0142354     0.026089   -0.0150756   0.00741414 -0.000229306  0.000420244 -0.000242839  0.000119428   -0.0125759    0.0230476   -0.0133181    0.0065498 -0.000194091  0.000355707 -0.000205546  0.000101087     -1.88135      3.44791     -1.99238     0.979848
  -0.0274409    0.0197205   -0.0500454     0.014305   -0.0279778    0.0201063   -0.0510246    0.0145849  -0.00170879   0.00122803  -0.00311641  0.000890798   -0.0251291    0.0180591   -0.0458293    0.0130999  -0.00150484   0.00108146  -0.00274446   0.00078448     -1.83451      1.31837     -3.34569     0.956335
    -1.07804    -0.815643      1.91447     0.562912    -0.146364    -0.110738     0.259923    0.0764252    -0.427107    -0.323147     0.758488     0.223018    -0.100872   -0.0763194     0.179136    0.0526715    -0.124713   -0.0943574     0.221475    0.0651203   -0.0380195   -0.0287654    0.0675178    0.0198523
    -0.38309    -0.351014    -0.312174     0.200208    -0.805098    -0.737688    -0.656062     0.420755   -0.0795486   -0.0728882    -0.064823    0.0415732     -0.32392    -0.296799    -0.263957     0.169285   -0.0529138   -0.0484834   -0.0431187    0.0276535    -0.268891    -0.246377    -0.219115     0.140526
  -0.0101343     0.019544   -0.0114517   0.00529951   -0.0131718     0.025402   -0.0148841   0.00688796 -0.000142515  0.000274842 -0.000161041  7.45254e-05   -0.0115625    0.0222984   -0.0130656   0.00604638 -0.000115721  0.000223169 -0.000130764  6.05141e-05     -1.87717      3.62015      -2.1212     0.981631
     -0.7007     -1.05934     0.625701     0.366813    -0.362097    -0.547432     0.323341     0.189556     -0.40748    -0.616043     0.363866     0.213313    -0.210829    -0.318739     0.188263     0.110368    -0.149799    -0.226471     0.133765    0.0784189   -0.0793354    -0.119942    0.0708438    0.0415316
     -1.1256    -0.709042       2.0046     0.589267    -0.147298   -0.0927865     0.262325    0.0771126    -0.375309    -0.236416     0.668393     0.196479    -0.102641   -0.0646562     0.182796    0.0537342     -0.11787    -0.074249     0.209916    0.0617065   -0.0414509   -0.0261109    0.0738206    0.0217001
    -1.10487    -0.402943      1.62827     0.578461     -0.19499   -0.0711126     0.287362     0.102089     -0.28948    -0.105573     0.426614     0.151559    -0.138833   -0.0506322     0.204602    0.0726871    -0.110876   -0.0404363     0.163401    0.0580499   -0.0709649   -0.0258808     0.104583    0.0371542
    -1.01542    -0.900411      1.80718     0.531727    -0.142857    -0.126677     0.254248    0.0748075    -0.490251    -0.434724     0.872519     0.256721     -0.09735   -0.0863241     0.173258    0.0509777    -0.129881     -0.11517     0.231154    0.0680126   -0.0339037   -0.0300638    0.0603399    0.0177538
   -0.946274    -0.957033      1.68387     0.495584    -0.139098    -0.140679      0.24752    0.0728485    -0.565375    -0.571804      1.00607       0.2961   -0.0939055   -0.0949732     0.167102    0.0491804    -0.134751    -0.136283     0.239785    0.0705719   -0.0300068    -0.030348    0.0533962    0.0157152
   -0.648763   -0.0807676    0.0979226     0.340046    -0.444651   -0.0553568    0.0671145     0.233062    -0.125692    -0.015648    0.0189716    0.0658808    -0.294052   -0.0366079    0.0443834     0.154126   -0.0773949  -0.00963527    0.0116818    0.0405662    -0.317317   -0.0395043     0.047895      0.16632
   -0.694376    -0.109735     0.214253     0.364316    -0.426155   -0.0673467     0.131492     0.223589    -0.141008    -0.022284    0.0435087    0.0739823    -0.282722   -0.0446796    0.0872353     0.148335   -0.0835487   -0.0132035    0.0257793    0.0438353     -0.27816   -0.0439586    0.0858277     0.145942
  -0.0338529   -0.0809979   -0.0106372    0.0177824     -1.81293      -4.3377    -0.569656     0.952306  -0.00973603   -0.0232948  -0.00305924   0.00511419   -0.0296526    -0.070948  -0.00931738    0.0155761  -0.00557015   -0.0133274  -0.00175024   0.00292591    -0.011985   -0.0286758  -0.00376591   0.00629555
  -0.0135281     0.023687   -0.0138745   0.00710963   -0.0157969    0.0276596   -0.0162014     0.008302 -0.000376693  0.000659572  -0.00038634   0.00019797   -0.0140946     0.024679   -0.0144556   0.00740737 -0.000327681  0.000573754 -0.000336073  0.000172212     -1.85866      3.25442     -1.90626     0.976811
  -0.0118777   0.00623767     -0.02639   0.00624476   -0.0139727   0.00733788   -0.0310447   0.00734622 -0.000520398  0.000273292  -0.00115623  0.000273603   -0.0119433   0.00627216   -0.0265359   0.00627929 -0.000443527  0.000232923 -0.000985436  0.000233187     -1.86326     0.978511     -4.13983     0.979623
   -0.035276    0.0210894   -0.0610867     0.018556   -0.0349725    0.0209079    -0.060561    0.0183963  -0.00242879   0.00145203  -0.00420588    0.0012776    -0.031719    0.0189629    -0.054927    0.0166849  -0.00216748   0.00129581  -0.00375338   0.00114015      -1.7945      1.07282     -3.10749     0.943945
  -0.0161811     0.026611    -0.016285   0.00851504   -0.0178495     0.029355   -0.0179642   0.00939306 -0.000572178  0.000940993 -0.000575855  0.000301101   -0.0160789    0.0264431   -0.0161823   0.00846131 -0.000505744  0.000831737 -0.000508994  0.000266141      -1.8491        3.041     -1.86098     0.973063
  -0.0189578    0.0292728   -0.0192626   0.00997959   -0.0200006     0.030883   -0.0203221    0.0105285 -0.000784613   0.00121152 -0.000797227  0.000413028   -0.0181553    0.0280337   -0.0184472   0.00955713 -0.000699916   0.00108074 -0.000711168  0.000368443     -1.84106      2.84279     -1.87066     0.969153
  -0.0779719    -0.173365   -0.0120837    0.0411444     -1.68974     -3.75703    -0.261869     0.891648   -0.0230296   -0.0512046  -0.00356902    0.0121523   -0.0638111     -0.14188  -0.00988916     0.033672   -0.0135449   -0.0301162  -0.00209913   0.00714742   -0.0269788   -0.0599856  -0.00418106    0.0142362
    -0.79997     -1.00041      1.57079     0.423208    -0.105385    -0.131791     0.206931    0.0557521    -0.763353    -0.954619      1.49889     0.403837   -0.0713347   -0.0892083      0.14007    0.0377382    -0.133291    -0.166688     0.261725    0.0705149   -0.0169159   -0.0211544    0.0332156   0.00894905
   -0.740406    -0.140237     0.351468     0.391699    -0.397981   -0.0753797      0.18892     0.210545    -0.158197   -0.0299633    0.0750957    0.0836915    -0.265739   -0.0503324     0.126146     0.140585   -0.0889523    -0.016848    0.0422254    0.0470588    -0.238964    -0.045261     0.113436      0.12642
  -0.0161445   0.00659546   -0.0344454   0.00854163    -0.017932   0.00732571   -0.0382592   0.00948737 -0.000861681  0.000352021  -0.00183846  0.000455894   -0.0157266   0.00642474   -0.0335538   0.00832054 -0.000757025  0.000309266  -0.00161517  0.000400523     -1.83867     0.751147     -3.92294     0.972794
   -0.604204   -0.0546106 -0.000559672     0.319942     -0.45056   -0.0407235 -0.000417351     0.238583    -0.111856     -0.01011 -0.000103612    0.0592307     -0.29862   -0.0269906  -0.00027661     0.158127   -0.0715351  -0.00646565 -6.62626e-05    0.0378797    -0.351705   -0.0317886 -0.000325783     0.186237
  -0.0213283    0.0315166   -0.0228025    0.0112966   -0.0218178    0.0322399   -0.0233258    0.0115558  -0.00097644   0.00144287  -0.00104393  0.000517174   -0.0199093    0.0294197   -0.0212854     0.010545 -0.000875291   0.00129341 -0.000935791    0.0004636     -1.82312      2.69401     -1.94914     0.965622
  -0.0397836   -0.0928272   -0.0313866    0.0211405     -1.76806     -4.12542     -1.39488     0.939523  -0.00987139   -0.0230329  -0.00778787   0.00524552   -0.0402981   -0.0940276   -0.0317925    0.0214139  -0.00566989   -0.0132296  -0.00447316    0.0030129   -0.0181872   -0.0424363   -0.0143485   0.00966444
   -0.248712     -0.51957     0.413073     0.132354   -0.0420962   -0.0879408    0.0699153    0.0224019     -1.50006     -3.13368      2.49136     0.798267   -0.0276186   -0.0576963    0.0458702    0.0146975   -0.0565815    -0.118201    0.0939731    0.0301103  -0.00407536   -0.0085136   0.00676855   0.00216874
    -1.14335    -0.584767      2.07043     0.609071     -0.14565   -0.0744928      0.26375    0.0775888    -0.329947    -0.168751     0.597482     0.175765    -0.103043   -0.0527012     0.186594    0.0548915     -0.11122   -0.0568835     0.201402    0.0592476    -0.043996   -0.0225017    0.0796698    0.0234369
  -0.0217707    0.0317231   -0.0254526    0.0116375    -0.022144    0.0322671   -0.0258891     0.011837  -0.00102078   0.00148743  -0.00119342  0.000545654   -0.0202233    0.0294683   -0.0236435    0.0108103 -0.000914021   0.00133187   -0.0010686  0.000488588     -1.80467      2.62967     -2.10988     0.964681
  -0.0125407   0.00954101   -0.0274036   0.00671127    -0.014526    0.0110515    -0.031742   0.00777375 -0.000538111  0.000409398  -0.00117587  0.000287976   -0.0124792   0.00949427   -0.0272694   0.00667839  -0.00045053  0.000342765 -0.000984489  0.000241106     -1.82807       1.3908     -3.99465     0.978308
   -0.789398    -0.170811     0.513074     0.422558     -0.36082   -0.0780748     0.234517     0.193144    -0.176439   -0.0381781     0.114678    0.0944462     -0.24569   -0.0531628     0.159688     0.131516   -0.0948337   -0.0205203    0.0616378    0.0507637     -0.20096    -0.043484     0.130615     0.107572
    -1.12928    -0.428873      1.88315     0.604856      -0.1651   -0.0627008     0.275315    0.0884294    -0.289256    -0.109852     0.482352     0.154928    -0.119149   -0.0452497     0.198688    0.0638174    -0.107235   -0.0407252     0.178822    0.0574363    -0.057005    -0.021649    0.0950595    0.0305325
   -0.697492     -1.08581     0.758464       0.3739    -0.286768    -0.446423     0.311836     0.153726    -0.492157    -0.766161      0.53518     0.263828     -0.17672    -0.275107     0.192168    0.0947333    -0.150572    -0.234401     0.163734    0.0807162   -0.0617405   -0.0961139    0.0671376    0.0330968
 -0.00891987    0.0175931     -0.01379   0.00478816    -0.012012    0.0236919   -0.0185703   0.00644801 -7.89741e-05  0.000155765 -0.000122093  4.23931e-05   -0.0105352    0.0207792   -0.0162873   0.00565529  -5.8142e-05  0.000114677 -8.98865e-05  3.12105e-05      -1.8313      3.61197     -2.83115     0.983035
   -0.508749   -0.0792377    -0.193485       0.2731    -0.484092   -0.0753973    -0.184108     0.259863   -0.0902495   -0.0140564   -0.0343233    0.0484465    -0.310105   -0.0482988    -0.117938     0.166466    -0.060568  -0.00943346   -0.0230349    0.0325133    -0.409106   -0.0637183    -0.155589     0.219611
   -0.113314    -0.262927      0.21136    0.0608834   -0.0156356   -0.0362797    0.0291644   0.00840094     -1.69822     -3.94043      3.16761     0.912447  -0.00953356    -0.022121    0.0177825   0.00512235    -0.023781   -0.0551798    0.0443577    0.0127774 -0.000686636  -0.00159322   0.00128075  0.000368927
    -0.39496    -0.308147    -0.328302     0.213034    -0.696024    -0.543036    -0.578555     0.375422   -0.0780015   -0.0608565    -0.064837    0.0420724    -0.326876    -0.255028    -0.271709      0.17631   -0.0528354    -0.041222   -0.0439183    0.0284984    -0.305283    -0.238181     -0.25376     0.164664
  -0.0187235    0.0280086   -0.0247094    0.0101034   -0.0197267    0.0295093   -0.0260333    0.0106448 -0.000784283   0.00117321  -0.00103502  0.000423209   -0.0179195    0.0268059   -0.0236484   0.00966961 -0.000695278   0.00104007 -0.000917558  0.000375181     -1.79533      2.68564      -2.3693     0.968784
   -0.017963    0.0159267   -0.0359359   0.00969796   -0.0193613    0.0171665   -0.0387334    0.0104529 -0.000903504  0.000801083  -0.00180751   0.00048779   -0.0171004    0.0151619   -0.0342103   0.00923228 -0.000770432  0.000683096  -0.00154129  0.000415946     -1.79614      1.59253     -3.59328     0.969713
 -0.00920852    0.0173642   -0.0151635   0.00497486   -0.0121796    0.0229666   -0.0200559   0.00657996 -0.000100828  0.000190128 -0.000166032   5.4472e-05   -0.0107245    0.0202227   -0.0176597   0.00579384 -7.55894e-05  0.000142536 -0.000124472  4.08369e-05     -1.81872      3.42949     -2.99485     0.982556
   -0.538658    -0.848879     0.195654     0.291162    -0.618355    -0.974475     0.224602     0.334241    -0.212012    -0.334112    0.0770079     0.114599     -0.25708    -0.405136    0.0933777      0.13896    -0.109145    -0.172003    0.0396442    0.0589964    -0.114781    -0.180885    0.0416913    0.0620427
  -0.0409305    0.0358996   -0.0666677    0.0221254   -0.0391787    0.0343631   -0.0638143    0.0211785  -0.00287308   0.00251994  -0.00467968   0.00155307   -0.0358119    0.0314101   -0.0583305    0.0193585  -0.00256659   0.00225112  -0.00418046    0.0013874     -1.72857      1.51611      -2.8155     0.934397
   -0.866199    -0.998348      1.73251     0.468933     -0.11029    -0.127116     0.220594    0.0597074    -0.643612    -0.741803      1.28731     0.348431   -0.0750864   -0.0865419     0.150183    0.0406495    -0.132142    -0.152302     0.264302    0.0715376   -0.0198414   -0.0228685    0.0396856    0.0107415
   -0.846154    -0.199777     0.704311     0.458091    -0.320569   -0.0756864     0.266831      0.17355    -0.194515   -0.0459251     0.161908     0.105307      -0.2218   -0.0523671     0.184619     0.120078   -0.0987907   -0.0233245    0.0822302    0.0534834    -0.165301   -0.0390275     0.137591    0.0894905
   -0.599912    -0.956204     0.329751     0.324814    -0.502791    -0.801402     0.276367     0.272229    -0.266484    -0.424751     0.146477     0.144284    -0.247472    -0.394447     0.136027      0.13399    -0.127107    -0.202596    0.0698661    0.0688201    -0.103174    -0.164449    0.0567111     0.055862
    -0.55481   -0.0305424   -0.0823771     0.300635    -0.443564   -0.0244183   -0.0658594     0.240354   -0.0980976   -0.0054003   -0.0145653    0.0531562    -0.297503   -0.0163776   -0.0441726     0.161208   -0.0648781  -0.00357155  -0.00963296    0.0351555    -0.386607   -0.0212828   -0.0574026     0.209491
   -0.453987    -0.723923    0.0862567     0.246339    -0.769495     -1.22703     0.146203     0.417537    -0.160393    -0.255761    0.0304744    0.0870312    -0.252861    -0.403209    0.0480431     0.137205   -0.0886927    -0.141428    0.0168514    0.0481257     -0.11751    -0.187381    0.0223268    0.0637625
   -0.592937    -0.990086     0.861183     0.322241    -0.149065    -0.248908     0.216502    0.0810117    -0.845434     -1.41171      1.22791     0.459465    -0.098032    -0.163694     0.142382    0.0532771    -0.127516    -0.212926     0.185204    0.0693006   -0.0270571     -0.04518    0.0392979    0.0147046
   -0.121971    -0.283677     0.250964    0.0663845   -0.0140411   -0.0326565    0.0288907   0.00764209     -1.66786     -3.87907      3.43176     0.907759  -0.00833342   -0.0193817    0.0171467   0.00453559   -0.0248285   -0.0577455    0.0510866    0.0135133 -0.000303378 -0.000705589  0.000624224  0.000165118
  -0.0149308    0.0235959   -0.0221768   0.00813249   -0.0167032    0.0263968   -0.0248093   0.00909787 -0.000505974  0.000799612 -0.000751524  0.000275593   -0.0150435    0.0237738   -0.0223441   0.00819384 -0.000439871  0.000695148 -0.000653342  0.000239588     -1.78833      2.82617      -2.6562     0.974061
   -0.907682    -0.222589     0.923073      0.49473    -0.280493   -0.0687848     0.285249     0.152882    -0.212091   -0.0520107     0.215687       0.1156    -0.197666   -0.0484733     0.201018     0.107738    -0.102412   -0.0251144     0.104149    0.0558196    -0.134355   -0.0329477     0.136634    0.0732302
    -0.67191     -1.07918     0.857398     0.366309     -0.21767    -0.349606      0.27776     0.118668    -0.615635    -0.988791     0.785588     0.335629    -0.139689     -0.22436     0.178252    0.0761554     -0.14481    -0.232584     0.184786    0.0789469   -0.0445561    -0.071563    0.0568563    0.0242909
  -0.0515403    0.0385289   -0.0790488    0.0281407    -0.048285    0.0360953   -0.0740559    0.0263633  -0.00393418   0.00294099  -0.00603395   0.00214804   -0.0443062     0.033121   -0.0679536     0.024191  -0.00353959   0.00264601  -0.00542875   0.00193259     -1.67991      1.25582     -2.57653     0.917224
 -0.00865467   0.00583991   -0.0207248   0.00472607    -0.010844   0.00731719   -0.0259673   0.00592159 -0.000299542  0.000202122 -0.000717295  0.000163572  -0.00903663   0.00609765   -0.0216394   0.00493465 -0.000247118  0.000166748 -0.000591758  0.000134944     -1.80218      1.21606     -4.31556     0.984119
    -0.38599    -0.717723       0.8591     0.211486   -0.0470679   -0.0875196     0.104759    0.0257888     -1.27796     -2.37628      2.84436     0.700201    -0.030883   -0.0574249    0.0687364     0.016921   -0.0797615    -0.148311     0.177525    0.0437018  -0.00346935  -0.00645103   0.00772175   0.00190088
   -0.969417    -0.240803       1.1653     0.531275    -0.243606   -0.0605117     0.292829     0.133505    -0.226668   -0.0563043     0.272469     0.124222    -0.173954   -0.0432102     0.209104    0.0953332    -0.103257   -0.0256491     0.124122    0.0565887    -0.107797   -0.0267767     0.129578    0.0590765
   -0.553322     -0.89675      1.22129     0.303564   -0.0678725    -0.109999     0.149808    0.0372363     -1.04094     -1.68702      2.29757     0.571084   -0.0455749   -0.0738618     0.100593    0.0250034    -0.107902    -0.174873     0.238162    0.0591975  -0.00713461   -0.0115628    0.0157475    0.0039142
   -0.636286     -1.04268     0.476028     0.349092    -0.411513    -0.674344     0.307868     0.225773    -0.320813    -0.525714     0.240011     0.176011    -0.226795    -0.371648     0.169674     0.124429    -0.138965    -0.227722     0.103965    0.0762419   -0.0883174    -0.144725    0.0660734    0.0484544
  -0.0118374    0.0200784   -0.0192807   0.00650519   -0.0141747    0.0240429   -0.0230876   0.00778963 -0.000291809  0.000494961 -0.000475296  0.000160362   -0.0126575    0.0214694   -0.0206164   0.00695584 -0.000245826  0.000416964 -0.000400398  0.000135092     -1.78048      3.02002     -2.90003     0.978454
 -0.00984398    0.0178202   -0.0167291   0.00540991   -0.0125704    0.0227558   -0.0213625   0.00690828  -0.00015536  0.000281242 -0.000264023  8.53805e-05   -0.0111369    0.0201608   -0.0189264   0.00612047 -0.000123301  0.000223207 -0.000209541   6.7762e-05     -1.78579      3.23275     -3.03482     0.981408
   -0.355459    -0.604019     0.020895      0.19541    -0.944039     -1.60417    0.0554936     0.518976    -0.115978    -0.197077   0.00681756    0.0637578    -0.228453    -0.388203    0.0134292      0.12559   -0.0676478    -0.114951   0.00397655    0.0371887    -0.107463    -0.182608   0.00631702    0.0590768
   -0.926062    -0.973465      1.87979     0.510362    -0.113628    -0.119445     0.230651    0.0626217    -0.545443    -0.573363      1.10718     0.300599   -0.0779809   -0.0819725     0.158291     0.042976    -0.128613    -0.135196     0.261068    0.0708799   -0.0227925   -0.0239591    0.0462659    0.0125612
  -0.0304331    0.0124358   -0.0582343    0.0167724   -0.0307547    0.0125672   -0.0588498    0.0169497  -0.00211942  0.000866054  -0.00405556   0.00116807   -0.0279228      0.01141   -0.0534309    0.0153889  -0.00191502  0.000782531  -0.00366444   0.00105542     -1.72133      0.70338      -3.2938     0.948665
 -0.00938722    0.0197676   -0.0128581   0.00518256   -0.0122411    0.0257773   -0.0167672   0.00675816  -0.00011937   0.00025137 -0.000163507  6.59028e-05   -0.0107864    0.0227139   -0.0147745   0.00595501 -9.55944e-05  0.000201302  -0.00013094  5.27764e-05     -1.77868      3.74554     -2.43634     0.981986
    -1.02343    -0.256391        1.421     0.565119    -0.208735   -0.0522925     0.289821     0.115259    -0.238405   -0.0597255     0.331017     0.131643    -0.150842   -0.0377892     0.209439    0.0832923    -0.102459   -0.0256682     0.142261    0.0565759   -0.0871277   -0.0218273     0.120974    0.0481103
   -0.401186    -0.265555    -0.335195     0.221627    -0.624617     -0.41345    -0.521873     0.345056   -0.0761934   -0.0504343   -0.0636603    0.0420914    -0.322541    -0.213498    -0.269486     0.178181   -0.0521933    -0.034548   -0.0436079     0.028833    -0.333459    -0.220725    -0.278608     0.184212
  -0.0442927    -0.109268  -0.00930847    0.0244866     -1.69108     -4.17181    -0.355395     0.934892   -0.0130389   -0.0321663  -0.00274024    0.0072084    -0.037855   -0.0933864  -0.00795556    0.0209277  -0.00758461   -0.0187108  -0.00159397   0.00419306   -0.0149988   -0.0370012  -0.00315212   0.00829188
   -0.989448    -0.917242      2.01778     0.548468    -0.117747    -0.109154     0.240121    0.0652692    -0.465472    -0.431504     0.949236      0.25802   -0.0815635   -0.0756113     0.166332    0.0452121    -0.123418    -0.114412     0.251686    0.0684129   -0.0263711   -0.0244467    0.0537785     0.014618
    -1.05096    -0.834613      2.14295     0.582871    -0.121003   -0.0960936     0.246729    0.0671091    -0.398848    -0.316741     0.813264     0.221204   -0.0846278   -0.0672064     0.172559    0.0469351    -0.117799   -0.0935492     0.240197    0.0653322    -0.029839   -0.0236964    0.0608428    0.0165489
    -1.09638    -0.727651      2.23716     0.609413     -0.12225   -0.0811359     0.249451    0.0679519    -0.349607     -0.23203     0.713373     0.194327   -0.0865832   -0.0574642     0.176673    0.0481267    -0.111373   -0.0739171     0.227257    0.0619061   -0.0328794   -0.0218216    0.0670903    0.0182758
    -1.12856    -0.453882      2.12805      0.62746    -0.139374   -0.0560533     0.262809    0.0774898     -0.28165    -0.113274      0.53109     0.156593    -0.101282   -0.0407335     0.190981    0.0563112    -0.102177   -0.0410933     0.192668    0.0568087   -0.0455721   -0.0183282    0.0859325    0.0253374
  -0.0276424    0.0290995   -0.0500038     0.015385   -0.0276449    0.0291021   -0.0500083    0.0153864  -0.00165576   0.00174304   -0.0029952  0.000921552   -0.0250254    0.0263446   -0.0452698    0.0139285     -0.00145   0.00152643  -0.00262299  0.000807031     -1.71329       1.8036     -3.09927     0.953572
     -0.6751    -0.981473      1.49974     0.375922   -0.0815081    -0.118498     0.181071    0.0453869    -0.850765     -1.23686      1.88998      0.47374   -0.0555331    -0.080735     0.123367     0.030923    -0.122357    -0.177885     0.271818    0.0681334   -0.0105858   -0.0153899    0.0235166   0.00589461
   -0.125218    -0.301003     0.220894     0.069768   -0.0200528   -0.0482037    0.0353748    0.0111729     -1.60655     -3.86188      2.83408     0.895126   -0.0128347   -0.0308525    0.0226414   0.00715115   -0.0287545   -0.0691211    0.0507252    0.0160213  -0.00136505  -0.00328136   0.00240806  0.000760571
   -0.408455    -0.227347    -0.333853     0.227631    -0.581284    -0.323544    -0.475116     0.323949   -0.0754904   -0.0420181   -0.0617025    0.0420707    -0.319845    -0.178027    -0.261428     0.178249   -0.0520676   -0.0289809   -0.0425578    0.0290172    -0.357228    -0.198834    -0.291983     0.199083
   -0.419152    -0.192642    -0.326266     0.233797    -0.550689    -0.253096    -0.428654     0.307167    -0.075885   -0.0348767   -0.0590687    0.0423277    -0.317265    -0.145815    -0.246958     0.176966   -0.0524421   -0.0241024   -0.0408208    0.0292515    -0.377368    -0.173438    -0.293742     0.210491
   -0.231718    -0.497534     0.527313     0.129305   -0.0262926   -0.0564543    0.0598332     0.014672      -1.4683     -3.15267      3.34137     0.819352   -0.0165272   -0.0354863    0.0376103    0.0092226   -0.0482179    -0.103531     0.109728    0.0269069 -0.000970628  -0.00208409   0.00220882  0.000541636
   -0.430268    -0.156024    -0.309978     0.240137    -0.523672    -0.189895     -0.37727     0.292267   -0.0767094   -0.0278165   -0.0552639    0.0428123    -0.313278    -0.113601    -0.225695     0.174843   -0.0529959   -0.0192175   -0.0381799    0.0295776    -0.394837    -0.143177    -0.284453     0.220363
  -0.0207986   0.00675123   -0.0442228    0.0116233   -0.0220715   0.00716442   -0.0469294    0.0123347   -0.0012885  0.000418248  -0.00273967  0.000720082   -0.0197437   0.00640883     -0.04198    0.0110338  -0.00115445  0.000374734  -0.00245464  0.000645166     -1.72432     0.559717     -3.66633     0.963643
 -0.00897226    0.0043293   -0.0224495   0.00501588   -0.0110266   0.00532058   -0.0275897   0.00616437 -0.000358482  0.000172975 -0.000896956  0.000200407  -0.00928343   0.00447945   -0.0232281   0.00518984  -0.00030696  0.000148115 -0.000768045  0.000171604     -1.75882     0.848669     -4.40075     0.983258
    -1.06342    -0.272967      1.67971     0.594927    -0.178509    -0.045821     0.281961    0.0998663    -0.243815   -0.0625844     0.385115     0.136402    -0.130915   -0.0336044     0.206786    0.0732402    -0.100519    -0.025802     0.158773    0.0562351   -0.0703019   -0.0180456     0.111044    0.0393302
   -0.043724    0.0228446   -0.0753184    0.0244959   -0.0422611    0.0220803   -0.0727984    0.0236764  -0.00333859   0.00174432  -0.00575101   0.00187041   -0.0386761    0.0202072    -0.066623    0.0216679  -0.00301925   0.00157748  -0.00520092   0.00169151     -1.65393     0.864133     -2.84904     0.926598
  -0.0118633   0.00427268   -0.0286115   0.00666479   -0.0137287   0.00494451   -0.0331103   0.00771275  -0.00058013  0.000208939  -0.00139913  0.000325916   -0.0118691   0.00427475   -0.0286254   0.00666802 -0.000508965  0.000183308   -0.0012275  0.000285936     -1.74145     0.627198     -4.19996     0.978343
   -0.441386    -0.112214     -0.28418     0.248315    -0.489207    -0.124372    -0.314969     0.275219   -0.0769549   -0.0195644   -0.0495463    0.0432934    -0.305236   -0.0776006    -0.196521      0.17172   -0.0531896   -0.0135225   -0.0342453    0.0299235    -0.411547    -0.104628    -0.264969     0.231529
   -0.183099    -0.321448    -0.183231     0.103032     -1.25322     -2.20016     -1.25413     0.705204   -0.0437386   -0.0767874   -0.0437701    0.0246122    -0.173166     -0.30401    -0.173291    0.0974424   -0.0278856   -0.0489559   -0.0279057    0.0156916   -0.0959963    -0.168531   -0.0960655    0.0540182
   -0.506904  -0.00887783    -0.148877     0.285337    -0.424004  -0.00742593    -0.124529     0.238672   -0.0860164  -0.00150648   -0.0252629    0.0484188    -0.289405   -0.0050686   -0.0849981     0.162907   -0.0587128  -0.00102829   -0.0172439    0.0330495    -0.411468  -0.00720638    -0.120848     0.231616
   -0.107065    -0.221457    -0.108194    0.0604148     -1.46597     -3.03227     -1.48143      0.82722   -0.0261848   -0.0541614   -0.0264608    0.0147756    -0.104518    -0.216189     -0.10562    0.0589775   -0.0161066   -0.0333153   -0.0162764   0.00908862    -0.052321    -0.108222   -0.0528725    0.0295237
    -0.22487     -0.43787 -6.61343e-05     0.126926      -1.1948     -2.32653  -0.00035139     0.674391   -0.0690747    -0.134503 -2.03149e-05    0.0389885     -0.16598    -0.323198 -4.88146e-05    0.0936854   -0.0418868   -0.0815626 -1.23189e-05    0.0236426     -0.07506    -0.146158 -2.20751e-05    0.0423668
    -1.11614    -0.605484      2.30674     0.630116    -0.121296   -0.0658008     0.250685    0.0684778    -0.307002    -0.166543     0.634487     0.173318   -0.0871792   -0.0472931     0.180175    0.0492171    -0.104553   -0.0567183     0.216082    0.0590257   -0.0351515    -0.019069    0.0726483    0.0198448
   -0.396688     -0.79165     0.625113     0.224236   -0.0828462    -0.165332     0.130551    0.0468304     -1.12857     -2.25224      1.77844     0.637948   -0.0557855    -0.111328    0.0879083    0.0315338   -0.0933481     -0.18629       0.1471    0.0527667   -0.0118275   -0.0236035    0.0186381    0.0066857
 -0.00970028    0.0208148   -0.0129086   0.00549146   -0.0123452    0.0264902   -0.0164282   0.00698876 -0.000148677   0.00031903  -0.00019785  8.41679e-05   -0.0109291    0.0234516   -0.0145438    0.0061871  -0.00012182    0.0002614  -0.00016211  6.89638e-05     -1.73318      3.71906     -2.30642      0.98118
   -0.641689     -1.09262      0.61799     0.363306    -0.331357    -0.564213      0.31912     0.187605    -0.381476    -0.649551     0.367387     0.215981    -0.196696    -0.334921     0.189432     0.111364    -0.143545    -0.244418     0.138244     0.081271   -0.0714866    -0.121723    0.0688466    0.0404737
   -0.762488     -1.01495      1.72135     0.434469   -0.0883415    -0.117591     0.199434    0.0503373     -0.70503    -0.938467      1.59163     0.401729   -0.0604835   -0.0805097     0.136544    0.0344638    -0.125482    -0.167029      0.28328       0.0715   -0.0131647   -0.0175236    0.0297199   0.00750131
    -0.61647     0.013514     0.138635     0.351596     -0.37793   0.00828483    0.0849908     0.215547    -0.110419   0.00242057    0.0248316    0.0629762    -0.267982   0.00587459    0.0602651      0.15284   -0.0710398    0.0015573    0.0159758    0.0405166    -0.309509   0.00678492    0.0696039     0.176524
   -0.259412    -0.383022    -0.259086     0.148118     -1.00023     -1.47684    -0.998972     0.571106   -0.0588518   -0.0868948   -0.0587779    0.0336029    -0.240821    -0.355573    -0.240519     0.137503   -0.0387801   -0.0572588   -0.0387313    0.0221424    -0.153297    -0.226343    -0.153104    0.0875286
    -0.65629   -0.0140205     0.252296     0.374937    -0.366259  -0.00782449       0.1408     0.209243    -0.122723  -0.00262177    0.0471781    0.0701114    -0.258646  -0.00552553    0.0994307     0.147764   -0.0762849   -0.0016297     0.029326    0.0435814    -0.270197   -0.0057723     0.103871     0.154363
    -1.08498    -0.295595      1.93304     0.620698    -0.151959   -0.0414001     0.270735     0.086933    -0.244882   -0.0667164     0.436291     0.140093    -0.112586   -0.0306731     0.200587    0.0644082   -0.0974307   -0.0265443     0.173586    0.0557384   -0.0561621    -0.015301      0.10006    0.0321293
 -0.00916371    0.0198685   -0.0137124   0.00524465   -0.0118561    0.0257061   -0.0177414    0.0067856 -0.000120424    0.0002611 -0.000180201  6.89222e-05   -0.0104826     0.022728    -0.015686   0.00599949 -9.62574e-05  0.000208702 -0.000144038  5.50908e-05     -1.71553      3.71956      -2.5671     0.981846
   -0.577504    0.0360183     0.042298     0.331172    -0.382363    0.0238475    0.0280052     0.219267   -0.0996088   0.00621248   0.00729561     0.057121    -0.272322    0.0169844    0.0199456     0.156164   -0.0661432   0.00412527    0.0048445    0.0379301    -0.345879    0.0215721    0.0253331     0.198346
   -0.699727    -0.044531     0.387412     0.402373    -0.344924   -0.0219512     0.190972     0.198346    -0.136772  -0.00870423    0.0757254    0.0786496    -0.243986   -0.0155274     0.135086     0.140303    -0.081393   -0.0051799    0.0450642    0.0468045    -0.232198   -0.0147772     0.128559     0.133524
  -0.0534447    0.0571298   -0.0763294    0.0307573   -0.0483465      0.05168    -0.069048    0.0278232  -0.00401949   0.00429664  -0.00574061    0.0023132   -0.0446482    0.0477267   -0.0637662    0.0256949   -0.0036208   0.00387046   -0.0051712   0.00208376     -1.58355      1.69274     -2.26161     0.911328
   -0.451883   -0.0537015     -0.24673     0.260246    -0.440246   -0.0523185    -0.240376     0.253544   -0.0766117  -0.00910448   -0.0418303    0.0441217    -0.291036   -0.0345865    -0.158907     0.167612   -0.0533162  -0.00633607   -0.0291109    0.0307056    -0.423277   -0.0503019    -0.231111     0.243771
  -0.0529971    -0.127114   -0.0534566    0.0306959     -1.57368     -3.77448     -1.58733     0.911476   -0.0128944   -0.0309273   -0.0130062   0.00746844   -0.0541481    -0.129875   -0.0546176    0.0313626  -0.00758679    -0.018197  -0.00765257   0.00439426   -0.0252126   -0.0604726   -0.0254312    0.0146031
 -0.00637812   0.00403086   -0.0170506     0.003696  -0.00847994   0.00535917   -0.0226694   0.00491397  -0.00018758  0.000118547 -0.000501457  0.000108699   -0.0069109   0.00436757   -0.0184749   0.00400474 -0.000154631  9.77244e-05 -0.000413376  8.96061e-05     -1.70357      1.07663     -4.55415     0.987187
   -0.749178   -0.0753557      0.54927     0.434773    -0.316028   -0.0317874       0.2317     0.183401    -0.151465    -0.015235     0.111048    0.0878999    -0.225644   -0.0226962     0.165434     0.130948   -0.0858962  -0.00863982    0.0629759    0.0498484    -0.194939   -0.0196079     0.142922      0.11313
 -0.00915777   0.00889777   -0.0226345   0.00532574   -0.0111229    0.0108072   -0.0274916    0.0064686 -0.000334837  0.000325331 -0.000827587  0.000194726  -0.00943304   0.00916522   -0.0233148   0.00548583  -0.00027639  0.000268543 -0.000683129  0.000160736     -1.68921      1.64125     -4.17506     0.982364
   -0.536928    0.0527338   -0.0380553     0.312256    -0.379701    0.0372919   -0.0269117     0.220819   -0.0891672   0.00875747  -0.00631981    0.0518562    -0.272918    0.0268044   -0.0193433     0.158718   -0.0609059   0.00598181  -0.00431676    0.0354205     -0.37989    0.0373106   -0.0269251     0.220929
  -0.0127978     0.014232   -0.0292257   0.00744654   -0.0144338    0.0160512   -0.0329616   0.00839843 -0.000550182  0.000611836  -0.00125642  0.000320128   -0.0126356    0.0140516   -0.0288552   0.00735214 -0.000461944  0.000513709  -0.00105491  0.000268786     -1.67775      1.86576     -3.83138     0.976214
  -0.0610558    0.0409895   -0.0929947    0.0355571   -0.0562225    0.0377447    -0.085633    0.0327423   -0.0050285   0.00337586  -0.00765895   0.00292845   -0.0517065    0.0347129   -0.0787546    0.0301123  -0.00454772   0.00305309  -0.00692667   0.00264846     -1.53856       1.0329     -2.34339     0.896011
   -0.066519    0.0620515   -0.0888389    0.0387532   -0.0590981    0.0551291    -0.078928    0.0344298   -0.0053996   0.00503696  -0.00721139   0.00314574   -0.0545607    0.0508964   -0.0728681    0.0317864   -0.0048741   0.00454675  -0.00650956   0.00283959     -1.52603      1.42354     -2.03807     0.889045
   -0.231533    -0.534451     0.384096     0.135018   -0.0428946   -0.0990142     0.071159    0.0250139     -1.35123     -3.11906      2.24159     0.787966   -0.0287024   -0.0662543    0.0476153    0.0167378   -0.0557941     -0.12879    0.0925584    0.0325362  -0.00467786    -0.010798   0.00776024   0.00272789
    -0.01801    0.0295693   -0.0278974     0.010508   -0.0187863    0.0308439   -0.0290999    0.0109609 -0.000775031   0.00127247  -0.00120052  0.000452193   -0.0171354    0.0281333   -0.0265426   0.00999765 -0.000685288   0.00112512  -0.00106151  0.000399832     -1.65855      2.72305     -2.56908     0.967681
  -0.0244465    0.0385654   -0.0332179    0.0142693   -0.0238042     0.037552    -0.032345    0.0138943  -0.00128978   0.00203468  -0.00175255  0.000752834   -0.0219302    0.0345958   -0.0297987    0.0128005  -0.00116045   0.00183065  -0.00157681  0.000677343      -1.6406      2.58811     -2.22924     0.957606
   -0.120263    -0.297351     0.283869    0.0702252   -0.0122209   -0.0302163    0.0288462   0.00713615     -1.54882     -3.82947      3.65583     0.904403  -0.00709562    -0.017544    0.0167485   0.00414336   -0.0240648   -0.0595004    0.0568025    0.0140522 -6.84274e-05 -0.000169187  0.000161516  3.99569e-05
   -0.825781     -1.01452      1.90246      0.48269   -0.0921058    -0.113157     0.212197    0.0538382    -0.587853     -0.72221      1.35432     0.343615   -0.0638233   -0.0784104     0.147038    0.0373063    -0.125623    -0.154335     0.289416    0.0734301   -0.0156035   -0.0191698     0.035948   0.00912067
   -0.125464    -0.285277  -0.00383609    0.0733654     -1.38342     -3.14558   -0.0422983     0.808956   -0.0380617   -0.0865434  -0.00116374    0.0222566   -0.0982815    -0.223469  -0.00300497    0.0574702   -0.0230825   -0.0524843 -0.000705752    0.0134975   -0.0418204   -0.0950899  -0.00127867    0.0244545
   -0.800247    -0.101868     0.737827     0.468828    -0.284258   -0.0361849     0.262086     0.166534    -0.167292   -0.0212956     0.154243    0.0980085     -0.20516   -0.0261161     0.189158     0.120194     -0.09015   -0.0114757    0.0831182    0.0528147    -0.159803   -0.0203423     0.147338    0.0936212
  -0.0367257    0.0468039   -0.0584587    0.0215185   -0.0343757     0.043809   -0.0547181    0.0201416  -0.00242235   0.00308709  -0.00385582   0.00141932     -0.03163    0.0403099   -0.0503476    0.0185328  -0.00216266   0.00275613  -0.00344245   0.00126716     -1.59938      2.03828     -2.54585     0.937121
   -0.304064    -0.382655    -0.311785     0.178329    -0.811721     -1.02153    -0.832334     0.476063   -0.0647215     -0.08145    -0.066365    0.0379582    -0.276494    -0.347959    -0.283515      0.16216   -0.0437162   -0.0550155   -0.0448263    0.0256389    -0.204354    -0.257174    -0.209544     0.119851
    -1.10223    -0.476631      2.36421     0.648701    -0.116555   -0.0504011     0.250002    0.0685965    -0.262699    -0.113597     0.563469     0.154607   -0.0855341   -0.0369869     0.183464    0.0503396   -0.0956485   -0.0413606     0.205159    0.0562923   -0.0364706   -0.0157707    0.0782267    0.0214641
   -0.040476    -0.110772    0.0829948    0.0238279  -0.00527884   -0.0144468    0.0108241   0.00310761      -1.6412     -4.49153      3.36524     0.966164  -0.00311261  -0.00851838   0.00638232   0.00183237  -0.00849756   -0.0232555     0.017424   0.00500245  -0.00011116 -0.000304216  0.000227931  6.54392e-05
  -0.0171245    0.0217485   -0.0357645    0.0100958   -0.0182058    0.0231219   -0.0380229    0.0107333 -0.000835966    0.0010617  -0.00174592  0.000492846   -0.0163239    0.0207318   -0.0340926   0.00962382  -0.00071757  0.000911333  -0.00149865  0.000423046     -1.64299      2.08664      -3.4314     0.968631
   -0.622368     -1.11462     0.740722     0.366956    -0.255355    -0.457322     0.303915      0.15056    -0.461784    -0.827022       0.5496     0.272273    -0.160722    -0.287842     0.191286    0.0947636    -0.141768    -0.253897     0.168728    0.0835882   -0.0540333   -0.0967698    0.0643087    0.0318587
