  8.6667e-13 -3.21463e-13  4.97859e-13 -8.24408e-15 -5.03061e-12  1.86594e-12 -2.88983e-12  4.78529e-14           -0            0           -0            0     -13.8253      5.12802     -7.94192     0.131511           -0            0           -0            0     -91.3011      33.8651      -52.448     0.868489
  8.5977e-13 -3.38648e-13  5.00281e-13 -8.24018e-15  2.76808e-13  -1.0903e-13  1.61068e-13 -2.65297e-15            0           -0            0           -0     -13.7215      5.40465     -7.98423     0.131509 -4.15526e-09  1.63668e-09 -2.41785e-09  3.98247e-11     -90.6172      35.6925     -52.7281     0.868491
 8.59005e-13 -3.08622e-13  5.13864e-13 -8.25733e-15  -1.6539e-11  5.94211e-12 -9.89378e-12  1.58984e-13            0           -0            0           -0     -13.6816      4.91548     -8.18442     0.131516           -0            0           -0            0     -90.3478        32.46     -54.0468     0.868484
 8.53596e-13 -3.25841e-13  4.79589e-13  -8.1992e-15           -0            0           -0            0            0           -0            0           -0     -13.6893      5.22557     -7.69126     0.131492 -1.82701e-08   6.9742e-09  -1.0265e-08  1.75493e-10     -90.4179       34.515     -50.8009     0.868508
 8.57458e-13  -3.2543e-13  5.23341e-13 -8.26225e-15 -1.17601e-11  4.46331e-12 -7.17769e-12  1.13318e-13            0           -0            0           -0      -13.649      5.18019     -8.33053     0.131518           -0            0           -0            0     -90.1311      34.2074     -55.0107     0.868482
 8.53247e-13 -3.12189e-13   4.9116e-13 -8.22804e-15 -1.06837e-11    3.909e-12 -6.14994e-12  1.03025e-13           -0            0           -0            0      -13.637      4.98954     -7.84993     0.131504 -1.05455e-08  3.85841e-09 -6.07035e-09  1.01692e-10     -90.0629      32.9525     -51.8435     0.868496
 8.44948e-13 -3.35603e-13   4.7442e-13 -8.17739e-15           -0            0           -0            0            0           -0            0           -0     -13.5858      5.39612     -7.62813     0.131483           -0            0           -0            0     -89.7415      35.6443     -50.3879     0.868517
 8.50384e-13 -3.42543e-13   5.1529e-13 -8.24987e-15 -4.82705e-12  1.94439e-12 -2.92495e-12  4.68289e-14            0           -0            0           -0     -13.5562      5.46057     -8.21437     0.131513 -1.27875e-08  5.15095e-09 -7.74861e-09  1.24056e-10     -89.5223      36.0605     -54.2461     0.868487
 8.35653e-13 -3.24759e-13  4.58546e-13 -8.11632e-15           -0            0           -0            0           -0            0           -0            0     -13.5348      5.26003     -7.42693     0.131458           -0            0           -0            0     -89.4247      34.7531     -49.0698     0.868542
 8.42246e-13 -3.43435e-13  4.84526e-13 -8.19933e-15           -0            0           -0            0            0           -0            0           -0      -13.507      5.50764     -7.77031     0.131492           -0            0           -0            0     -89.2143      36.3781      -51.323     0.868508
  8.1398e-13 -3.32531e-13  4.47604e-13 -8.03765e-15           -0            0           -0            0            0           -0            0           -0     -13.3095      5.43726     -7.31885     0.131425           -0            0           -0            0     -87.9614      35.9344     -48.3696     0.868575
 8.19949e-13 -3.09142e-13  4.53533e-13 -8.05935e-15           -0            0           -0            0           -0            0           -0            0     -13.3719      5.04156     -7.39632     0.131434           -0            0           -0            0     -88.3669      33.3166     -48.8778     0.868566
 8.10011e-13 -3.17261e-13  4.37417e-13 -7.98498e-15  1.39001e-10 -5.44432e-11  7.50624e-11 -1.37025e-12           -0            0           -0            0     -13.3298      5.22093     -7.19825     0.131403 -3.63182e-07  1.42249e-07 -1.96123e-07   3.5802e-09     -88.1121      34.5113     -47.5817     0.868597
 8.32183e-13 -3.06564e-13  4.98212e-13 -8.20646e-15 -2.90213e-11   1.0691e-11 -1.73745e-11  2.86189e-13            0           -0            0           -0     -13.3344      4.91218     -7.98303     0.131495           -0            0           -0            0     -88.0714      32.4442     -52.7267     0.868505
  8.3531e-13 -3.25766e-13  5.19759e-13 -8.24067e-15 -1.55188e-11  6.05224e-12 -9.65633e-12  1.53099e-13            0           -0            0           -0     -13.3304      5.19876     -8.29462     0.131509 -5.04652e-09  1.96811e-09 -3.14012e-09   4.9786e-11     -88.0339      34.3327     -54.7778     0.868491
 8.29977e-13  -3.4424e-13   4.9547e-13 -8.19805e-15 -5.63385e-12  2.33669e-12 -3.36323e-12   5.5648e-14            0           -0            0           -0     -13.3123      5.52139     -7.94702     0.131492 -4.16521e-08  1.72756e-08  -2.4865e-08  4.11417e-10     -87.9285       36.469     -52.4905     0.868508
 8.30287e-13 -3.10796e-13   5.1973e-13 -8.22999e-15 -2.16851e-11  8.11723e-12 -1.35741e-11  2.14947e-13           -0            0           -0            0     -13.2669      4.96613     -8.30463     0.131505 -2.95027e-09  1.10436e-09 -1.84677e-09  2.92438e-11     -87.6186      32.7977     -54.8461     0.868495
 8.30156e-13  -3.3888e-13  5.08033e-13  -8.2231e-15 -1.02204e-11  4.17209e-12 -6.25461e-12  1.01238e-13            0           -0            0           -0     -13.2757      5.41929     -8.12435     0.131502 -2.94992e-08  1.20419e-08 -1.80527e-08  2.92204e-10     -87.6784      35.7914     -53.6568     0.868498
 8.14786e-13 -3.02569e-13  4.64748e-13  -8.0775e-15 -3.37093e-11  1.25179e-11 -1.92275e-11  3.34182e-13            0           -0            0           -0     -13.2586      4.92356     -7.56263     0.131441           -0            0           -0            0     -87.6125      32.5347     -49.9735     0.868559
 8.12911e-13  -3.4103e-13  4.69446e-13 -8.10628e-15           -0            0           -0            0            0           -0            0           -0     -13.1824      5.53023     -7.61265     0.131453           -0            0           -0            0     -87.0992      36.5396     -50.2987     0.868547
  7.8104e-13 -2.95702e-13  4.23065e-13 -7.81174e-15  3.16998e-10 -1.20015e-10  1.71708e-10 -3.17052e-12           -0            0           -0            0     -13.1308      4.97135     -7.11257     0.131331 -3.57323e-06  1.35283e-06 -1.93551e-06  3.57384e-08      -86.852      32.8822      -47.045     0.868669
 7.78081e-13 -3.22198e-13  4.23271e-13 -7.83633e-15 -7.04873e-12  2.91883e-12 -3.83447e-12  7.09902e-14            0           -0            0           -0     -13.0411      5.40021     -7.09426     0.131341 -2.84094e-06  1.17641e-06 -1.54545e-06  2.86121e-08     -86.2505      35.7157     -46.9197     0.868659
 7.84997e-13 -2.92621e-13  4.42574e-13 -7.90097e-15           -0            0           -0            0           -0            0           -0            0      -13.052      4.86536      -7.3586     0.131368 -1.27363e-06  4.74767e-07 -7.18061e-07   1.2819e-08     -86.3025      32.1707     -48.6566     0.868632
  7.8669e-13 -3.31745e-13   4.4539e-13 -7.95031e-15           -0            0           -0            0            0           -0            0           -0      -13.001      5.48249     -7.36062     0.131389  -8.6201e-07  3.63507e-07 -4.88033e-07  8.71149e-09     -85.9499      36.2448     -48.6612     0.868611
 7.42758e-13 -2.86984e-13  3.87788e-13 -7.50933e-15           -0            0           -0            0            0           -0            0           -0     -12.9777      5.01426     -6.77554     0.131205 -1.08896e-05  4.20749e-06 -5.68539e-06  1.10095e-07     -85.9337      33.2027     -44.8653     0.868795
 7.94607e-13 -2.99266e-13  4.72125e-13 -8.04521e-15 -3.72969e-11  1.40468e-11 -2.21604e-11  3.77623e-13            0           -0            0           -0     -12.9808      4.88887     -7.71272     0.131428           -0            0           -0            0     -85.7869      32.3092     -50.9713     0.868572
 7.96154e-13 -3.37756e-13  4.74656e-13 -8.07197e-15 -2.12952e-12  9.03413e-13 -1.26959e-12  2.15905e-14           -0            0           -0            0     -12.9641      5.49981     -7.72902     0.131439           -0            0           -0            0     -85.6678      36.3432      -51.074     0.868561
 7.52317e-13 -3.05547e-13  3.98951e-13 -7.62979e-15           -0            0           -0            0            0           -0            0           -0     -12.9421      5.25632     -6.86314     0.131255 -7.92337e-06  3.21801e-06 -4.20173e-06  8.03567e-08     -85.6604      34.7902     -45.4254     0.868745
 8.04664e-13 -3.10983e-13  5.11038e-13 -8.16709e-15   -3.483e-11  1.34609e-11 -2.21203e-11  3.53513e-13            0           -0            0           -0      -12.954      5.00639       -8.227     0.131479  1.31961e-08 -5.09996e-09  8.38076e-09 -1.33936e-10     -85.5712      33.0712     -54.3459     0.868521
 7.31225e-13 -2.69212e-13  3.94003e-13  -7.4673e-15  2.85368e-10 -1.05063e-10  1.53764e-10 -2.91419e-12           -0            0           -0            0     -12.8464       4.7296     -6.92196     0.131188  -1.2358e-05   4.5498e-06 -6.65882e-06    1.262e-07     -85.0772      31.3226     -45.8419     0.868812
  7.9295e-13  -3.0969e-13  4.96067e-13 -8.11424e-15  -3.1675e-11  1.23708e-11 -1.98158e-11  3.24129e-13            0           -0            0           -0     -12.8464      5.01722     -8.03666     0.131457           -0            0           -0            0     -84.8769      33.1491     -53.0988     0.868543
 6.93201e-13 -2.58287e-13   3.5368e-13 -7.11033e-15           -0            0           -0            0            0           -0            0           -0     -12.7753      4.76008      -6.5181     0.131039 -1.98561e-05  7.39839e-06 -1.01308e-05  2.03668e-07     -84.7168      31.5656     -43.2236     0.868961
 7.85316e-13 -3.23938e-13  4.78897e-13 -8.05313e-15 -2.20849e-11  9.10985e-12 -1.34677e-11  2.26472e-13            0           -0            0           -0     -12.8168      5.28683     -7.81586     0.131431           -0            0           -0            0     -84.7002      34.9382     -51.6514     0.868569
 7.47698e-13 -3.16714e-13  4.11958e-13 -7.68866e-15           -0            0           -0            0            0           -0            0           -0     -12.7665      5.40771     -7.03396      0.13128 -6.04852e-06  2.56206e-06 -3.33255e-06  6.21976e-08     -84.4802      35.7846      -46.546      0.86872
 6.96609e-13 -2.76238e-13  3.53828e-13 -7.17244e-15           -0            0           -0            0           -0            0           -0            0     -12.7294       5.0478     -6.46565     0.131065 -1.94944e-05  7.73043e-06 -9.90178e-06  2.00719e-07     -84.3936      33.4659      -42.866     0.868935
 7.26369e-13 -3.05212e-13  3.88492e-13 -7.50167e-15  3.55775e-10 -1.49493e-10  1.90283e-10 -3.67431e-12            0           -0            0           -0      -12.704      5.33807      -6.7946     0.131202  -1.1281e-05  4.74018e-06 -6.03357e-06  1.16507e-07     -84.1236      35.3478     -44.9928     0.868798
 7.61359e-13 -3.26665e-13  4.54164e-13 -7.90817e-15 -2.25391e-11  9.67052e-12  -1.3445e-11  2.34112e-13            0           -0            0           -0     -12.6477      5.42658     -7.54459     0.131371 -3.66548e-07  1.57269e-07 -2.18652e-07   3.8073e-09     -83.6273      35.8807     -49.8851     0.868629
 7.47616e-13 -2.83395e-13  4.37228e-13 -7.74458e-15           -0            0           -0            0            0           -0            0           -0     -12.6752      4.80472     -7.41284     0.131303   -4.535e-06  1.71906e-06  -2.6522e-06  4.69783e-08     -83.8588      31.7879     -49.0431     0.868697
 7.49033e-13 -3.22153e-13  4.31164e-13 -7.77893e-15  -4.4684e-11  1.92182e-11 -2.57213e-11  4.64057e-13           -0            0           -0            0     -12.6445      5.43831     -7.27854     0.131317 -3.21049e-06   1.3808e-06 -1.84804e-06  3.33419e-08     -83.6455      35.9752     -48.1486     0.868683
 6.17227e-13 -2.22247e-13  3.01872e-13 -6.44218e-15           -0            0           -0            0            0           -0            0           -0     -12.5282      4.51108     -6.12727     0.130761 -1.96223e-05  7.06545e-06 -9.59681e-06  2.04803e-07     -83.2821      29.9877     -40.7314     0.869239
  6.5783e-13 -2.36582e-13  3.39942e-13 -6.84851e-15  1.97669e-10 -7.10899e-11  1.02148e-10 -2.05789e-12           -0            0           -0            0     -12.5764      4.52299     -6.49903      0.13093 -2.13619e-05  7.68259e-06  -1.1039e-05  2.22393e-07     -83.4781      30.0221     -43.1384      0.86907
 6.82895e-13 -2.49562e-13  3.65641e-13 -7.11208e-15           -0            0           -0            0           -0            0           -0            0     -12.5823      4.59816     -6.73691      0.13104 -1.92099e-05  7.02022e-06 -1.02855e-05  2.00064e-07     -83.4367      30.4917     -44.6743      0.86896
 7.63021e-13 -2.99791e-13  4.72123e-13 -7.95348e-15 -1.77161e-11  6.96066e-12 -1.09619e-11  1.84667e-13           -0            0           -0            0     -12.6049      4.95248     -7.79937      0.13139           -0            0           -0            0     -83.3305      32.7406     -51.5612      0.86861
 6.52914e-13 -2.58785e-13   3.2427e-13 -6.81521e-15 -2.41393e-08  9.56774e-09 -1.19888e-08   2.5197e-10           -0            0           -0            0     -12.5421      4.97111     -6.22904     0.130916 -2.06824e-05  8.19758e-06  -1.0272e-05  2.15886e-07     -83.2604      33.0006     -41.3513     0.869084
 6.10631e-13 -2.33266e-13  2.91533e-13 -6.39897e-15 -4.07454e-08  1.55651e-08  -1.9453e-08  4.26982e-10            0           -0            0           -0     -12.4763      4.76605     -5.95654     0.130743 -1.99675e-05  7.62773e-06 -9.53303e-06  2.09245e-07     -82.9501      31.6876     -39.6027     0.869257
 6.97615e-13 -2.93791e-13  3.73055e-13 -7.31237e-15  1.06762e-09 -4.49615e-10   5.7092e-10 -1.11908e-11            0           -0            0           -0     -12.5094      5.26817     -6.68951     0.131123 -1.55513e-05  6.54921e-06 -8.31617e-06  1.63008e-07     -82.8926      34.9091     -44.3275     0.868877
 7.18158e-13 -3.07788e-13   3.9941e-13 -7.53042e-15  1.39397e-10  -5.9743e-11  7.75272e-11 -1.46169e-12            0           -0            0           -0     -12.5135      5.36306     -6.95952     0.131214  -1.0203e-05  4.37282e-06 -5.67451e-06  1.06987e-07      -82.854      35.5096       -46.08     0.868786
 7.37216e-13 -2.93834e-13  4.47822e-13 -7.76814e-15           -0            0           -0            0           -0            0           -0            0     -12.4619      4.96697     -7.56998     0.131313 -3.86117e-06  1.53896e-06 -2.34547e-06  4.06857e-08     -82.4405      32.8585     -50.0785     0.868687
  5.7233e-13   -2.142e-13  2.67719e-13 -6.05184e-15           -0            0           -0            0            0           -0            0           -0     -12.3508      4.62241     -5.77735     0.130598 -1.72886e-05  6.47042e-06  -8.0871e-06  1.82811e-07     -82.2205      30.7717     -38.4603     0.869402
 7.24568e-13 -3.11425e-13  4.17978e-13 -7.63481e-15           -0            0           -0            0            0           -0            0           -0     -12.4567      5.35401     -7.18586     0.131257 -7.18048e-06  3.08623e-06 -4.14217e-06   7.5661e-08     -82.4465      35.4362     -47.5605     0.868743
 6.58583e-13 -2.73079e-13  3.40442e-13 -6.96507e-15   1.1467e-09 -4.75477e-10  5.92766e-10 -1.21274e-11            0           -0            0           -0     -12.3847      5.13527     -6.40202     0.130979  -2.1573e-05  8.94518e-06 -1.11518e-05  2.28153e-07     -82.1704      34.0717     -42.4764     0.869021
 5.43005e-13 -1.88122e-13  2.53346e-13 -5.75633e-15           -0            0           -0            0           -0            0           -0            0     -12.3079      4.26403     -5.74242     0.130475 -2.00823e-05  6.95742e-06 -9.36964e-06   2.1289e-07     -82.0238      28.4168     -38.2692     0.869525
 6.89723e-13 -2.60886e-13  3.96634e-13 -7.32618e-15           -0            0           -0            0            0           -0            0           -0     -12.3451      4.66952     -7.09923     0.131129 -1.51006e-05  5.71177e-06 -8.68381e-06  1.60397e-07     -81.7999      30.9406     -47.0401     0.868871
 7.12771e-13 -2.98065e-13  4.18596e-13 -7.57461e-15           -0            0           -0            0            0           -0            0           -0      -12.349      5.16406     -7.25229     0.131232 -8.59865e-06  3.59576e-06 -5.04981e-06  9.13777e-08     -81.7511      34.1865     -48.0107     0.868768
 5.86274e-13  -2.0352e-13  2.96367e-13 -6.23184e-15 -1.22114e-09  4.23908e-10 -6.17298e-10  1.29802e-11           -0            0           -0            0     -12.2934      4.26753     -6.21441     0.130673 -1.75102e-05  6.07851e-06 -8.85157e-06  1.86126e-07     -81.7839      28.3905     -41.3425     0.869327
  6.2551e-13 -2.54433e-13  3.16721e-13 -6.66554e-15           -0            0           -0            0            0           -0            0           -0     -12.2796      4.99488     -6.21767     0.130854 -2.25405e-05   9.1686e-06 -1.14131e-05  2.40195e-07     -81.5627      33.1766     -41.2985     0.869146
 7.04081e-13 -2.79134e-13  4.24088e-13 -7.52849e-15           -0            0           -0            0           -0            0           -0            0     -12.2713        4.865     -7.39137     0.131213 -9.83566e-06  3.89937e-06  -5.9243e-06  1.05169e-07     -81.2508      32.2121     -48.9397     0.868787
 6.75324e-13 -2.87898e-13  3.80596e-13 -7.26036e-15  3.66599e-10 -1.56285e-10  2.06606e-10 -3.94128e-12            0           -0            0           -0     -12.1944      5.19861     -6.87248     0.131101 -1.61222e-05  6.87304e-06 -9.08603e-06  1.73328e-07     -80.8209      34.4547     -45.5486     0.868898
 5.38124e-13 -1.82079e-13  2.60844e-13 -5.76081e-15           -0            0           -0            0           -0            0           -0            0      -12.188      4.12393     -5.90787     0.130477 -1.16374e-05  3.93764e-06   -5.641e-06  1.24583e-07     -81.2231      27.4827     -39.3712     0.869523
 5.30979e-13 -2.00698e-13   2.4216e-13 -5.68654e-15           -0            0           -0            0            0           -0            0           -0     -12.1804      4.60394     -5.55507     0.130447 -1.17459e-05  4.43968e-06 -5.35687e-06  1.25793e-07     -81.1942      30.6896     -37.0298     0.869553
 6.54299e-13 -2.77144e-13  3.52306e-13 -7.02329e-15  1.75995e-09 -7.45467e-10  9.47639e-10 -1.88914e-11           -0            0           -0            0     -12.2044      5.16946     -6.57143     0.131003 -2.08164e-05  8.81728e-06 -1.12085e-05  2.23445e-07      -80.957      34.2912     -43.5911     0.868997
 4.72346e-13 -1.60873e-13  2.09684e-13 -5.08796e-15 -7.99891e-07   2.7243e-07 -3.55088e-07  8.61618e-09            0           -0            0           -0     -12.0873      4.11673     -5.36578       0.1302           -0            0           -0            0     -80.7487      27.5017      -35.846       0.8698
 6.28878e-13  -2.6354e-13  3.29729e-13 -6.77411e-15 -1.24363e-09   5.2116e-10 -6.52052e-10  1.33961e-11            0           -0            0           -0     -12.1521      5.09249     -6.37149     0.130899 -2.28274e-05  9.56614e-06 -1.19687e-05  2.45891e-07     -80.6834      33.8114     -42.3034     0.869101
 4.77599e-13 -1.72443e-13  2.09795e-13  -5.1593e-15           -0            0           -0            0            0           -0            0           -0     -12.0554      4.35276     -5.29558     0.130229           -0            0           -0            0     -80.5151       29.071     -35.3679     0.869771
 6.75023e-13 -2.82416e-13  3.91033e-13 -7.29396e-15           -0            0           -0            0           -0            0           -0            0     -12.1341      5.07668     -7.02916     0.131115 -1.52839e-05  6.39449e-06 -8.85379e-06   1.6515e-07     -80.4113      33.6425     -46.5813     0.868884
 5.48616e-13  -1.8836e-13  2.79249e-13 -5.92996e-15           -0            0           -0            0            0           -0            0           -0     -12.0777      4.14674     -6.14765     0.130548 -9.88493e-06  3.39387e-06 -5.03149e-06  1.06846e-07     -80.4382      27.6174     -40.9436     0.869452
 6.30559e-13 -2.33988e-13  3.52674e-13 -6.81612e-15           -0            0           -0            0            0           -0            0           -0     -12.1111      4.49418     -6.77377     0.130916 -2.07959e-05  7.71696e-06 -1.16312e-05  2.24796e-07     -80.3989      29.8345     -44.9674     0.869083
 5.90245e-13 -2.42598e-13  2.96745e-13 -6.38666e-15           -0            0           -0            0            0           -0            0           -0     -12.0826      4.96608      -6.0745     0.130737 -2.13714e-05  8.78389e-06 -1.07444e-05  2.31246e-07     -80.3359       33.019     -40.3888     0.869262
 6.56805e-13  -2.5162e-13  3.79687e-13 -7.10783e-15           -0            0           -0            0            0           -0            0           -0     -12.1087       4.6388      -6.9998     0.131038 -1.81759e-05  6.96315e-06 -1.05072e-05  1.96697e-07     -80.2972      30.7617     -46.4183     0.868962
 4.44736e-13 -1.43628e-13  2.00859e-13 -4.83816e-15 -3.42277e-06  1.10539e-06 -1.54585e-06  3.72354e-08           -0            0           -0            0     -11.9591       3.8622     -5.40115     0.130099           -0            0           -0            0     -79.9634      25.8243     -36.1144     0.869901
  5.5955e-13 -1.98532e-13   2.9597e-13 -6.10748e-15 -2.27761e-08  8.08112e-09 -1.20473e-08  2.48601e-10            0           -0            0           -0     -11.9671      4.24602     -6.32993     0.130621 -1.71623e-05   6.0893e-06 -9.07787e-06  1.87326e-07     -79.6499      28.2603     -42.1302     0.869379
 6.30389e-13 -2.63044e-13  3.49866e-13 -6.88588e-15   1.5093e-09 -6.29789e-10  8.37662e-10 -1.64864e-11            0           -0            0           -0     -11.9878      5.00218     -6.65323     0.130945 -2.00725e-05  8.37567e-06 -1.11402e-05  2.19256e-07     -79.5603      33.1983     -44.1559     0.869054
 4.51393e-13 -1.68561e-13  1.98642e-13 -4.96356e-15 -3.08182e-06  1.15083e-06  -1.3562e-06   3.3888e-08            0           -0            0           -0     -11.8361       4.4199     -5.20867     0.130151 -3.88247e-05  1.44981e-05 -1.70854e-05   4.2692e-07     -79.1052      29.5398     -34.8114     0.869848
 5.01342e-13 -1.67074e-13  2.48827e-13 -5.47873e-15 -6.91622e-09  2.30485e-09 -3.43267e-09  7.55813e-11            0           -0            0           -0     -11.9289      3.97535     -5.92058     0.130361           -0            0           -0            0     -79.5781      26.5196     -39.4963     0.869639
  3.9699e-13 -1.29021e-13  1.68404e-13 -4.34129e-15 -1.52785e-05  4.96548e-06 -6.48118e-06  1.67079e-07            0           -0            0           -0     -11.8792      3.86071     -5.03918     0.129905 -0.000653629  0.000212428 -0.000277271  7.14777e-06     -79.5653      25.8585     -33.7517     0.870087
 6.59027e-13 -2.60444e-13  3.94904e-13  -7.2141e-15           -0            0           -0            0           -0            0           -0            0     -11.9747      4.73235     -7.17552     0.131082 -1.67587e-05  6.62298e-06 -1.00422e-05  1.83451e-07      -79.378      31.3698     -47.5651     0.868918
 3.84032e-13  -1.3123e-13   1.5796e-13 -4.22186e-15 -1.75931e-05  6.01185e-06 -7.23642e-06   1.9341e-07           -0            0           -0            0     -11.8123      4.03644     -4.85863     0.129858 -0.000686575  0.000234614 -0.000282403  7.54788e-06     -79.1497      27.0467      -32.556     0.870134
 4.89112e-13 -1.87846e-13  2.23983e-13 -5.36171e-15           -0            0           -0            0            0           -0            0           -0     -11.8875      4.56546     -5.44376     0.130312 -1.82217e-06  6.99812e-07 -8.34442e-07  1.99748e-08     -79.3356      30.4692     -36.3309     0.869688
 6.40423e-13 -2.64055e-13  3.69528e-13 -7.02652e-15           -0            0           -0            0            0           -0            0           -0     -11.9402       4.9231     -6.88957     0.131004 -1.86676e-05  7.69692e-06 -1.07714e-05  2.04816e-07     -79.2034      32.6566     -45.7009     0.868996
   4.252e-13 -1.53231e-13  1.81408e-13 -4.66881e-15 -7.75344e-06  2.79414e-06 -3.30795e-06  8.51349e-08            0           -0            0           -0     -11.8425      4.26773     -5.05251     0.130034 -0.000152084  5.48072e-05 -6.48856e-05  1.66993e-06     -79.2297      28.5524     -33.8028     0.869964
 5.99655e-13 -2.51524e-13  3.25288e-13 -6.60481e-15           -0            0           -0            0            0           -0            0           -0      -11.878       4.9822     -6.44332     0.130828 -1.97001e-05  8.26317e-06 -1.06865e-05  2.16984e-07     -78.9126      33.0997     -42.8068     0.869171
 6.20802e-13 -2.48719e-13  3.56865e-13 -6.85267e-15 -2.94196e-09  1.17867e-09 -1.69117e-09  3.24746e-11            0           -0            0           -0     -11.8614       4.7522      -6.8185     0.130932 -2.00292e-05  8.02453e-06 -1.15137e-05   2.2109e-07     -78.7312       31.543     -45.2583     0.869068
 5.63929e-13 -2.34558e-13  2.89089e-13 -6.21746e-15           -0            0           -0            0            0           -0            0           -0     -11.8516       4.9295     -6.07553     0.130667 -1.55217e-05    6.456e-06 -7.95692e-06   1.7113e-07     -78.8492      32.7962     -40.4208     0.869333
 4.25889e-13 -1.34961e-13  1.98037e-13 -4.69763e-15 -6.08978e-06  1.92981e-06 -2.83173e-06  6.71712e-08           -0            0           -0            0     -11.7898      3.73612     -5.48225     0.130044 -7.71332e-05   2.4443e-05 -3.58667e-05  8.50791e-07     -78.8706      24.9935     -36.6746     0.869955
 5.64154e-13 -2.04031e-13  3.09979e-13 -6.22458e-15           -0            0           -0            0            0           -0            0           -0      -11.843      4.28314     -6.50725      0.13067 -1.99032e-05  7.19814e-06 -1.09359e-05  2.19601e-07     -78.7902      28.4951     -43.2918      0.86933
 3.39912e-13 -1.05482e-13  1.41194e-13 -3.76968e-15 -2.98607e-05   9.2664e-06 -1.24037e-05   3.3116e-07            0           -0            0           -0     -11.6935      3.62875     -4.85731     0.129683  -0.00171012  0.000530686 -0.000710358  1.89655e-05     -78.4748      24.3524     -32.5972     0.870298
 3.40604e-13 -1.02635e-13  1.46685e-13 -3.79746e-15 -2.88319e-05  8.68801e-06 -1.24168e-05  3.21453e-07            0           -0            0           -0     -11.6325      3.50527      -5.0097     0.129694  -0.00157283  0.000473947 -0.000677361  1.75358e-05     -78.0584      23.5216     -33.6168     0.870289
 3.20272e-13 -1.06465e-13  1.26993e-13 -3.57254e-15 -3.64083e-05  1.21029e-05 -1.44365e-05  4.06124e-07           -0            0           -0            0     -11.6194      3.86252     -4.60727     0.129611  -0.00285383  0.000948673  -0.00113159  3.18337e-05     -78.0259      25.9375     -30.9386     0.870357
 5.02981e-13  -2.0601e-13  2.49248e-13 -5.64508e-15           -0            0           -0            0            0           -0            0           -0     -11.6214      4.75985     -5.75886     0.130429 -5.46327e-07  2.23763e-07 -2.70728e-07  6.13156e-09     -77.4794      31.7339     -38.3943     0.869571
 5.67974e-13 -2.33658e-13  3.11089e-13 -6.34492e-15           -0            0           -0            0            0           -0            0           -0     -11.7016       4.8139     -6.40916      0.13072 -1.82715e-05  7.51666e-06 -1.00076e-05  2.04113e-07     -77.8148      32.0121     -42.6205      0.86928
 5.20059e-13 -1.84265e-13  2.81108e-13 -5.81071e-15 -3.41264e-08  1.20915e-08 -1.84463e-08    3.813e-10            0           -0            0           -0     -11.6796      4.13825     -6.31315     0.130498 -1.60113e-05  5.67305e-06 -8.65459e-06  1.78897e-07     -77.8205       27.573     -42.0643     0.869502
 3.99525e-13 -1.25142e-13  1.89381e-13 -4.47561e-15 -1.08417e-05   3.3959e-06 -5.13913e-06  1.21452e-07            0           -0            0           -0     -11.6009       3.6337       -5.499     0.129957 -0.000262629  8.22625e-05 -0.000124491  2.94206e-06     -77.6659       24.327     -36.8149      0.87004
 3.59015e-13 -1.28602e-13  1.49817e-13 -4.03435e-15 -2.19989e-05  7.88015e-06 -9.18012e-06  2.47207e-07            0           -0            0           -0     -11.5497      4.13717     -4.81967     0.129787  -0.00113938  0.000408133 -0.000475462  1.28035e-05     -77.4388      27.7391     -32.3152       0.8702
 4.02341e-13 -1.49793e-13  1.77379e-13 -4.52516e-15 -1.00122e-05  3.72759e-06 -4.41405e-06  1.12608e-07            0           -0            0           -0     -11.5565      4.30255     -5.09489     0.129977 -0.000250261  9.31733e-05 -0.000110332  2.81471e-06     -77.3551      28.7996     -34.1033      0.87002
 4.78193e-13 -1.64492e-13  2.50379e-13 -5.38156e-15           -0            0           -0            0            0           -0            0           -0       -11.58      3.98335      -6.0632      0.13032           -0            0           -0            0     -77.2777      26.5824     -40.4621      0.86968
 5.54315e-13 -2.21526e-13  3.11232e-13 -6.25057e-15 -8.73434e-08  3.49059e-08 -4.90408e-08  9.84903e-10           -0            0           -0            0     -11.5891      4.63145     -6.50693     0.130681 -1.86457e-05  7.45156e-06  -1.0469e-05  2.10253e-07     -77.0932      30.8095     -43.2856     0.869319
 5.41174e-13 -2.23557e-13  2.90834e-13 -6.09576e-15           -0            0           -0            0            0           -0            0           -0      -11.596      4.79024     -6.23183     0.130616 -1.35474e-05  5.59638e-06 -7.28058e-06  1.52598e-07     -77.1828      31.8839     -41.4791     0.869383
 4.35518e-13 -1.42826e-13  2.19523e-13 -4.91174e-15 -5.08829e-06  1.66868e-06 -2.56476e-06  5.73854e-08            0           -0            0           -0     -11.5386      3.78402     -5.81604     0.130132 -6.23254e-05  2.04392e-05 -3.14152e-05  7.02902e-07       -77.13      25.2944     -38.8775     0.869868
 3.16177e-13 -1.10453e-13  1.26619e-13 -3.56936e-15 -3.62009e-05  1.26463e-05 -1.44973e-05  4.08675e-07            0           -0            0           -0      -11.481      4.01074     -4.59776      0.12961  -0.00291564   0.00101854  -0.00116762  3.29149e-05     -77.0971      26.9329     -30.8748     0.870357
 2.55648e-13 -8.26174e-14  9.63567e-14 -2.88711e-15 -6.08929e-05  1.96787e-05 -2.29513e-05  6.87684e-07            0           -0            0           -0     -11.4546      3.70177     -4.31738     0.129361  -0.00807689    0.0026102  -0.00304428   9.1215e-05     -77.0851      24.9115     -29.0543     0.870548
 4.58633e-13 -1.84187e-13  2.18596e-13 -5.18764e-15 -5.30732e-07  2.13142e-07  -2.5296e-07  6.00316e-09            0           -0            0           -0     -11.5145      4.62423     -5.48812     0.130242           -0            0           -0            0     -76.8943      30.8807     -36.6498     0.869758
  4.1617e-13  -1.6364e-13  1.91685e-13 -4.74343e-15 -5.13587e-06  2.01944e-06 -2.36554e-06  5.85377e-08            0           -0            0           -0     -11.4112      4.48694     -5.25593     0.130063 -6.84765e-06  2.69252e-06 -3.15397e-06  7.80482e-08     -76.3248      30.0112     -35.1546     0.869937
 2.41383e-13 -7.05727e-14  9.45393e-14 -2.73133e-15 -6.74517e-05  1.97207e-05 -2.64179e-05  7.63239e-07            0           -0            0           -0     -11.4269      3.34087     -4.47544       0.1293  -0.00981489   0.00286956  -0.00384407  0.000111059     -76.9389      22.4945     -30.1336     0.870589
 3.30769e-13 -9.83746e-14  1.49628e-13 -3.74768e-15 -2.95768e-05  8.79648e-06 -1.33794e-05  3.35111e-07            0           -0            0           -0      -11.445      3.40389     -5.17731     0.129674  -0.00147541  0.000438804 -0.000667421  1.67167e-05     -76.8132      22.8451     -34.7474     0.870308
 5.12989e-13 -2.08741e-13  2.73206e-13 -5.83196e-15 -2.57904e-08  1.04944e-08 -1.37354e-08    2.932e-10            0           -0            0           -0     -11.4796      4.67117     -6.11377     0.130507 -6.81733e-06  2.77405e-06 -3.63076e-06  7.75034e-08     -76.4821      31.1214     -40.7326     0.869493
 3.68012e-13 -1.38347e-13  1.59472e-13 -4.19107e-15 -1.79929e-05  6.76412e-06 -7.79698e-06  2.04911e-07            0           -0            0           -0     -11.4017      4.28628     -4.94078     0.129848 -0.000868217   0.00032639 -0.000376229  9.88762e-06     -76.4059      28.7234     -33.1094     0.870142
  2.3361e-13 -6.54808e-14  9.66054e-14 -2.67733e-15 -6.92373e-05  1.94072e-05 -2.86319e-05  7.93506e-07           -0            0           -0            0       -11.28      3.16178     -4.66464     0.129276   -0.0105677   0.00296212  -0.00437009  0.000121113     -75.9643      21.2928     -31.4137     0.870602
 1.83918e-13 -5.25181e-14  6.92954e-14 -2.10683e-15 -9.12982e-05  2.60704e-05 -3.43987e-05  1.04584e-06           -0            0           -0            0      -11.268      3.21761      -4.2455     0.129078   -0.0174668   0.00498767  -0.00658101  0.000200086     -76.0106       21.705     -28.6388     0.870721
 4.84801e-13 -1.96154e-13  2.49775e-13 -5.53713e-15           -0            0           -0            0            0           -0            0           -0     -11.4158      4.61891     -5.88155     0.130385           -0            0           -0            0     -76.1388      30.8063     -39.2276     0.869615
 5.13612e-13  -2.0313e-13  2.84712e-13 -5.87344e-15 -5.44159e-08  2.15211e-08 -3.01645e-08  6.22275e-10           -0            0           -0            0     -11.4139       4.5141     -6.32709     0.130524  -9.3448e-06   3.6958e-06 -5.18013e-06  1.06863e-07     -76.0327      30.0704     -42.1475     0.869476
  2.4207e-13 -8.17337e-14  9.20886e-14 -2.77663e-15 -6.40638e-05  2.16309e-05 -2.43713e-05  7.34837e-07            0           -0            0           -0     -11.2744      3.80676     -4.28904     0.129322  -0.00910207   0.00307327  -0.00346263  0.000104404     -75.8974      25.6264      -28.873     0.870573
 4.84251e-13 -1.82176e-13   2.6458e-13 -5.55806e-15           -0            0           -0            0            0           -0            0           -0     -11.3607      4.27391     -6.20713     0.130394 -4.36717e-06  1.64294e-06 -2.38609e-06  5.01248e-08     -75.7654      28.5031     -41.3959     0.869606
 3.20565e-13 -9.60873e-14  1.49994e-13 -3.68498e-15 -3.14843e-05  9.43722e-06 -1.47316e-05   3.6192e-07           -0            0           -0            0     -11.2787       3.3807     -5.27733     0.129651  -0.00196547  0.000589135 -0.000919649  2.25935e-05     -75.7118      22.6941     -35.4258     0.870326
 3.77669e-13 -1.22053e-13  1.89761e-13 -4.36291e-15 -1.24286e-05  4.01662e-06 -6.24478e-06  1.43578e-07            0           -0            0           -0     -11.2457      3.63433     -5.65043     0.129913 -0.000262912  8.49668e-05 -0.000132101  3.03722e-06     -75.3174      24.3408     -37.8435     0.870084
 4.56739e-13 -1.65672e-13  2.44747e-13 -5.26171e-15           -0            0           -0            0            0           -0            0           -0     -11.3081      4.10178     -6.05953     0.130271           -0            0           -0            0     -75.4963      27.3847     -40.4551     0.869729
 1.60504e-13 -4.99221e-14  5.75498e-14 -1.85435e-15 -9.82081e-05  3.05459e-05 -3.52131e-05  1.13463e-06            0           -0            0           -0     -11.1667      3.47319     -4.00387     0.129012   -0.0201949   0.00628128  -0.00724102  0.000233318     -75.3685      23.4421     -27.0238     0.870754
 4.34578e-13 -1.71776e-13  2.18396e-13 -5.03053e-15           -0            0           -0            0            0           -0            0           -0     -11.2459      4.44515     -5.65157     0.130178           -0            0           -0            0     -75.1424      29.7015     -37.7625     0.869822
 2.61975e-13 -9.38708e-14  1.06064e-13 -3.05665e-15 -5.27845e-05  1.89137e-05 -2.13704e-05  6.15873e-07           -0            0           -0            0     -11.0924      3.97461     -4.49088     0.129422  -0.00645231   0.00231199  -0.00261229  7.52835e-05     -74.6079      26.7335     -30.2059     0.870502
 3.02713e-13 -1.12577e-13  1.26521e-13 -3.51503e-15 -3.70722e-05  1.37869e-05 -1.54946e-05  4.30473e-07           -0            0           -0            0     -11.1603      4.15044     -4.66453     0.129591  -0.00326521   0.00121431  -0.00136472  3.79148e-05     -74.9561      27.8757     -31.3285     0.870371
 3.25002e-13 -1.23841e-13  1.42745e-13 -3.80058e-15 -2.72322e-05  1.03768e-05 -1.19608e-05  3.18455e-07            0           -0            0           -0     -11.0909      4.22615     -4.87127     0.129697  -0.00171066  0.000651843 -0.000751346  2.00045e-05     -74.4211       28.358     -32.6868     0.870283
 4.66846e-13  -1.8381e-13  2.55205e-13 -5.43789e-15   -1.208e-07  4.75624e-08 -6.60365e-08   1.4071e-09            0           -0            0           -0     -11.1902      4.40589     -6.11722     0.130345 -3.76896e-06  1.48395e-06 -2.06034e-06  4.39014e-08     -74.6604      29.3959     -40.8138     0.869655
 9.92887e-14 -2.71602e-14  3.58489e-14 -1.15799e-15 -0.000126538  3.46141e-05 -4.56873e-05  1.47579e-06            0           -0            0           -0     -11.0406      3.02012     -3.98628     0.128765   -0.0323562   0.00885097   -0.0116824  0.000377367     -74.6689      20.4256     -26.9598     0.870856
 3.21476e-13 -9.97433e-14  1.57034e-13 -3.75654e-15 -2.94575e-05  9.13966e-06 -1.43893e-05  3.44219e-07            0           -0            0           -0     -11.0977      3.44324     -5.42095      0.12968  -0.00211933  0.000657555  -0.00103524  2.47649e-05     -74.4778       23.108     -36.3807     0.870295
 1.73304e-13 -5.75869e-14  6.37347e-14 -2.02722e-15 -9.06428e-05  3.01195e-05  -3.3335e-05  1.06029e-06            0           -0            0           -0     -11.0336      3.66635     -4.05776     0.129066   -0.0174297    0.0057917     -0.00641  0.000203884     -74.4373      24.7346     -27.3752     0.870729
 4.23013e-13 -1.64243e-13  2.18611e-13 -4.94929e-15  -1.2265e-06  4.76213e-07 -6.33851e-07  1.43502e-08            0           -0            0           -0     -11.1235      4.31889     -5.74854     0.130145 -1.97933e-06  7.68512e-07 -1.02291e-06  2.31584e-08      -74.346      28.8662     -38.4216     0.869854
 7.03372e-14  -2.1065e-14  2.38248e-14 -8.24436e-16 -0.000132941   3.9814e-05 -4.50301e-05  1.55822e-06            0           -0            0           -0     -10.9805      3.28851     -3.71934     0.128704   -0.0351079    0.0105143   -0.0118918  0.000411506     -74.2999      22.2518      -25.167     0.870883
 1.12798e-13 -2.95949e-14  4.31328e-14 -1.32463e-15 -0.000123053  3.22853e-05  -4.7054e-05  1.44505e-06           -0            0           -0            0     -10.9667      2.87732     -4.19353     0.128786   -0.0306699   0.00804684   -0.0117278  0.000360167     -74.1571      19.4566     -28.3568     0.870853
 1.00568e-13  -3.2267e-14  3.55028e-14 -1.19191e-15 -0.000119345  3.82915e-05 -4.21315e-05  1.41445e-06            0           -0            0           -0     -10.8682      3.48703     -3.83672     0.128807   -0.0292626   0.00938885   -0.0103304  0.000346814      -73.478      23.5753     -25.9394     0.870845
 3.84739e-13 -1.50958e-13  1.89883e-13 -4.52895e-15 -8.38902e-06  3.29156e-06 -4.14029e-06  9.87511e-08            0           -0            0           -0     -11.0419      4.33244     -5.44956     0.129979 -0.000205185  8.05074e-05 -0.000101266  2.41533e-06     -73.9091      28.9994     -36.4769     0.870019
 3.38929e-13 -1.30866e-13  1.57207e-13 -4.00422e-15 -2.14534e-05   8.2835e-06 -9.95084e-06  2.53457e-07            0           -0            0           -0     -10.9846      4.24132     -5.09504     0.129775   -0.0011748  0.000453607 -0.000544912  1.38794e-05     -73.6573      28.4402     -34.1649      0.87021
 1.12261e-15 -3.00818e-16  3.81539e-16 -1.32561e-17 -0.000156965  4.20607e-05 -5.33473e-05  1.85349e-06            0           -0            0           -0     -10.8822      2.91601     -3.69849     0.128499   -0.0484484    0.0129823    -0.016466  0.000572091     -73.7558      19.7637     -25.0671     0.870927
 4.21566e-13  -1.5935e-13  2.28006e-13 -4.97959e-15 -1.73563e-06   6.5606e-07 -9.38723e-07  2.05015e-08            0           -0            0           -0      -11.019      4.16513     -5.95968     0.130158 -8.25802e-06   3.1215e-06 -4.46639e-06  9.75448e-08     -73.6397      27.8355     -39.8284     0.869842
 4.05733e-14 -1.03322e-14  1.43852e-14 -4.79739e-16 -0.000155053  3.94851e-05 -5.49738e-05  1.83335e-06            0           -0            0           -0     -10.8688       2.7678     -3.85352     0.128513   -0.0470931    0.0119925   -0.0166968   0.00055683     -73.6576      18.7573     -26.1152     0.870928
 1.85513e-13 -5.08463e-14  8.19146e-14 -2.20592e-15 -8.52157e-05  2.33564e-05 -3.76277e-05  1.01329e-06           -0            0           -0            0     -10.8569      2.97571     -4.79394     0.129098   -0.0155008   0.00424855  -0.00684451  0.000184319     -73.2253        20.07     -32.3332     0.870716
-2.86718e-14  8.21378e-15 -9.36765e-15  3.40664e-16 -0.000161484  4.62613e-05 -5.27601e-05  1.91867e-06            0           -0            0           -0     -10.8113      3.09719     -3.53228     0.128455   -0.0515675    0.0147729   -0.0168482  0.000612701     -73.3013      20.9991      -23.949     0.870931
 2.46701e-13 -7.23959e-14  1.16939e-13 -2.93374e-15 -5.74053e-05  1.68459e-05 -2.72106e-05  6.82658e-07            0           -0            0           -0     -10.8788      3.19245     -5.15665      0.12937  -0.00792664   0.00232612   -0.0037573  9.42628e-05     -73.2041      21.4822     -34.6994     0.870535
 6.24783e-14 -1.56621e-14  2.34655e-14 -7.43045e-16 -0.000146747  3.67867e-05 -5.51149e-05  1.74524e-06            0           -0            0           -0      -10.811      2.71013     -4.06039     0.128574   -0.0429705    0.0107719   -0.0161388  0.000511041     -73.2301      18.3574     -27.5036     0.870913
  3.3723e-13 -1.30116e-13   1.6263e-13 -4.02952e-15 -2.09086e-05  8.06731e-06 -1.00833e-05  2.49835e-07            0           -0            0           -0     -10.8617      4.19086     -5.23812     0.129786  -0.00132677  0.000511917 -0.000639841  1.58535e-05     -72.8266      28.0992     -35.1209     0.870198
 3.89045e-13 -1.44479e-13  2.07416e-13 -4.63934e-15 -5.90733e-06  2.19379e-06 -3.14944e-06  7.04447e-08           -0            0           -0            0     -10.9034      4.04916     -5.81302     0.130022 -7.53216e-05   2.7972e-05  -4.0157e-05  8.98206e-07     -72.9544      27.0929     -38.8949     0.869977
 2.60587e-13 -9.69406e-14  1.12151e-13 -3.11195e-15 -4.97734e-05  1.85161e-05 -2.14214e-05  5.94397e-07            0           -0            0           -0     -10.8392      4.03227     -4.66495     0.129442  -0.00601342   0.00223705  -0.00258805  7.18127e-05     -72.8924      27.1166     -31.3713     0.870485
 2.07899e-13 -7.48572e-14  8.32848e-14 -2.48353e-15 -7.23453e-05   2.6049e-05 -2.89817e-05  8.64227e-07            0           -0            0           -0     -10.8168      3.89476     -4.33324     0.129216    -0.011562   0.00416306  -0.00463174  0.000138117     -72.8826      26.2425     -29.1969     0.870645
-1.74148e-13  4.41235e-14 -5.55728e-14  2.09329e-15 -0.000194918  4.93859e-05 -6.22008e-05  2.34294e-06            0           -0            0           -0     -10.6626      2.70155     -3.40256     0.128166   -0.0747606    0.0189419    -0.023857  0.000898633     -72.4562       18.358     -23.1217     0.870933
 3.29742e-13 -1.22947e-13  1.63684e-13 -3.96489e-15 -2.26514e-05  8.44578e-06 -1.12442e-05  2.72366e-07            0           -0            0           -0     -10.7916      4.02375     -5.35697     0.129761  -0.00152638  0.000569123 -0.000757694  1.83535e-05     -72.3723      26.9846     -35.9256      0.87022
 -2.4891e-14  7.55021e-15 -8.04838e-15  2.99413e-16 -0.000165347  5.01548e-05 -5.34641e-05  1.98896e-06            0           -0            0           -0     -10.6747      3.23797     -3.45161     0.128406   -0.0540062    0.0163818   -0.0174626   0.00064964     -72.4037      21.9623     -23.4113     0.870942
-1.94004e-13  5.46642e-14 -5.97294e-14  2.33533e-15 -0.000188667  5.31606e-05 -5.80864e-05  2.27109e-06           -0            0           -0            0     -10.6512      3.00118     -3.27927     0.128214    -0.070528    0.0198726    -0.021714  0.000848984     -72.3515      20.3864     -22.2754     0.870934
 2.90773e-13 -1.09456e-13  1.36238e-13  -3.5108e-15 -3.56861e-05  1.34334e-05 -1.67203e-05  4.30875e-07            0           -0            0           -0     -10.7328      4.04018     -5.02874     0.129588  -0.00321783   0.00121129  -0.00150768  3.88521e-05     -72.0864      27.1356     -33.7752     0.870372
 2.05682e-13 -5.95577e-14  9.67346e-14 -2.48347e-15 -7.32866e-05  2.12211e-05 -3.44676e-05  8.84886e-07            0           -0            0           -0     -10.7006      3.09848      -5.0326     0.129202   -0.0121509   0.00351845  -0.00571471  0.000146714     -72.1076      20.8797      -33.913      0.87065
 1.35894e-13  -4.6933e-14  5.19269e-14 -1.64432e-15 -0.000101812  3.51623e-05 -3.89038e-05  1.23193e-06            0           -0            0           -0      -10.656      3.68018     -4.07178     0.128938   -0.0220243   0.00760641  -0.00841579  0.000266495     -71.9663      24.8546     -27.4993     0.870795
 2.90177e-13 -1.01375e-13  1.47181e-13 -3.53887e-15  -3.4508e-05  1.20556e-05 -1.75027e-05  4.20844e-07            0           -0            0           -0     -10.6267       3.7125     -5.38994     0.129598  -0.00297685   0.00103998  -0.00150989  3.63044e-05     -71.3674      24.9327     -36.1982     0.870365
 9.59037e-14 -2.43397e-14  4.05211e-14 -1.16364e-15 -0.000128562  3.26281e-05 -5.43196e-05  1.55989e-06            0           -0            0           -0     -10.6073      2.69206     -4.48178     0.128703   -0.0343873   0.00872726   -0.0145293  0.000417236     -71.7752      18.2161     -30.3263     0.870878
 2.82571e-13 -1.02177e-13  1.36628e-13 -3.43119e-15 -3.81075e-05  1.37796e-05 -1.84256e-05   4.6273e-07            0           -0            0           -0     -10.6696      3.85811     -5.15893     0.129558   -0.0036193   0.00130873  -0.00174999  4.39482e-05     -71.6805      25.9196     -34.6587     0.870398
 2.09796e-13 -7.63535e-14  8.92734e-14 -2.55068e-15 -6.88034e-05  2.50404e-05 -2.92776e-05  8.36507e-07            0           -0            0           -0       -10.63      3.86871     -4.52335     0.129239   -0.0107962   0.00392919  -0.00459406   0.00013126     -71.6099      26.0619     -30.4718     0.870629
-3.18215e-14  7.37433e-15 -1.13321e-14  3.86635e-16 -0.000188781  4.37483e-05  -6.7228e-05  2.29372e-06            0           -0            0           -0     -10.5512      2.44515     -3.75746     0.128199   -0.0716611    0.0166068   -0.0255197  0.000870692     -71.6805      16.6113     -25.5266     0.870928
 1.24814e-13 -3.27935e-14  5.52086e-14 -1.51965e-15 -0.000112606   2.9586e-05 -4.98086e-05  1.37101e-06            0           -0            0           -0     -10.5818      2.78026     -4.68063     0.128837   -0.0273087   0.00717508   -0.0120794  0.000332493     -71.5241      18.7922     -31.6371     0.870829
 7.40429e-14 -2.49963e-14  2.73786e-14 -9.07089e-16 -0.000125549  4.23843e-05 -4.64236e-05  1.53808e-06           -0            0           -0            0      -10.507      3.54708     -3.88513      0.12872   -0.0333713    0.0112659   -0.0123396  0.000408827     -71.0864      23.9982     -26.2854      0.87087
-2.56186e-13  5.82953e-14 -8.38525e-14  3.12724e-15 -0.000214426  4.87929e-05 -7.01841e-05  2.61749e-06            0           -0            0           -0     -10.4841      2.38568     -3.43158     0.127979   -0.0909884    0.0207045   -0.0297815   0.00111069     -71.3453      16.2347     -23.3521     0.870907
 2.53983e-13 -9.47086e-14  1.17175e-13  -3.1033e-15 -4.90611e-05  1.82946e-05 -2.26343e-05  5.99455e-07            0           -0            0           -0     -10.5936      3.95027     -4.88732     0.129438  -0.00604508   0.00225417  -0.00278889  7.38621e-05     -71.2432      26.5661     -32.8679     0.870488
-7.36103e-13  1.71013e-13 -2.22529e-13  9.02331e-15 -0.000231239  5.37219e-05 -6.99051e-05  2.83458e-06            0           -0            0           -0     -10.4283      2.42272     -3.15254     0.127832    -0.107289    0.0249255   -0.0324341   0.00131517     -71.0422      16.5046     -21.4765      0.87085
 1.59282e-13  -4.5217e-14  7.39625e-14 -1.95436e-15 -9.30644e-05  2.64191e-05 -4.32143e-05  1.14188e-06           -0            0           -0            0      -10.514      2.98472     -4.88218     0.129005   -0.0192497   0.00546458  -0.00893855  0.000236189     -70.9675      20.1462     -32.9537     0.870757
-5.05277e-13  1.45717e-13 -1.47607e-13  6.21174e-15 -0.000212206  6.11979e-05 -6.19917e-05   2.6088e-06            0           -0            0           -0     -10.4106      3.00231     -3.04125     0.127985   -0.0914909     0.026385   -0.0267272   0.00112476       -70.84      20.4295     -20.6945     0.870887
 1.35536e-13 -4.75493e-14  5.46122e-14 -1.66975e-15 -9.98787e-05  3.50399e-05 -4.02447e-05  1.23047e-06            0           -0            0           -0     -10.4662      3.67179     -4.21719     0.128939   -0.0217474   0.00762953  -0.00876281  0.000267919     -70.6835      24.7975     -28.4809     0.870792
 2.62562e-14 -6.17306e-15  1.05822e-14 -3.23764e-16 -0.000167697   3.9427e-05 -6.75878e-05  2.06786e-06            0           -0            0           -0      -10.409      2.44723     -4.19517     0.128352   -0.0576775    0.0135605    -0.023246  0.000711218       -70.63      16.6057     -28.4663     0.870934
-8.31295e-14   2.5954e-14 -2.76378e-14  1.03348e-15 -0.000178921  5.58613e-05 -5.94854e-05  2.22438e-06            0           -0            0           -0     -10.3157      3.22068     -3.42963     0.128246   -0.0661189     0.020643   -0.0219823     0.000822     -70.0546      21.8718     -23.2908     0.870929
 1.99384e-13 -7.11643e-14  8.95401e-14 -2.46465e-15 -7.11738e-05  2.54034e-05 -3.19629e-05  8.79802e-07            0           -0            0           -0     -10.4524      3.73068       -4.694     0.129206   -0.0117903    0.0042082  -0.00529483  0.000145744     -70.4333       25.139     -31.6304     0.870648
-1.14822e-12  3.11758e-13 -3.16325e-13  1.43001e-14 -0.000242003   6.5707e-05 -6.66695e-05  3.01393e-06            0           -0            0           -0     -10.2545      2.78422     -2.82501      0.12771    -0.119166    0.0323553   -0.0328292   0.00148411      -69.921      18.9845     -19.2626     0.870803
 5.60206e-15 -1.22111e-15  1.98842e-15  -6.9292e-17 -0.000210438  4.58703e-05 -7.46941e-05  2.60292e-06            0           -0            0           -0     -10.3476      2.25551     -3.67281     0.127989   -0.0895287    0.0195151   -0.0317778   0.00110738     -70.4098      15.3476     -24.9916     0.870901
 6.31795e-15 -2.06835e-15  2.23982e-15 -7.81756e-17 -0.000150618   4.9309e-05 -5.33966e-05  1.86369e-06            0           -0            0           -0     -10.3845      3.39964     -3.68147     0.128493   -0.0474063    0.0155197   -0.0168063  0.000586586     -70.3854      23.0425     -24.9528     0.870918
 2.46102e-13   -8.689e-14  1.21988e-13  -3.0473e-15 -5.08129e-05  1.79402e-05  -2.5187e-05  6.29177e-07            0           -0            0           -0     -10.4517      3.69014     -5.18073     0.129416  -0.00672618   0.00237478  -0.00333404  8.32851e-05     -70.3024      24.8213     -34.8476       0.8705
 2.17222e-13 -7.64092e-14  1.02305e-13 -2.69072e-15 -6.31916e-05   2.2228e-05 -2.97614e-05  7.82752e-07            0           -0            0           -0     -10.4372      3.67135     -4.91563     0.129285  -0.00969931   0.00341179   -0.0045681  0.000120145      -70.283      24.7225     -33.1013     0.870594
 6.28032e-14 -1.60418e-14   2.7363e-14 -7.83949e-16 -0.000144756  3.69751e-05 -6.30695e-05  1.80694e-06            0           -0            0           -0     -10.2968      2.63012     -4.48627     0.128532   -0.0448366    0.0114526   -0.0195351  0.000559679     -69.7695      17.8212     -30.3982     0.870907
 1.58241e-13  -5.6084e-14  6.93419e-14 -1.97704e-15  -8.8429e-05  3.13412e-05   -3.875e-05  1.10482e-06            0           -0            0           -0     -10.3277      3.66034     -4.52562     0.129032   -0.0176768   0.00626502  -0.00774603   0.00022085     -69.6941      24.7011     -30.5402     0.870746
 2.00441e-13 -6.71474e-14  9.93846e-14 -2.51683e-15 -6.87098e-05  2.30176e-05 -3.40683e-05   8.6275e-07            0           -0            0           -0     -10.2911      3.44748      -5.1026     0.129219   -0.0112819   0.00377941  -0.00559388   0.00014166      -69.338      23.2281     -34.3798     0.870638
 1.82363e-13  -6.1951e-14  8.50659e-14  -2.2767e-15 -7.81475e-05  2.65476e-05  -3.6453e-05  9.75628e-07            0           -0            0           -0     -10.3435      3.51381     -4.82486     0.129133   -0.0144177   0.00489785  -0.00672532  0.000179997     -69.7417      23.6921      -32.532     0.870686
-7.54625e-13  1.59172e-13 -2.38184e-13  9.43152e-15 -0.000245682  5.18213e-05 -7.75453e-05   3.0706e-06            0           -0            0           -0      -10.215      2.15464     -3.22419      0.12767    -0.124839    0.0263321   -0.0394032   0.00156027     -69.6708      14.6956     -21.9904     0.870766
 9.02478e-14  -3.0998e-14  3.63647e-14 -1.12953e-15 -0.000117286   4.0285e-05 -4.72597e-05  1.46794e-06            0           -0            0           -0     -10.2883       3.5338     -4.14562     0.128768     -0.02975    0.0102184   -0.0119876  0.000372348     -69.5802      23.8991     -28.0369     0.870858
-3.13088e-12  7.17004e-13 -8.65358e-13   3.9331e-14 -0.000265329   6.0763e-05 -7.33354e-05  3.33313e-06            0           -0            0           -0     -10.1485      2.32411     -2.80499     0.127488    -0.148583     0.034027   -0.0410674   0.00186654     -69.3061      15.8718     -19.1558     0.870642
          -0            0           -0            0  -0.00020315  4.44163e-05 -7.82614e-05  2.55416e-06            0           -0            0           -0     -10.1825      2.22627     -3.92268     0.128022   -0.0851529    0.0186176   -0.0328042   0.00107061      -69.269      15.1448     -26.6851     0.870905
-5.02703e-12  1.27528e-12 -1.28698e-12  6.32807e-14 -0.000269841  6.84543e-05 -6.90824e-05  3.39678e-06            0           -0            0           -0     -10.1243      2.56836     -2.59193     0.127445    -0.153567    0.0389574   -0.0393148   0.00193311     -69.1622      17.5453     -17.7063     0.870619
 1.98325e-14  -4.7261e-15  8.41285e-15 -2.50581e-16 -0.000173121  4.12548e-05  -7.3437e-05  2.18735e-06            0           -0            0           -0     -10.1522      2.41927      -4.3065     0.128271   -0.0633713    0.0151014   -0.0268818  0.000800687     -68.9305      16.4262       -29.24     0.870926
-1.55389e-12   3.2002e-13  -4.5476e-13  1.96385e-14 -0.000269024  5.54049e-05 -7.87324e-05  3.40001e-06            0           -0            0           -0     -10.0837      2.07671     -2.95108     0.127441    -0.154528    0.0318248   -0.0452241   0.00195298      -68.886      14.1869     -20.1601     0.870603
-2.52464e-14  8.27049e-15 -9.23139e-15   3.1988e-16 -0.000161641  5.29521e-05 -5.91043e-05  2.04805e-06           -0            0           -0            0     -10.1312       3.3189      -3.7045     0.128366    -0.055102    0.0180509   -0.0201481  0.000698161      -68.738      22.5179     -25.1342     0.870934
-2.03605e-13  5.84126e-14 -6.03795e-14  2.58238e-15 -0.000231155  6.63164e-05 -6.85495e-05  2.93181e-06           -0            0           -0            0     -10.0735      2.89001     -2.98732     0.127765       -0.112    0.0321319   -0.0332139   0.00142053      -68.658      19.6974     -20.3607     0.870811
 1.36165e-13 -4.54906e-14  6.26499e-14 -1.72803e-15  -9.8069e-05  3.27633e-05 -4.51219e-05  1.24456e-06            0           -0            0           -0     -10.1594      3.39411     -4.67439      0.12893   -0.0219994   0.00734967    -0.010122  0.000279188     -68.6164      22.9237     -31.5707     0.870789
          -0            0           -0            0 -0.000243978  4.85059e-05   -8.537e-05  3.10808e-06            0           -0            0           -0     -10.0198      1.99207     -3.50603     0.127644    -0.125867    0.0250239   -0.0440418   0.00160343     -68.3522      13.5893      -23.917     0.870749
 1.03343e-13 -3.53972e-14  4.47395e-14 -1.31656e-15 -0.000113208   3.8776e-05 -4.90101e-05  1.44223e-06           -0            0           -0            0     -10.1091      3.46256     -4.37643     0.128786   -0.0283405    0.0097072   -0.0122692  0.000361048     -68.3576      23.4139     -29.5935     0.870852
 1.38715e-13 -4.44255e-14  6.66943e-14 -1.76798e-15  -9.6504e-05  3.09067e-05 -4.63992e-05  1.22998e-06            0           -0            0           -0     -10.1167         3.24     -4.86409     0.128941   -0.0215323   0.00689602   -0.0103527  0.000274438     -68.3212      21.8808     -32.8489     0.870783
-1.32992e-13  4.12184e-14 -4.30712e-14  1.69783e-15 -0.000206228  6.39167e-05 -6.67898e-05   2.6328e-06            0           -0            0           -0     -10.0238      3.10671     -3.24636     0.127969   -0.0892484    0.0276609   -0.0289043   0.00113939      -68.217      21.1426      -22.093     0.870889
-3.07732e-12  6.68934e-13 -8.20846e-13  3.93404e-14 -0.000285646  6.20926e-05 -7.61936e-05   3.6517e-06           -0            0           -0            0     -9.95488      2.16395     -2.65538     0.127263    -0.178546    0.0388115   -0.0476255   0.00228253     -68.0891      14.8009     -18.1621     0.870451
-5.81828e-12  1.51035e-12 -1.44235e-12  7.44302e-14 -0.000280851  7.29051e-05 -6.96227e-05  3.59277e-06           -0            0           -0            0     -9.95177      2.58335     -2.46704     0.127308    -0.170356    0.0442221   -0.0422311   0.00217927     -68.0486      17.6645     -16.8692     0.870509
 9.32796e-14 -3.00363e-14  4.17308e-14 -1.19442e-15 -0.000119669  3.85339e-05 -5.35367e-05  1.53232e-06            0           -0            0           -0     -10.0529      3.23706     -4.49738     0.128724   -0.0322669    0.0103901   -0.0144353  0.000413168     -68.0112      21.8998     -30.4264     0.870862
-3.44294e-12  8.30346e-13 -8.03661e-13  4.41633e-14 -0.000296775  7.15742e-05 -6.92741e-05   3.8068e-06            0           -0            0           -0      -9.9127      2.39068     -2.31385     0.127152    -0.195115    0.0470566   -0.0455443   0.00250278     -67.8512      16.3639      -15.838     0.870341
 9.45935e-14 -2.92933e-14  4.48218e-14 -1.22083e-15 -0.000117747  3.64633e-05 -5.57928e-05  1.51966e-06           -0            0           -0            0     -9.97455      3.08887      -4.7263     0.128733   -0.0314352   0.00973472   -0.0148952  0.000405707     -67.4766      20.8958     -31.9728      0.87086
 6.73336e-15 -1.55715e-15  2.84699e-15 -8.65195e-17 -0.000191118  4.41977e-05 -8.08082e-05  2.45574e-06            0           -0            0           -0     -9.96845      2.30529     -4.21485     0.128088   -0.0780204    0.0180429   -0.0329885   0.00100251     -67.7781      15.6743     -28.6579     0.870907
-9.62296e-13  1.86782e-13 -2.75483e-13  1.23935e-14 -0.000288116  5.59233e-05 -8.24808e-05  3.71068e-06           -0            0           -0            0     -9.87803      1.91733     -2.82785      0.12722     -0.18405    0.0357242   -0.0526893   0.00237041     -67.5826      13.1178     -19.3473     0.870405
-2.88308e-13  5.42943e-14 -8.92572e-14  3.71846e-15 -0.000278749  5.24942e-05 -8.62978e-05  3.59517e-06            0           -0            0           -0     -9.87024      1.85877     -3.05573     0.127302    -0.172249    0.0324381   -0.0533266   0.00222159     -67.4915        12.71     -20.8947     0.870473
 2.17406e-14 -5.62809e-15  9.62714e-15 -2.80544e-16 -0.000167522   4.3367e-05 -7.41815e-05  2.16172e-06            0           -0            0           -0     -9.94168      2.57364     -4.40235     0.128288   -0.0607228    0.0157195   -0.0268891  0.000783573     -67.4922       17.472     -29.8867     0.870926
 7.02126e-13 -2.02386e-13  2.04576e-13 -9.07493e-15 -0.000246717  7.11155e-05  -7.1885e-05   3.1888e-06            0           -0            0           -0     -9.87149      2.84543     -2.87622     0.127588    -0.131379    0.0378695   -0.0382793   0.00169806     -67.3667      19.4183     -19.6284      0.87071
 -9.9817e-14  3.13123e-14 -3.49761e-14  1.29328e-15 -0.000196866  6.17564e-05 -6.89824e-05   2.5507e-06            0           -0            0           -0     -9.88109      3.09967     -3.46235     0.128024   -0.0832906     0.026128   -0.0291852   0.00107916     -67.2167      21.0857     -23.5529     0.870894
 5.07229e-13 -1.52429e-13  1.59706e-13 -6.58037e-15 -0.000228197  6.85761e-05   -7.185e-05  2.96044e-06            0           -0            0           -0     -9.84685      2.95911     -3.10038     0.127745    -0.112422    0.0337844   -0.0353973   0.00145848     -67.1225      20.1712     -21.1342     0.870793
-3.43658e-15  1.10617e-15 -1.37807e-15  4.50883e-17 -0.000168558  5.42556e-05  -6.7592e-05  2.21151e-06            0           -0            0           -0     -9.77539      3.14651     -3.91994     0.128254   -0.0618273     0.019901   -0.0247928  0.000811182     -66.3814      21.3669      -26.619     0.870932
  4.6042e-14 -1.44027e-14  2.00539e-14 -5.98904e-16 -0.000145513  4.55189e-05  -6.3379e-05   1.8928e-06            0           -0            0           -0     -9.87665      3.08958     -4.30183     0.128473   -0.0474391    0.0148398   -0.0206624  0.000617076     -66.9529       20.944     -29.1617     0.870908
          -0            0           -0            0 -0.000281288  7.51225e-05 -7.25345e-05  3.67162e-06            0           -0            0           -0     -9.74881      2.60358     -2.51389      0.12725    -0.175974    0.0469968   -0.0453777   0.00229698     -66.6861      17.8096     -17.1961     0.870449
          -0            0           -0            0  -0.00031904  7.06562e-05 -6.95134e-05  4.16513e-06            0           -0            0           -0     -9.71928      2.15248     -2.11767     0.126887    -0.236571    0.0523921   -0.0515447   0.00308848     -66.6417      14.7588     -14.5201      0.87002
          -0            0           -0            0 -0.000232883  4.82732e-05 -9.13256e-05  3.04704e-06            0           -0            0           -0     -9.75888      2.02287     -3.82697     0.127685     -0.11879    0.0246234   -0.0465836   0.00155424     -66.5514      13.7951     -26.0983     0.870758
 5.08883e-14 -1.52747e-14  2.36609e-14 -6.66087e-16 -0.000141409  4.24455e-05  -6.5749e-05  1.85092e-06           -0            0           -0            0     -9.81742      2.94682     -4.56469     0.128502   -0.0448996    0.0134772   -0.0208764    0.0005877     -66.5364      19.9717     -30.9366     0.870908
-4.92946e-13  8.74124e-14 -1.38703e-13   6.4722e-15 -0.000306219  5.43008e-05 -8.61627e-05  4.02054e-06            0           -0            0           -0     -9.67213      1.71512      -2.7215     0.126991     -0.21887    0.0388114   -0.0615847   0.00287368     -66.2724      11.7518     -18.6474     0.870131
 7.06275e-13 -1.23272e-13  2.23317e-13 -9.27763e-15  -0.00029004   5.0623e-05 -9.17076e-05  3.80996e-06            0           -0            0           -0     -9.67914      1.68938     -3.06044     0.127145    -0.194028    0.0338652   -0.0613495   0.00254875     -66.2533      11.5637     -20.9486     0.870302
-2.75952e-12  5.24694e-13 -6.77854e-13  3.62656e-14 -0.000319453  6.07405e-05 -7.84709e-05  4.19825e-06           -0            0           -0            0     -9.65305      1.83542     -2.37119      0.12686    -0.240522    0.0457327   -0.0590823   0.00316094     -66.1981      12.5869      -16.261     0.869974
          -0            0           -0            0 -0.000321215  6.68278e-05 -7.36633e-05  4.22977e-06            0           -0            0           -0     -9.63227      2.00396     -2.20894     0.126838     -0.24344    0.0506469   -0.0558273   0.00320562     -66.0655      13.7447     -15.1506     0.869952
          -0            0           -0            0 -0.000215221  6.68524e-05 -7.43762e-05  2.83855e-06            0           -0            0           -0       -9.692      3.01055     -3.34937     0.127828    -0.102024    0.0316909   -0.0352575    0.0013456     -66.0263      20.5093     -22.8174     0.870823
 3.48045e-11 -8.07637e-12  7.19417e-12  -4.6104e-13 -0.000324859  7.53835e-05 -6.71491e-05  4.30326e-06           -0            0           -0            0     -9.57089      2.22093     -1.97833     0.126781    -0.252391    0.0585673   -0.0521698   0.00334331     -65.6677      15.2382     -13.5737     0.869871
 1.01828e-14 -2.36254e-15  4.33757e-15  -1.3454e-16 -0.000210783  4.89043e-05 -8.97873e-05  2.78496e-06            0           -0            0           -0     -9.67756      2.24532     -4.12235     0.127864   -0.0981606    0.0227745   -0.0418135   0.00129694     -65.9103       15.292     -28.0758     0.870836
 1.86641e-12 -5.27071e-13  5.21059e-13 -2.46716e-14 -0.000269311  7.60528e-05 -7.51852e-05  3.55994e-06            0           -0            0           -0      -9.6324      2.72017     -2.68914     0.127328    -0.163654    0.0462156   -0.0456884    0.0021633      -65.854       18.597     -18.3849     0.870505
          -0            0           -0            0  -0.00019924  6.12937e-05 -7.59249e-05  2.64489e-06            0           -0            0           -0     -9.63922      2.96539     -3.67325      0.12796   -0.0877379    0.0269915   -0.0334346   0.00116472     -65.6027      20.1819     -24.9994     0.870873
          -0            0           -0            0 -0.000193599  5.07797e-05 -8.68143e-05  2.59093e-06            0           -0            0           -0      -9.5641      2.50861     -4.28877     0.127996   -0.0839281    0.0220138   -0.0376354   0.00112321     -65.0734      17.0684     -29.1805     0.870878
 5.45659e-13 -1.64302e-13  1.77254e-13 -7.23403e-15 -0.000236235  7.11322e-05 -7.67393e-05  3.13186e-06            0           -0            0           -0      -9.6268      2.89871      -3.1272     0.127626    -0.124499    0.0374877   -0.0404427   0.00165053      -65.678      19.7762     -21.3351      0.87072
 7.21917e-15  -2.0768e-15  3.21603e-15 -9.62887e-17 -0.000175938  5.06136e-05 -7.83776e-05  2.34665e-06            0           -0            0           -0     -9.60892      2.76428     -4.28062     0.128163   -0.0697288    0.0200595   -0.0310631  0.000930037     -65.2954      18.7841     -29.0881     0.870905
          -0            0           -0            0 -0.000179874  5.35221e-05 -7.59093e-05  2.39045e-06            0           -0            0           -0     -9.64162      2.86889     -4.06889     0.128133   -0.0723535     0.021529   -0.0305341  0.000961547     -65.5328      19.4995     -27.6557     0.870903
 3.45848e-14 -6.82469e-15   1.3392e-14 -4.59721e-16 -0.000250465  4.94247e-05 -9.69854e-05  3.32932e-06           -0            0           -0            0     -9.59093       1.8926     -3.71382     0.127488    -0.142042    0.0280294   -0.0550017    0.0018881     -65.4968      12.9246     -25.3618      0.87062
 1.91413e-14 -4.23392e-15  7.83781e-15 -2.54608e-16 -0.000228565   5.0557e-05 -9.35908e-05  3.04027e-06            0           -0            0           -0     -9.59957      2.12336     -3.93075     0.127689    -0.116956    0.0258699   -0.0478902    0.0015557     -65.4625      14.4799      -26.805     0.870752
 1.59795e-12 -4.67485e-13  4.76779e-13 -2.12672e-14 -0.000258179  7.55312e-05 -7.70328e-05  3.43613e-06            0           -0            0           -0     -9.57358      2.80078     -2.85647     0.127415     -0.15027     0.043962   -0.0448361   0.00199996     -65.4126      19.1367     -19.5171     0.870581
 1.17962e-12 -1.94045e-13  3.51815e-13 -1.57518e-14 -0.000310027  5.09988e-05 -9.24638e-05  4.13989e-06            0           -0            0           -0     -9.50317      1.56325     -2.83426     0.126899      -0.2324    0.0382294   -0.0693121   0.00310332     -65.1519      10.7173     -19.4312     0.869994
 9.46173e-13 -1.71729e-13  3.45178e-13  -1.2754e-14 -0.000276189   5.0128e-05 -0.000100758  3.72291e-06            0           -0            0           -0      -9.4371      1.71282      -3.4428     0.127208    -0.179571     0.032592   -0.0655103   0.00242054     -64.5694      11.7193     -23.5559     0.870368
          -0            0           -0            0 -0.000221968  6.75049e-05 -7.95972e-05  2.97323e-06            0           -0            0           -0     -9.53615      2.90014     -3.41964     0.127735    -0.110957    0.0337442   -0.0397889   0.00148625     -65.0082      19.7703     -23.3118     0.870775
 1.76119e-12 -2.92242e-13  5.77729e-13 -2.36161e-14 -0.000297594  4.93811e-05  -9.7621e-05   3.9905e-06           -0            0           -0            0     -9.47207      1.57174     -3.10716     0.127013    -0.210979    0.0350087   -0.0692083   0.00282906     -64.8923      10.7679     -21.2869     0.870154
          -0            0           -0            0 -0.000204693  5.98718e-05 -8.17636e-05  2.74931e-06            0           -0            0           -0     -9.52162      2.78504     -3.80337     0.127889   -0.0938514    0.0274512   -0.0374885   0.00126056     -64.8367      18.9645     -25.8987     0.870848
          -0            0           -0            0 -0.000334021  5.58397e-05 -8.23281e-05  4.48704e-06            0           -0            0           -0     -9.42656      1.57588     -2.32342     0.126631    -0.280195    0.0468413   -0.0690612   0.00376397     -64.7343      10.8219     -15.9554     0.869601
 6.55769e-11 -1.12384e-11   1.4927e-11 -8.86067e-13 -0.000341507  5.85267e-05 -7.77357e-05   4.6144e-06           -0            0           -0            0     -9.36425      1.60482     -2.13154     0.126528    -0.298731    0.0511958   -0.0679988   0.00403641     -64.3457      11.0274     -14.6467      0.86943
 1.26825e-14 -3.00449e-15  5.72725e-15 -1.71901e-16 -0.000217687  5.15701e-05 -9.83044e-05  2.95057e-06           -0            0           -0            0     -9.42518      2.23283     -4.25627      0.12775    -0.108365    0.0256717   -0.0489362    0.0014688     -64.2443      15.2195     -29.0118     0.870778
 2.07425e-10 -4.29895e-11   3.7107e-11 -2.82893e-12 -0.000351392   7.2827e-05 -6.28617e-05   4.7924e-06            0           -0            0           -0     -9.26679      1.92057     -1.65777     0.126383    -0.325088    0.0673754    -0.058156   0.00443365     -63.7305      13.2084      -11.401     0.869178
 5.00971e-12 -1.43025e-12  1.38174e-12 -6.79657e-14 -0.000282781  8.07327e-05 -7.79945e-05  3.83644e-06            0           -0            0           -0     -9.37058      2.67526     -2.58452     0.127129    -0.188947    0.0539435   -0.0521139   0.00256341     -64.1495      18.3144     -17.6932     0.870304
          -0            0           -0            0 -0.000319037  7.89316e-05 -7.13966e-05  4.33342e-06            0           -0            0           -0     -9.33212      2.30882     -2.08842     0.126756     -0.25139    0.0621953    -0.056258   0.00341458     -64.0386      15.8435     -14.3311     0.869825
          -0            0           -0            0 -0.000211219  5.77898e-05 -8.94027e-05  2.87016e-06            0           -0            0           -0     -9.40544      2.57333     -3.98104     0.127806    -0.101588    0.0277945    -0.042999   0.00138043     -64.0843      17.5335     -27.1249     0.870811
 4.00564e-12  -6.1107e-13  1.24998e-12 -5.44443e-14 -0.000315054  4.80622e-05 -9.83138e-05  4.28218e-06            0           -0            0           -0     -9.32828      1.42305     -2.91092     0.126789    -0.248066     0.037843   -0.0774098   0.00337168     -63.9966      9.76283     -19.9704     0.869835
          -0            0           -0            0 -0.000334322  5.07742e-05  -8.9251e-05  4.54449e-06            0           -0            0           -0     -9.31227      1.41427     -2.48602     0.126583    -0.286633    0.0435316     -0.07652   0.00389626     -63.9671      9.71482     -17.0767     0.869516
 2.74488e-13 -5.65907e-14  1.10457e-13 -3.73382e-15 -0.000253078  5.21767e-05 -0.000101841  3.44258e-06            0           -0            0           -0     -9.36624      1.93102     -3.76906     0.127407    -0.150062     0.030938   -0.0603863   0.00204127     -63.9976      13.1943     -25.7532     0.870548
 1.76665e-10 -3.23742e-11   3.4718e-11 -2.41828e-12 -0.000352312  6.45618e-05 -6.92358e-05  4.82261e-06           -0            0           -0            0     -9.23081      1.69156     -1.81402     0.126356    -0.330581    0.0605795   -0.0649652   0.00452514     -63.4924      11.6351     -12.4774     0.869114
  1.1111e-12 -3.28667e-13  3.53409e-13 -1.51594e-14 -0.000259809  7.68523e-05 -8.26376e-05  3.54472e-06           -0            0           -0            0     -9.33314      2.76077      -2.9686     0.127337     -0.15805    0.0467517   -0.0502712   0.00215637     -63.8032      18.8732     -20.2939     0.870503
          -0            0           -0            0 -0.000229989   6.9185e-05 -8.54957e-05  3.14305e-06            0           -0            0           -0     -9.33829      2.80913     -3.47139     0.127618    -0.122331    0.0367996   -0.0454752   0.00167179     -63.7129       19.166     -23.6845     0.870707
          -0            0           -0            0 -0.000229183  6.30114e-05 -9.19167e-05   3.1549e-06            0           -0            0           -0     -9.26997      2.54868     -3.71784     0.127609    -0.122771    0.0337545   -0.0492387   0.00169004     -63.2504      17.3901     -25.3674     0.870698
          -0            0           -0            0 -0.000245056  7.33979e-05 -8.48162e-05  3.35508e-06            0           -0            0           -0     -9.31047      2.78863     -3.22245     0.127471    -0.140009    0.0419347   -0.0484584   0.00191687     -63.5894       19.046     -22.0089     0.870609
 6.47575e-12 -1.78326e-12  1.65628e-12 -8.88472e-14 -0.000299745  8.25421e-05 -7.66644e-05  4.11249e-06            0           -0            0           -0     -9.25103       2.5475      -2.3661     0.126924     -0.22019    0.0606348    -0.056317     0.003021     -63.4149      17.4629     -16.2194     0.870051
 4.11168e-11 -6.09794e-12  9.72894e-12 -5.65064e-13  -0.00034929  5.18024e-05 -8.26481e-05  4.80026e-06            0           -0            0           -0     -9.19514      1.36371     -2.17573     0.126368    -0.328889    0.0487768   -0.0778208   0.00451989     -63.2405      9.37906     -14.9638     0.869107
-7.48709e-15  1.95924e-15 -3.34046e-15  1.03107e-16 -0.000216562  5.66705e-05 -9.66221e-05  2.98236e-06           -0            0           -0            0     -9.27494      2.42708     -4.13813     0.127728    -0.108986    0.0285196   -0.0486253   0.00150088     -63.2304      16.5462      -28.211     0.870768
 3.23166e-14 -7.35198e-15  1.44466e-14 -4.47093e-16 -0.000235346   5.3541e-05 -0.000105208  3.25597e-06            0           -0            0           -0     -9.21875      2.09726     -4.12109      0.12754    -0.129914    0.0295553    -0.058076   0.00179734     -62.9326      14.3171      -28.133      0.87066
 1.17985e-10 -2.61951e-11  2.29125e-11 -1.64138e-12 -0.000343774  7.63245e-05   -6.676e-05  4.78248e-06           -0            0           -0            0     -9.08507      2.01706      -1.7643     0.126389    -0.318556    0.0707256   -0.0618627   0.00443166     -62.4779      13.8713      -12.133     0.869175
 8.31898e-13 -1.59258e-13  3.21979e-13 -1.15024e-14 -0.000274959   5.2638e-05 -0.000106421  3.80177e-06            0           -0            0           -0      -9.1959      1.76045      -3.5592     0.127149    -0.184871    0.0353916   -0.0715529   0.00255615      -62.943      12.0498     -24.3616     0.870291
 1.25986e-10  -1.9825e-11  2.56263e-11 -1.74256e-12 -0.000358855   5.6469e-05 -7.29931e-05  4.96344e-06            0           -0            0           -0     -9.12606      1.43607     -1.85629     0.126226    -0.358011    0.0563363   -0.0728215   0.00495177     -62.8152      9.88453      -12.777     0.868818
          -0            0           -0            0 -0.000347867  4.67306e-05 -9.01968e-05  4.82779e-06            0           -0            0           -0     -9.10356      1.22292     -2.36042     0.126342    -0.332171    0.0446221   -0.0861271   0.00460996      -62.619      8.41191     -16.2362     0.869044
          -0            0           -0            0 -0.000328441  4.71618e-05 -9.98265e-05  4.55996e-06            0           -0            0           -0     -9.11618      1.30902     -2.77078     0.126566    -0.285774    0.0410351   -0.0868582   0.00396758     -62.6249       8.9925     -19.0342     0.869462
          -0            0           -0            0 -0.000240433  7.03211e-05 -9.03807e-05  3.33917e-06            0           -0            0           -0     -9.17911      2.68468      -3.4505     0.127481    -0.137228     0.040136    -0.051585   0.00190584     -62.6873      18.3346     -23.5646      0.87061
          -0            0           -0            0 -0.000300728  4.98665e-05  -0.00010818  4.19616e-06            0           -0            0           -0     -9.09118       1.5075     -3.27034     0.126853    -0.231551    0.0383956   -0.0832948   0.00323091     -62.3443      10.3379     -22.4269     0.869912
-2.07902e-14  5.24334e-15 -8.79331e-15  2.89815e-16 -0.000237227   5.9829e-05 -0.000100336  3.30693e-06            0           -0            0           -0     -9.14663       2.3068      -3.8686     0.127504    -0.133631     0.033702   -0.0565197   0.00186281     -62.4558      15.7515     -26.4159      0.87063
 7.81652e-10 -1.58046e-10  1.26755e-10 -1.08967e-11 -0.000360511  7.28935e-05 -5.84615e-05  5.02572e-06            0           -0            0           -0     -9.05087      1.83004     -1.46772     0.126174    -0.365686      0.07394   -0.0593008   0.00509787     -62.3162         12.6     -10.1054     0.868723
 9.68465e-16 -2.42115e-16  4.32938e-16 -1.35387e-17 -0.000230804  5.77005e-05 -0.000103177  3.22653e-06            0           -0            0           -0     -9.12473      2.28117     -4.07907      0.12756    -0.126526    0.0316314   -0.0565616   0.00176878     -62.2816      15.5703      -27.842     0.870668
 5.38896e-14  -1.1294e-14  2.33982e-14 -7.55613e-16 -0.000255022  5.34466e-05 -0.000110727   3.5758e-06            0           -0            0           -0     -9.07975       1.9029     -3.94231     0.127312    -0.158901    0.0333018   -0.0689927   0.00222803     -62.0801      13.0105     -26.9544     0.870457
 1.07705e-09 -1.89338e-10   1.6397e-10 -1.51626e-11   -0.0003711  6.52365e-05 -5.64959e-05  5.22427e-06            0           -0            0           -0     -8.94953      1.57326     -1.36247      0.12599    -0.405361    0.0712594   -0.0617119    0.0057066     -61.6785      10.8426      -9.3899     0.868298
-2.47965e-11  6.45311e-12 -5.64631e-12   3.5052e-13  -0.00032354   8.4199e-05  -7.3672e-05  4.57352e-06            0           -0            0           -0     -8.95334      2.33005     -2.03873     0.126563    -0.278155    0.0723878   -0.0633376   0.00393196     -61.5101      16.0076     -14.0063       0.8695
 1.75933e-12 -5.00471e-13  5.25131e-13 -2.47283e-14  -0.00028716  8.16877e-05 -8.57127e-05  4.03619e-06           -0            0           -0            0      -9.0341      2.56991     -2.69654     0.126979    -0.206732    0.0588085   -0.0617062   0.00290573     -61.9052        17.61     -18.4777     0.870111
          -0            0           -0            0 -0.000308099  8.43534e-05 -7.83347e-05  4.33056e-06            0           -0            0           -0     -9.01795        2.469     -2.29283     0.126754    -0.245193    0.0671307   -0.0623408   0.00344637     -61.8818      16.9424     -15.7336     0.869795
          -0            0           -0            0 -0.000265208  7.60873e-05 -9.19348e-05  3.74041e-06           -0            0           -0            0     -9.01853      2.58739      -3.1263     0.127195    -0.173981    0.0499148   -0.0603111   0.00245378     -61.7106      17.7046     -21.3921     0.870348
-2.71324e-11  3.54047e-12 -5.75996e-12  3.82838e-13 -0.000365449  4.76869e-05 -7.75815e-05  5.15648e-06            0           -0            0           -0     -8.93284      1.16563     -1.89636     0.126042    -0.394907    0.0515309   -0.0838352   0.00557213     -61.5437      8.03075     -13.0652     0.868381
-2.03221e-14  4.76405e-15 -9.06736e-15  2.87666e-16  -0.00024406  5.72141e-05 -0.000108895  3.45474e-06           -0            0           -0            0     -9.00002      2.10984     -4.01564     0.127398    -0.145725    0.0341618   -0.0650199   0.00206279     -61.4988      14.4169     -27.4396     0.870536
          -0            0           -0            0 -0.000360237  4.30103e-05 -8.73784e-05  5.10316e-06            0           -0            0           -0     -8.90099      1.06273     -2.15901     0.126092    -0.381663    0.0455684   -0.0925753   0.00540668      -61.308      7.31984     -14.8707     0.868496
-4.43842e-11  6.44345e-12 -8.03613e-12  6.28966e-13 -0.000369884  5.36977e-05 -6.69706e-05  5.24161e-06            0           -0            0           -0      -8.8887      1.29041     -1.60937     0.125961    -0.412353     0.059863   -0.0746599   0.00584343     -61.2656      8.89418     -11.0926      0.86819
          -0            0           -0            0 -0.000261525  6.77862e-05 -9.99529e-05  3.70807e-06            0           -0            0           -0     -8.97255      2.32565     -3.42924     0.127219    -0.169283    0.0438774   -0.0646986    0.0024002     -61.3866      15.9111     -23.4615     0.870378
          -0            0           -0            0 -0.000318779  4.75238e-05 -0.000109405  4.52348e-06            0           -0            0           -0     -8.92118      1.32998     -3.06175     0.126592    -0.275901    0.0411316   -0.0946894   0.00391505     -61.2746      9.13487     -21.0294     0.869489
          -0            0           -0            0 -0.000346502  4.28873e-05 -9.89389e-05  4.92694e-06           -0            0           -0            0      -8.8789      1.09896     -2.53525      0.12625     -0.34551    0.0427646   -0.0986558   0.00491284     -61.1032      7.56289     -17.4472     0.868832
-1.58353e-11  2.12657e-12 -5.01829e-12  2.25294e-13 -0.000333373  4.47696e-05 -0.000105647  4.74301e-06            0           -0            0           -0     -8.88499      1.19319      -2.8157      0.12641    -0.311303    0.0418057   -0.0986534   0.00442901     -61.0906      8.20402     -19.3599     0.869156
 1.34232e-10 -2.88996e-11  2.45148e-11 -1.91009e-12 -0.000352141  7.58142e-05 -6.43114e-05  5.01088e-06            0           -0            0           -0      -8.8676      1.90915     -1.61949     0.126184    -0.356969    0.0768538   -0.0651932   0.00507959     -61.0503      13.1438     -11.1496     0.868732
          -0            0           -0            0 -0.000281817  7.98078e-05 -9.14199e-05  4.01654e-06            0           -0            0           -0     -8.91033      2.52332     -2.89046     0.126993    -0.202238    0.0572719    -0.065605   0.00288236     -61.0513      17.2891     -19.8047     0.870121
          -0            0           -0            0  -0.00028307  5.35098e-05 -0.000115323  4.04041e-06            0           -0            0           -0     -8.89547      1.68155     -3.62403      0.12697    -0.207364    0.0391987   -0.0844802   0.00295981     -60.9565      11.5229     -24.8338     0.870066
          -0            0           -0            0 -0.000264119  5.40207e-05 -0.000116044  3.77297e-06            0           -0            0           -0     -8.90217      1.82078     -3.91126     0.127169    -0.176432    0.0360859   -0.0775171   0.00252035     -60.9241      12.4609     -26.7676     0.870307
-8.54935e-11  9.83545e-12 -1.72084e-11  1.22254e-12 -0.000372094  4.28069e-05 -7.48963e-05  5.32089e-06            0           -0            0           -0     -8.80243      1.01266     -1.77178     0.125873    -0.432529    0.0497596   -0.0870608    0.0061851     -60.6955      6.98261      -12.217     0.867936
-3.23142e-14   7.3359e-15   -1.396e-14  4.62821e-16 -0.000259057  5.88107e-05 -0.000111915  3.71036e-06            0           -0            0           -0     -8.88216      2.01641     -3.83717     0.127215    -0.168786    0.0383174   -0.0729168   0.00241744     -60.7688      13.7956     -26.2526     0.870364
-2.26116e-10  3.48471e-11 -3.68292e-11  3.23956e-12  -0.00037239  5.73897e-05 -6.06539e-05  5.33523e-06            0           -0            0           -0     -8.78524      1.35391     -1.43092     0.125866     -0.43157    0.0665099   -0.0702929   0.00618309     -60.5811      9.33626      -9.8673     0.867945
          -0            0           -0            0 -0.000301407  8.37053e-05 -8.60844e-05  4.32797e-06           -0            0           -0            0     -8.82742      2.45151     -2.52118     0.126755     -0.24024    0.0667184   -0.0686146   0.00344967     -60.5737      16.8222     -17.3003     0.869791
          -0            0           -0            0 -0.000276236  6.73053e-05 -0.000104722  3.97104e-06            0           -0            0           -0     -8.83613      2.15293     -3.34981     0.127024    -0.196571    0.0478947   -0.0745207   0.00282581     -60.5297      14.7482      -22.947     0.870146
-1.36159e-10  3.41292e-11 -2.94778e-11  1.95773e-12 -0.000333346  8.35556e-05  -7.2168e-05  4.79293e-06            0           -0            0           -0     -8.78944      2.20314     -1.90288     0.126377     -0.31164    0.0781149   -0.0674689   0.00448085      -60.448      15.1517     -13.0868     0.869138
 4.21364e-10 -7.90587e-11  6.15408e-11 -6.09296e-12 -0.000369148  6.92616e-05 -5.39146e-05  5.33791e-06            0           -0            0           -0     -8.70418      1.63313     -1.27126     0.125863    -0.428325    0.0803647   -0.0625574   0.00619361      -60.023      11.2619     -8.76645     0.867938
          -0            0           -0            0  -0.00028481  7.96028e-05 -9.64753e-05   4.1318e-06            0           -0            0           -0     -8.74773      2.44494     -2.96317     0.126905    -0.212933    0.0595134   -0.0721278   0.00308905     -59.9704      16.7614     -20.3141     0.870002
-5.64902e-12   1.5153e-12 -1.47989e-12  8.15337e-14 -0.000313813  8.41775e-05 -8.22108e-05  4.52935e-06           -0            0           -0            0     -8.77105      2.35275     -2.29778     0.126595    -0.268041    0.0718994   -0.0702196    0.0038687     -60.2451      16.1602     -15.7826     0.869532
 4.80322e-11 -5.11057e-12  1.23374e-11 -6.94301e-13 -0.000361062  3.84165e-05 -9.27408e-05  5.21911e-06            0           -0            0           -0     -8.71504      0.92727     -2.23851     0.125975    -0.403289    0.0429095    -0.103587   0.00582951      -60.062      6.39052     -15.4273      0.86819
          -0            0           -0            0 -0.000308832  5.09853e-05 -0.000116224  4.47293e-06            0           -0            0           -0     -8.74311      1.44341     -3.29035      0.12663     -0.26419    0.0436153   -0.0994241   0.00382636      -60.037      9.91155     -22.5941     0.869539
-5.12408e-11  5.83387e-12 -1.47957e-11  7.43487e-13 -0.000350744  3.99329e-05 -0.000101277  5.08918e-06            0           -0            0           -0     -8.69056     0.989438     -2.50939     0.126097    -0.373938    0.0425736    -0.107974   0.00542572     -59.8547      6.81458      -17.283     0.868472
          -0            0           -0            0 -0.000277359  5.38103e-05 -0.000120813  4.02506e-06            0           -0            0           -0     -8.74974      1.69753     -3.81125     0.126977      -0.2047    0.0397138   -0.0891642   0.00297063     -59.9533      11.6315     -26.1147     0.870048
 5.21792e-12  -5.1237e-13  1.03032e-12 -7.62193e-14 -0.000376041  3.69251e-05 -7.42521e-05  5.49291e-06            0           -0            0           -0     -8.60453     0.844916     -1.69903     0.125688    -0.471255    0.0462746   -0.0930529   0.00688373     -59.3831      5.83109     -11.7256     0.867423
          -0            0           -0            0 -0.000276182  6.30823e-05 -0.000112585  4.01967e-06            0           -0            0           -0     -8.72483      1.99282     -3.55664     0.126985    -0.201346    0.0459892    -0.082078   0.00293048     -59.7812      13.6545     -24.3696     0.870081
-9.93565e-10  1.46268e-10 -1.43358e-10  1.44899e-11 -0.000377013  5.55023e-05  -5.4398e-05  5.49828e-06            0           -0            0           -0     -8.61812      1.26872     -1.24348     0.125685     -0.47174    0.0694476   -0.0680658   0.00687976      -59.479      8.75625     -8.58203      0.86743
          -0            0           -0            0 -0.000296836  8.23158e-05 -9.50109e-05  4.36314e-06            0           -0            0           -0     -8.62149      2.39083     -2.75956     0.126726    -0.240366    0.0666559   -0.0769359   0.00353309     -59.1706      16.4086     -18.9392     0.869737
-2.44895e-10   6.1378e-11 -5.45786e-11  3.59492e-12 -0.000334535  8.38447e-05 -7.45565e-05   4.9108e-06            0           -0            0           -0     -8.60195      2.15591     -1.91708     0.126272    -0.327502     0.082082   -0.0729891   0.00480756     -59.1925      14.8354      -13.192     0.868915
-8.85633e-10  2.10575e-10 -1.75888e-10  1.30105e-11 -0.000344226  8.18457e-05 -6.83636e-05  5.05691e-06            0           -0            0           -0     -8.58605      2.04148      -1.7052     0.126135    -0.358326    0.0851981   -0.0711638   0.00526404     -59.1257      14.0581     -11.7424     0.868596
          -0            0           -0            0 -0.000291927  7.65402e-05 -0.000101217  4.29273e-06           -0            0           -0            0      -8.6215      2.26047     -2.98926     0.126778    -0.232437    0.0609428   -0.0805911   0.00341795     -59.1507      15.5087     -20.5088       0.8698
-4.04716e-11  4.97345e-12 -1.31822e-11  5.95696e-13 -0.000339857  4.17641e-05 -0.000110697  5.00231e-06           -0            0           -0            0     -8.57228      1.05343     -2.79212     0.126174    -0.352429    0.0433091    -0.114792   0.00518736      -59.015       7.2522     -19.2221     0.868633
          -0            0           -0            0 -0.000328195  4.58385e-05 -0.000116188  4.83567e-06            0           -0            0           -0     -8.57361      1.19746     -3.03523     0.126325    -0.319482    0.0446217    -0.113103    0.0047073     -58.9761      8.23711     -20.8787     0.868963
          -0            0           -0            0  -0.00032059  8.46376e-05 -8.34613e-05   4.7293e-06            0           -0            0           -0     -8.57028       2.2626     -2.23116     0.126427    -0.294704    0.0778035   -0.0767222   0.00434743     -58.9228       15.556     -15.3398      0.86922
          -0            0           -0            0 -0.000305607  5.11745e-05 -0.000125796  4.54331e-06           -0            0           -0            0     -8.51387      1.42567     -3.50452     0.126572    -0.268452    0.0449529    -0.110502   0.00399095     -58.4826      9.79304     -24.0729     0.869433
          -0            0           -0            0 -0.000378268  6.20218e-05 -4.35585e-05  5.58471e-06            0           -0            0           -0     -8.50543      1.39457    -0.979422     0.125573    -0.497721    0.0816077   -0.0573138    0.0073483     -58.7292      9.62941     -6.76282     0.867073
 1.17469e-09 -1.26452e-10  1.88399e-10 -1.73502e-11 -0.000380457  4.09551e-05 -6.10185e-05  5.61936e-06            0           -0            0           -0     -8.49962      0.91496     -1.36319      0.12554    -0.505923    0.0544611    -0.081141    0.0074725     -58.6987      6.31875     -9.41423     0.866982
          -0            0           -0            0 -0.000292154  6.80953e-05 -0.000110056  4.31771e-06            0           -0            0           -0     -8.57673      1.99907      -3.2309     0.126755    -0.236475    0.0551177   -0.0890813   0.00349484     -58.8506      13.7169     -22.1693     0.869746
-1.29003e-10  1.20196e-11 -3.43144e-11  1.91355e-12 -0.000362566  3.37815e-05 -9.64418e-05  5.37809e-06            0           -0            0           -0     -8.48127     0.790228       -2.256     0.125806    -0.435904    0.0406147     -0.11595   0.00646594     -58.4979      5.45044     -15.5603     0.867723
-2.97067e-10  2.44477e-11 -6.98405e-11  4.41725e-12 -0.000370857  3.05205e-05 -8.71886e-05  5.51448e-06            0           -0            0           -0      -8.4508     0.695476     -1.98678     0.125659    -0.471801    0.0388278     -0.11092   0.00701547     -58.3286      4.80027     -13.7131      0.86732
          -0            0           -0            0 -0.000310574  8.30873e-05 -9.15804e-05  4.61967e-06            0           -0            0           -0     -8.50545      2.27545     -2.50804     0.126515    -0.276628    0.0740058   -0.0815705   0.00411473     -58.4462       15.636     -17.2343     0.869365
-8.15512e-10   1.4859e-10 -1.13885e-10  1.21538e-11 -0.000370202  6.74523e-05 -5.16978e-05   5.5172e-06            0           -0            0           -0       -8.432      1.53634     -1.17751     0.125664    -0.467015     0.085092   -0.0652176   0.00696003     -58.2001      10.6043     -8.12752      0.86737
          -0            0           -0            0 -0.000293886  5.78589e-05 -0.000124408  4.40041e-06            0           -0            0           -0      -8.4609      1.66574     -3.58168     0.126687    -0.245913    0.0484143      -0.1041   0.00368211     -58.0788      11.4343      -24.586     0.869627
-1.17495e-09  1.56665e-10 -1.54128e-10  1.75416e-11 -0.000379646   5.0621e-05 -4.98013e-05    5.668e-06            0           -0            0           -0     -8.40441      1.12062     -1.10248     0.125475    -0.518532    0.0691397   -0.0680201   0.00774153     -58.0573       7.7412     -7.61585     0.866777
          -0            0           -0            0 -0.000379295  3.37816e-05  -6.7364e-05  5.66361e-06            0           -0            0           -0     -8.40366     0.748464     -1.49252     0.125483     -0.51669    0.0460186   -0.0917658   0.00771519     -58.0498      5.17015     -10.3098     0.866796
-1.12294e-09  2.38831e-10 -1.93365e-10  1.67875e-11 -0.000357448  7.60231e-05 -6.15507e-05  5.34369e-06            0           -0            0           -0     -8.41851      1.79048     -1.44963     0.125853    -0.417689    0.0888355   -0.0719241   0.00624428      -58.055      12.3473     -9.99678     0.867897
          -0            0           -0            0 -0.000351026  3.80144e-05 -0.000106187  5.24808e-06            0           -0            0           -0     -8.42335     0.912208     -2.54811     0.125935     -0.40251    0.0435898    -0.121761   0.00601779     -58.0604      6.28766     -17.5636     0.868042
          -0            0           -0            0 -0.000374881  2.83778e-05 -7.98131e-05  5.63294e-06            0           -0            0           -0     -8.35323     0.632326     -1.77843     0.125515    -0.506023    0.0383051    -0.107734   0.00760348     -57.6918      4.36718     -12.2828     0.866876
-1.40486e-09  2.05227e-10  -1.4091e-10  2.11307e-11 -0.000381713   5.5762e-05 -3.82867e-05  5.74142e-06            0           -0            0           -0     -8.33565       1.2177    -0.836086     0.125378     -0.54193    0.0791672   -0.0543569   0.00815129      -57.606      8.41531     -5.77802     0.866465
  6.0734e-12 -1.31738e-12  2.20142e-12 -9.20785e-14 -0.000310373  6.73231e-05   -0.0001125  4.70554e-06           -0            0           -0            0     -8.33975      1.80898      -3.0229     0.126438    -0.287572    0.0623773    -0.104236   0.00435986     -57.3313      12.4358     -20.7808     0.869197
          -0            0           -0            0 -0.000304106   6.3841e-05 -0.000116835  4.58646e-06            0           -0            0           -0     -8.39004      1.76132     -3.22338     0.126537    -0.270911    0.0568724    -0.104082   0.00408582      -57.644      12.1012     -22.1463     0.869373
 1.51408e-12  -3.6098e-13  5.25903e-13 -2.30144e-14 -0.000309117  7.36984e-05 -0.000107369  4.69866e-06            0           -0            0           -0     -8.31876      1.98332     -2.88945     0.126447    -0.284243    0.0677678   -0.0987294   0.00432056     -57.1851      13.6338     -19.8628     0.869228
 8.43056e-09 -7.46382e-10  1.25454e-09 -1.27407e-10  -0.00038212  3.38302e-05 -5.68628e-05  5.77478e-06            0           -0            0           -0     -8.29325     0.734226     -1.23411     0.125332    -0.553634    0.0490149   -0.0823857   0.00836679     -57.3232      5.07499      -8.5302     0.866296
-5.40626e-10  1.32501e-10  -1.2453e-10  8.18638e-12 -0.000337543  8.27275e-05  -7.7751e-05  5.11121e-06            0           -0            0           -0     -8.32628      2.04067     -1.91791      0.12608    -0.360901    0.0884522   -0.0831314    0.0054649     -57.3522      14.0563     -13.2108      0.86845
          -0            0           -0            0 -0.000319335  8.30075e-05 -9.14439e-05  4.84029e-06            0           -0            0           -0     -8.33423      2.16639     -2.38657     0.126325    -0.308926    0.0803019   -0.0884632   0.00468252     -57.3309      14.9025     -16.4171     0.868987
          -0            0           -0            0 -0.000319464  4.84977e-05 -0.000128858  4.88219e-06           -0            0           -0            0     -8.26285      1.25438     -3.33288     0.126276    -0.319953    0.0485719    -0.129055   0.00488966     -56.8515      8.63059     -22.9314     0.868829
-1.27626e-09  1.00422e-10 -3.37657e-10  1.94106e-11 -0.000364823  2.87059e-05   -9.652e-05  5.54857e-06            0           -0            0           -0     -8.25903     0.649857     -2.18506     0.125611    -0.476125    0.0374636    -0.125967   0.00724135     -57.0153      4.48622     -15.0843     0.867142
          -0            0           -0            0 -0.000311372  8.03911e-05 -0.000100117  4.74524e-06            0           -0            0           -0     -8.29453      2.14151     -2.66699     0.126407    -0.291333    0.0752175   -0.0936742   0.00443986     -57.0314      14.7246     -18.3377     0.869148
