  -0.0953311   -0.0953311            0   0.00733316    -0.459901    -0.459901            0     0.035377   -0.0327558   -0.0327558            0   0.00251968           -0           -0            0            0      -12.412      -12.412            0      0.95477
    -0.25993     -0.25993      0.51986    0.0199946      -7.1557      -7.1557      14.3114     0.550439   -0.0442243   -0.0442243    0.0884487   0.00340187     -5.54014     -5.54014      11.0803     0.426165           -0           -0            0            0
   -0.118357   -0.0864919    0.0318654   0.00910441     -1.13741    -0.831184     0.306226     0.087493    -0.743515    -0.543338     0.200177    0.0571935    -0.508183    -0.371364     0.136818     0.039091     -10.4925     -7.66762      2.82491     0.807118
   -0.178207    -0.130228     0.308435    0.0137082     -7.07753     -5.17204      12.2496     0.544426   -0.0233842   -0.0170884    0.0404726   0.00179878     -4.96725     -3.62991      8.59716     0.382096    -0.753626    -0.550727      1.30435    0.0579712
    -0.96328     0.703936     0.259345    0.0740985    -0.163647     0.119588    0.0440587    0.0125882     -11.3058      8.26194      3.04387     0.869678           -0            0            0            0    -0.567263     0.414538     0.152725    0.0436356
    -9.82983      7.18334      17.0132     0.756141     -1.83636      1.34196      3.17832     0.141259     -1.27873      0.93446      2.21319    0.0983642  -0.00273579   0.00199923   0.00473501  0.000210445   -0.0523407     0.038249    0.0905896   0.00402621
          -0            0            0            0           -0            0            0            0          -13           13            0            1           -0            0            0            0           -0            0            0            0
    -12.1512      12.1512      24.3023     0.934704    -0.663245     0.663245      1.32649    0.0510188    -0.185599     0.185599     0.371197    0.0142768           -0            0            0            0           -0            0            0            0
  -0.0773843    -0.105894      0.02851   0.00814572    -0.812067     -1.11125     0.299182    0.0854807   -0.0636192   -0.0870579    0.0234387   0.00669676     -1.50547     -2.06012     0.554648     0.158471     -7.04146     -9.63568      2.59422     0.741206
   -0.199299    -0.272724     0.472023    0.0209788     -4.82148     -6.59781      11.4193     0.507524   -0.0274798   -0.0376039    0.0650837   0.00289261     -3.95211     -5.40815      9.36026     0.416011    -0.499634     -0.68371      1.18334    0.0525931
  -0.0745269   -0.0745269            0   0.00784493    -0.318452    -0.318452            0    0.0335213    -0.653222    -0.653222            0    0.0687602   -0.0540121   -0.0540121            0   0.00568549     -8.39979     -8.39979            0     0.884188
  -0.0782899   -0.0782899    0.0288436   0.00824104    -0.680464    -0.680464     0.250697    0.0716278    -0.465522    -0.465522     0.171508    0.0490023    -0.383122    -0.383122      0.14115    0.0403287      -7.8926      -7.8926       2.9078       0.8308
   -0.165373    -0.165373     0.391673    0.0174077     -5.01456     -5.01456      11.8766     0.527848   -0.0194408   -0.0194408    0.0460441    0.0020464     -3.76549     -3.76549      8.91826     0.396367    -0.535144    -0.535144      1.26745    0.0563309
   -0.167263    -0.167263     0.457773    0.0176067     -5.13168     -5.13168      14.0446     0.540177   -0.0173111   -0.0173111    0.0473777   0.00182222     -3.82551     -3.82551      10.4698     0.402685    -0.358236    -0.358236     0.980436    0.0377091
   -0.239395     0.239395            0    0.0251994   -0.0427941    0.0427941            0   0.00450464      -8.1776       8.1776            0       0.8608           -0            0            0            0     -1.04022      1.04022            0     0.109496
   -0.612099     0.612099      0.22551    0.0644315   -0.0657161    0.0657161    0.0242112   0.00691748     -8.13592      8.13592      2.99744     0.856412  -0.00116492   0.00116492   0.00042918  0.000122623    -0.685105     0.685105     0.252407    0.0721163
    -7.73213      7.73213      18.3129     0.813909     -1.25468      1.25468      2.97161     0.132072    -0.491881     0.491881      1.16498    0.0517769           -0            0            0            0   -0.0213062    0.0213062    0.0504621   0.00224276
    -7.43587      7.43587      20.3508     0.782723     -1.82102      1.82102      4.98385     0.191686    -0.221124     0.221124     0.605182    0.0232762           -0            0            0            0   -0.0219873    0.0219873    0.0601759   0.00231446
   -0.777673      1.06418     0.286511    0.0818603           -0            0            0            0     -8.19498      11.2142       3.0192     0.862629           -0            0            0            0     -0.52735     0.721637     0.194287    0.0555105
    -8.31934      11.3844      19.7037      0.87572    -0.562372     0.769562      1.33193    0.0591971     -0.52152     0.713659      1.23518    0.0548969   -0.0272201    0.0372486    0.0644687   0.00286528   -0.0695462    0.0951685     0.164715   0.00732065
           0           -0            0            0            0           -0            0            0            0           -0            0            0          9.5          -13          3.5            1            0           -0            0            0
    0.727845    -0.995999      1.72384    0.0766153     0.670017    -0.916866      1.58688    0.0705281   0.00122213  -0.00167239   0.00289452  0.000128645      8.10092     -11.0855      19.1864     0.852728            0           -0            0            0
           0           -0            0            0            0           -0            0            0            0           -0            0            0            0           -0            0            0          9.5         -9.5            0            1
   0.0316843   -0.0316843    0.0116732   0.00333519   0.00356436  -0.00356436   0.00131318  0.000375195   0.00341965  -0.00341965   0.00125987  0.000359963       5.7841      -5.7841      2.13099     0.608853      3.67723     -3.67723      1.35477     0.387077
     0.91338     -0.91338      2.16327    0.0961453     0.510567    -0.510567      1.20924    0.0537439   0.00202177  -0.00202177   0.00478841  0.000212818       8.0623      -8.0623      19.0949     0.848664    0.0117269   -0.0117269    0.0277743   0.00123441
     1.14851     -1.14851      3.14329     0.120896     0.729439    -0.729439      1.99636    0.0767831   0.00647221  -0.00647221    0.0177134  0.000681285      7.55221     -7.55221      20.6692     0.794969    0.0633732   -0.0633732     0.173442   0.00667087
     1.07282      1.07282            0     0.112928            0            0            0            0      1.17961      1.17961            0      0.12417       1.3629       1.3629            0     0.143464      5.88467      5.88467            0     0.619439
     1.42716      1.42716     0.525797     0.150228   0.00529971   0.00529971   0.00195253  0.000557865      1.14567      1.14567      0.42209     0.120597      1.88523      1.88523     0.694557     0.198445      5.03664      5.03664       1.8556     0.530173
     8.21781      8.21781      19.4632     0.865033    0.0330262    0.0330262    0.0782199   0.00347644     0.112543     0.112543     0.266549    0.0118466     0.771207     0.771207      1.82654    0.0811797      0.36541      0.36541     0.865444    0.0384642
     8.46139      8.46139      23.1575     0.890672    0.0208489    0.0208489    0.0570601   0.00219462    0.0399434    0.0399434     0.109319   0.00420457     0.826151     0.826151      2.26105    0.0869633      0.15167      0.15167     0.415097    0.0159653
     1.66696      2.28111     0.614144      0.17547    0.0121982    0.0166923   0.00449408   0.00128402      1.23165      1.68541     0.453765     0.129647      2.18595       2.9913      0.80535       0.2301      4.40324      6.02549      1.62225     0.463499
      8.6543      11.8427       20.497     0.910979            0            0            0            0     0.131426     0.179846     0.311272    0.0138343     0.313238     0.428642      0.74188    0.0329724      0.40104     0.548791     0.949831    0.0422147
           0           -0            0            0            0           -0            0            0            0           -0            0            0      6.84384     -6.84384            0     0.526449      6.15616     -6.15616            0     0.473551
     1.14341     -1.14341      2.28681    0.0879543     0.397896    -0.397896     0.795791    0.0306074            0           -0            0            0      11.4587     -11.4587      22.9174     0.881438            0           -0            0            0
    0.189889    -0.138765    0.0511238    0.0146068    0.0355776    -0.025999   0.00957859   0.00273674    0.0513525   -0.0375269    0.0138257    0.0039502      6.14644     -4.49163      1.65481     0.472803      6.57674     -4.80608      1.77066     0.505903
     1.32251    -0.966447      2.28895     0.101731     0.407222    -0.297585     0.704808    0.0313248   0.00290428  -0.00212236   0.00502664  0.000223406      11.2674     -8.23384      19.5012     0.866721            0           -0            0            0
     2.04832      1.49685      0.55147     0.157563   0.00924517   0.00675608   0.00248908  0.000711167      1.35224     0.988172     0.364064     0.104018      2.81049      2.05382     0.756671     0.216192      6.77971       4.9544      1.82531     0.521516
     10.8306      7.91464      18.7452      0.83312    0.0516358    0.0377338    0.0893696   0.00397198     0.156555     0.114405      0.27096    0.0120427      1.36694     0.998919      2.36586     0.105149     0.594311     0.434304      1.02862    0.0457162
     1.56726      1.56726            0     0.120559   0.00912552   0.00912552            0  0.000701963      1.40955      1.40955            0     0.108427      2.79703      2.79703            0     0.215156      7.21703      7.21703            0     0.555156
     12.9007      12.9007      25.8015     0.992365            0            0            0            0            0            0            0            0    0.0992537    0.0992537     0.198507    0.0076349            0            0            0            0
           0      11.0526      22.1053     0.982457            0            0            0            0            0    0.0873648      0.17473   0.00776576            0  0.000407886  0.000815771  3.62565e-05            0     0.109587     0.219173   0.00974104
   -0.163606    -0.193745     0.223883    0.0172217     -3.37915     -4.00163       4.6241       0.3557           -0           -0            0            0     -2.89567     -3.42908      3.96249     0.304807     -3.06157     -3.62555      4.18952     0.322271
     5.45167      4.60363      6.29971     0.484593     0.036512    0.0308324    0.0421917   0.00324551     0.793929     0.670429     0.917429    0.0705714       1.9429      1.64067      2.24513     0.172703      3.02498      2.55443      3.49554     0.268887
   -0.311788          9.5      24.1926            1           -0            0            0            0           -0            0            0            0           -0            0            0            0           -0            0            0            0
   -0.147036    0.0197933    0.0197933    0.0113105     -0.21208    0.0285492    0.0285492    0.0163139     -7.49364      1.00876      1.00876     0.576434           -0            0            0            0     -5.14725     0.692899     0.692899     0.395942
     4.30838    -0.670193      9.95715     0.382967     0.121233   -0.0188584     0.280182    0.0107762    0.0441712  -0.00687108     0.102085   0.00392633      6.77453     -1.05382      15.6567      0.60218   0.00168531  -0.00026216   0.00389495  0.000149806
    0.151541      1.12574     0.151541    0.0865951   0.00067942   0.00504712   0.00067942   0.00038824     0.703819      5.22837     0.703819     0.402182     0.101198     0.751758     0.101198    0.0578275     0.792762      5.88909     0.792762     0.453007
   -0.118175    0.0203855    0.0355972    0.0101706    -0.158987    0.0274257    0.0478908    0.0136831     -6.80316      1.17357      2.04928     0.585509           -0            0            0            0      -4.5389     0.782975      1.36723     0.390637
     6.34172       5.3382      6.45121     0.487825    0.0335718    0.0282594    0.0341515   0.00258245     0.893718     0.752295     0.909148    0.0687476      2.11407      1.77954      2.15057     0.162621      3.61692      3.04457      3.67937     0.278225
   -0.165129    -0.165129     0.228745     0.017382     -3.43398     -3.43398      4.75691     0.361472   -0.0106242   -0.0106242    0.0147172   0.00111834     -2.86206     -2.86206      3.96466     0.301269     -3.02821     -3.02821      4.19481     0.318758
   -0.221086    -0.186804     0.221789    0.0170066     -4.77329     -4.03314      4.78847     0.367176   -0.0656292   -0.0554527    0.0658379    0.0050484     -3.52962     -2.98231      3.54084     0.271509     -4.41038     -3.72651      4.42441      0.33926
     4.25055    -0.657725      8.74342     0.388596    0.0920021   -0.0142363     0.189249   0.00841107    0.0425808  -0.00658891    0.0875892   0.00389285      6.54633     -1.01297      13.4659     0.598482   0.00675261  -0.00104489    0.0138902  0.000617341
    0.939021     0.126407     0.126407    0.0722324    0.0106482   0.00143341   0.00143341  0.000819092     0.757532     0.101975     0.101975    0.0582717       1.8761     0.252552     0.252552     0.144316      9.41669      1.26763      1.26763     0.724361
           0    -0.461917       1.1791    0.0486228            0     -3.02167      7.71321      0.31807            0    -0.010786    0.0275327   0.00113537            0     -5.97914      15.2625     0.629384            0   -0.0264862    0.0676094   0.00278802
    -0.19131    0.0257533     0.356868    0.0147162     -12.6903      1.70831      23.6723     0.976175   -0.0627825   0.00845149     0.117113   0.00482942   -0.0556278   0.00748836     0.103767   0.00427906           -0            0            0            0
          -0            0            0            0       -11.25         1.75           26            1           -0            0            0            0           -0            0            0            0           -0            0            0            0
     3.73838    -0.614354      8.85405     0.393513    0.0853976    -0.014034     0.202257   0.00898922    0.0358177  -0.00588619    0.0848315   0.00377029      5.63853    -0.926621      13.3544      0.59353   0.00187588 -0.000308277   0.00444287  0.000197461
   -0.521017      10.7338      25.6141     0.985156  -0.00365838    0.0753685     0.179852   0.00691739           -0            0            0            0  -0.00294297    0.0606298     0.144681   0.00556466  -0.00124922    0.0257359    0.0614138   0.00236207
    -0.13731    0.0198385     0.036968    0.0105623    -0.195046    0.0281802    0.0525124    0.0150035     -7.55335      1.09131      2.03359     0.581027  -0.00252207  0.000364388  0.000679018  0.000194005     -5.11177     0.738548      1.37625     0.393213
   -0.255278    0.0396056     0.525147    0.0233399     -10.3486      1.60555      21.2887     0.946164   -0.0540853   0.00839117     0.111262   0.00494498    -0.238343    0.0369781     0.490309    0.0217915   -0.0411239   0.00638025    0.0845984   0.00375993
   -0.223945    -0.163652     0.226633    0.0172265     -4.77352     -3.48834      4.83083     0.367194   -0.0514999   -0.0376346    0.0521183   0.00396153     -3.66293     -2.67675      3.70691     0.281764     -4.28811     -3.13362       4.3396     0.329855
    -6.08208      7.02819      7.97429      0.54063    -0.182906     0.211358      0.23981    0.0162583     -4.85861       5.6144      6.37018     0.431877   -0.0162309    0.0187557    0.0212805   0.00144275    -0.110166     0.127303      0.14444   0.00979253
   -0.280898    0.0592651     0.727945    0.0295682     -9.10091      1.92015       23.585     0.957991   -0.0412779   0.00870899     0.106971   0.00434504   -0.0660725    0.0139403     0.171227     0.006955   -0.0108408   0.00228724    0.0280938   0.00114113
  0.00229065    -0.558584      1.32212    0.0508507    0.0139392     -3.39913      8.04543      0.30944  5.22767e-05   -0.0127479    0.0301731    0.0011605    0.0287158     -7.00247      16.5742     0.637469  4.86283e-05   -0.0118582    0.0280673   0.00107951
    0.174864      1.01369     0.305348    0.0872423  0.000881117   0.00510783   0.00153861  0.000439602     0.791397      4.58772      1.38194     0.394839     0.124541     0.721964     0.217474    0.0621353      0.91267      5.29074       1.5937     0.455344
    0.679691     0.125206     0.250413    0.0715464   0.00377202  0.000694845   0.00138969  0.000397054     0.581343     0.107089     0.214179     0.061194    0.0652668    0.0120228    0.0240457   0.00687019      8.16993      1.50499      3.00997     0.859992
    0.191355     0.807816     0.184058    0.0850333  0.000754706   0.00318603  0.000725924  0.000335371      0.86746      3.66202     0.834378     0.385476     0.140292     0.592247     0.134941    0.0623418       1.0505      4.43473      1.01044     0.466814
    -5.17173      7.07711      8.10345     0.544393    -0.207603     0.284089     0.325288     0.021853     -4.03116      5.51632      6.31632     0.424333   -0.0168771     0.023095    0.0264443   0.00177654    -0.072627    0.0993843     0.113797   0.00764495
    -5.04308      5.80613      7.80187     0.530851    -0.288342      0.33197     0.446077    0.0303517     -4.08815      4.70671      6.32454     0.430331   -0.0172505    0.0198606    0.0266873   0.00181584   -0.0631762    0.0727351    0.0977362   0.00665012
 -0.00760354    -0.451913      1.07032    0.0475698   -0.0512623     -3.04676        7.216     0.320711 -0.000183373   -0.0108987    0.0258128   0.00114723    -0.100316     -5.96224      14.1211     0.627604 -0.000474328   -0.0281915    0.0667694   0.00296753
     6.31308      4.61341      6.36791     0.485622    0.0383682    0.0280383    0.0387014    0.0029514     0.901264     0.658616      0.90909     0.069328      2.18624      1.59764      2.20523     0.168172      3.56104       2.6023      3.59197     0.273926
      -5.777      4.77442      7.20155     0.502571    -0.491458     0.406168     0.612647    0.0427545     -5.09208      4.20837      6.34774     0.442986   -0.0149491    0.0123548    0.0186354    0.0013005    -0.119403    0.0986814     0.148847    0.0103875
  0.00216997    -0.626232      1.15539    0.0481717     0.014046     -4.05354      7.47872     0.311811  4.99485e-05   -0.0144146    0.0265948   0.00110882    0.0287771     -8.30479      15.3222      0.63883  3.51455e-06  -0.00101426    0.0018713  7.80204e-05
    0.962611     0.139601     0.259164     0.074047   0.00979549   0.00142057   0.00263725  0.000753499     0.772739     0.112065     0.208045    0.0594415      1.11594     0.161837     0.300446    0.0858416      10.1389      1.47037      2.72971     0.779916
  0.00752006    -0.611618      1.05857    0.0470475    0.0496016     -4.03417      6.98222     0.310321  0.000172033   -0.0139917    0.0242165   0.00107629     0.102546     -8.34022       14.435     0.641555            0           -0            0            0
     5.16115    -0.556419       9.4329     0.397012     0.113478    -0.012234     0.207401   0.00872909    0.0626308  -0.00675217     0.114469   0.00481775       7.6142    -0.820881      13.9163     0.585708    0.0485388  -0.00523292     0.088713   0.00373375
    0.170395      1.17937     0.317523    0.0907209   0.00108977   0.00754268   0.00203072  0.000580206     0.748684      5.18193      1.39513      0.39861     0.121736     0.842583     0.226849    0.0648141     0.836332      5.78857      1.55846     0.445275
  -0.0843358    0.0195119    0.0310711   0.00887745    -0.127851    0.0295796     0.047103     0.013458     -5.57793      1.29051      2.05503     0.587151  -0.00100585  0.000232714  0.000370578  0.000105879     -3.70887     0.858084      1.36643     0.390408
    0.810931     0.139684     0.260295      0.07437    0.0063677   0.00109685   0.00204392  0.000583978     0.664633     0.114484     0.213336    0.0609531     0.180801    0.0311434    0.0580341    0.0165812      9.24128      1.59183      2.96629     0.847512
           0           -0            0            0            0     -0.13649    0.0251429    0.0143674            0   -0.0749305     0.013803   0.00788742            0    -0.933611     0.171981    0.0982749            0     -8.35497      1.53907      0.87947
   -0.149046     0.024563     0.353003     0.015689     -9.03741      1.48938      21.4044     0.951306   -0.0380702   0.00627404    0.0901663   0.00400739    -0.241586    0.0398138     0.572177    0.0254301   -0.0338928   0.00558559    0.0802723   0.00356766
   0.0153542    -0.552258      1.09886    0.0488382    0.0971969     -3.49596      6.95612     0.309161  0.000342887   -0.0123329    0.0245395   0.00109064     0.201033     -7.23072      14.3874     0.639439  0.000462515   -0.0166357    0.0331009   0.00147115
     0.18214     0.812978     0.299518    0.0855766  0.000806403   0.00359936   0.00132608   0.00037888     0.830073      3.70501      1.36501     0.390002     0.132513      0.59147      0.21791      0.06226     0.982851      4.38694      1.61624     0.461783
     3.59563    -0.713561      9.84066     0.378487     0.107021   -0.0212386     0.292899    0.0112654    0.0357498  -0.00709464    0.0978417   0.00376314       5.7616      -1.1434      15.7686     0.606485            0           -0            0            0
     3.56138       -0.754      9.22979     0.374882     0.128249   -0.0271524     0.332375    0.0134999    0.0344952  -0.00730316    0.0893988   0.00363107      5.77374     -1.22239      14.9634     0.607762   0.00213629 -0.000452286   0.00553649  0.000224873
  -0.0828937    0.0163888     0.226867   0.00872565     -9.41622      1.86167      25.7707     0.991181           -0            0            0            0           -0            0            0            0 -0.000882489  0.000174476   0.00241523  9.28936e-05
     4.59154      4.59154      6.20591      0.48332     0.028834     0.028834    0.0389718   0.00303515     0.700059     0.700059     0.946197    0.0736904      1.62237      1.62237      2.19279     0.170776       2.5572       2.5572       3.4563     0.269179
 0.000131591  -0.00472385   0.00147718  0.000422053   0.00723035    -0.259555    0.0811648    0.0231899   0.00064978   -0.0233258   0.00729415   0.00208404     0.137957     -4.95239      1.54865     0.442471     0.165819     -5.95258      1.86142     0.531833
   -0.418043      9.43379      25.8188      0.99303  -0.00129277    0.0291733    0.0798427   0.00307087           -0            0            0            0  -0.00131843    0.0297525    0.0814278   0.00313184 -0.000322858    0.0072858    0.0199401  0.000766926
   -0.155413    -0.352053     0.761363    0.0338383     -1.91989     -4.34907      9.40548     0.418021   -0.0083116    -0.018828    0.0407182    0.0018097     -2.39342     -5.42176      11.7253     0.521125    -0.115767    -0.262245     0.567141    0.0252063
    -0.15372    -0.323784     0.766857    0.0340825     -1.88188     -3.96383      9.38802     0.417245  -0.00797854   -0.0168053    0.0398021   0.00176898     -2.35814     -4.96699      11.7639     0.522841    -0.108527    -0.228592     0.541403    0.0240623
     5.82456      2.29571      14.4451     0.613112      0.04291    0.0169127     0.106418   0.00451684    0.0376479    0.0148386    0.0933677   0.00396293      3.54575      1.39753      8.79356     0.373237    0.0491287    0.0193637      0.12184   0.00517144
  -0.0806422     0.019683     0.018481   0.00848866    -0.124736    0.0304454    0.0285861    0.0131301     -5.59953      1.36672      1.28326     0.589424           -0            0            0            0     -3.69509     0.901892     0.846813     0.388957
 -0.00124658 -0.000491786   0.00309147  0.000131219     -6.94487     -2.73981       17.223     0.731039           -0           -0            0            0     -2.29424    -0.905096      5.68962     0.241499    -0.259638    -0.102429     0.643893    0.0273304
    0.151464     0.973695            0    0.0865507            0            0            0            0     0.698018      4.48726            0     0.398867    0.0931482      0.59881            0    0.0532276      0.80737      5.19024            0     0.461354
    0.162855     0.820624            0    0.0863815  5.46838e-05  0.000275551            0  2.90054e-05     0.747493      3.76661            0     0.396485     0.101334     0.510623            0    0.0537498     0.873561      4.40187            0     0.463354
    0.627718     0.103332    0.0965974    0.0660756            0            0            0            0     0.598902    0.0985886    0.0921629    0.0630423            0            0            0            0      8.27338      1.36193      1.27316     0.870882
   -0.265801    0.0385472      0.46004    0.0204462     -12.6328      1.83204      21.8644     0.971751   -0.0522963   0.00758416    0.0905128   0.00402279    -0.047483   0.00688613    0.0821822   0.00365254  -0.00165605  0.000240165   0.00286624  0.000127389
     6.86655      1.91624      13.0271     0.578983    0.0600876    0.0167686     0.113997   0.00506655    0.0606915    0.0169372     0.115143   0.00511747       4.7576       1.3277      9.02604     0.401157     0.114752    0.0320238     0.217706   0.00967583
     4.57987      5.39561      6.11563     0.482092    0.0248191    0.0292397    0.0331416   0.00261253     0.732275     0.862704     0.977827    0.0770816      1.58226      1.86409      2.11284     0.166554      2.58077      3.04045      3.44618      0.27166
   -0.218834     0.573525    0.0653377     0.060371  -0.00642637    0.0168424   0.00191873   0.00177288     -2.20016      5.76623     0.656907     0.606972   -0.0962633     0.252289    0.0287415    0.0265567     -1.10313      2.89111     0.329365     0.304328
  0.00807601    -0.479994      1.31367    0.0505257    0.0494592     -2.93959      8.04519      0.30943  0.000184099   -0.0109419    0.0299462   0.00115178     0.101953     -6.05954       16.584     0.637846  0.000167189  -0.00993684    0.0271955   0.00104598
           0           -0            0            0   0.00291967    -0.176449    0.0650076    0.0185736  0.000680886   -0.0411491    0.0151602   0.00433148    0.0432376     -2.61305     0.962703     0.275058     0.110356     -6.66935      2.45713     0.702037
     5.21396    -0.523049      9.02415     0.401073     0.106756   -0.0107095      0.18477     0.008212    0.0600487  -0.00602392      0.10393   0.00461913      7.58059    -0.760463      13.1202     0.583122    0.0386522  -0.00387748    0.0668981   0.00297325
      5.7521      2.20851      13.6234     0.605484    0.0430664    0.0165353     0.101999   0.00453331    0.0410181    0.0157488    0.0971482    0.0043177      3.60239      1.38313      8.53196     0.379198    0.0614343    0.0235876     0.145502   0.00646677
   -0.195444    -0.165895     0.232505    0.0174627     -4.10872     -3.48754      4.88784      0.36711   -0.0209806   -0.0178086     0.024959   0.00187459     -3.33569     -2.83138      3.96822      0.29804     -3.53125     -2.99738      4.20087     0.315514
   -0.148434    -0.329591     0.868666    0.0346937      -1.7943     -3.98415      10.5006     0.419384   -0.0065411   -0.0145242    0.0382798   0.00152886     -2.25326     -5.00324      13.1865     0.526657   -0.0758844    -0.168497      0.44409    0.0177366
          -0           -0            0            0     -6.98312     -2.68376       16.539     0.735066 -0.000421013 -0.000161804  0.000997136  4.43172e-05     -2.25042     -0.86488      5.32993     0.236886    -0.266038    -0.102244      0.63009     0.028004
     -4.9553       4.9553      7.59758      0.52161    -0.325869     0.325869      0.49963     0.034302     -4.12951      4.12951      6.33146     0.434685    -0.016077     0.016077    0.0246497   0.00169232   -0.0732424    0.0732424     0.112297   0.00770973
  -0.0279189  -0.00806716    0.0528657   0.00234959     -8.79478     -2.54125      16.6533     0.740147  -0.00907873  -0.00262329     0.017191  0.000764043     -2.66356    -0.769633      5.04357     0.224158    -0.387144    -0.111865     0.733074    0.0325811
   -0.276885     0.683997     0.251999    0.0719996  -0.00566348    0.0139906   0.00515444    0.0014727     -2.38023      5.87995       2.1663     0.618942   -0.0966752     0.238819     0.087986    0.0251388     -1.08619      2.68325     0.988564     0.282447
   -0.301551     0.805651     0.267929    0.0765511  -0.00547078    0.0146162    0.0048608    0.0013888     -2.45064      6.54737       2.1774     0.622116     -0.09768     0.260971     0.086789    0.0247969     -1.08386      2.89575     0.963017     0.275148
   -0.156258      9.44342       22.366     0.994044           -0            0            0            0 -0.000360165    0.0217664     0.051552    0.0022912           -0            0            0            0 -0.000576124    0.0348178    0.0824633   0.00366504
     7.40813      1.82668      12.8218     0.569856    0.0684747    0.0168844     0.118514   0.00526728    0.0713073    0.0175829     0.123417   0.00548518      5.31091      1.30956      9.19197     0.408532     0.141179    0.0348116     0.244348    0.0108599
  -0.0880374    -0.446767     0.925969    0.0411542    -0.778393     -3.95015      8.18707      0.36387   -0.0030961   -0.0157119    0.0325646   0.00144731     -1.24289     -6.30735      13.0726     0.581005   -0.0267918    -0.135962     0.281794    0.0125242
    0.137239      1.10491            0    0.0849934  0.000116141  0.000935055            0  7.19273e-05     0.657091      5.29025            0     0.406943    0.0875163     0.704595            0    0.0541996      0.73274       5.8993            0     0.453792
  -0.0838707    -0.395349     0.936354    0.0416157     -0.73021     -3.44206      8.15225     0.362322  -0.00282313   -0.0133077    0.0315182   0.00140081     -1.17571     -5.54204      13.1259     0.583372   -0.0227514    -0.107245     0.254002     0.011289
          -0           -0            0            0     -8.09583    -0.742886      20.5288     0.852192           -0           -0            0            0     -1.25703    -0.115347      3.18748     0.132319    -0.147144   -0.0135021     0.373117    0.0154888
     4.64673     0.423844      11.7833      0.48913    0.0690523    0.0062985     0.175105   0.00726866    0.0364687   0.00332643    0.0924784   0.00383881      4.72816     0.431272      11.9898     0.497701    0.0195853   0.00178645    0.0496651   0.00206162
     5.02686    -0.624376      10.0537     0.386682     0.127941   -0.0158912     0.255881   0.00984158    0.0529438  -0.00657604     0.105888    0.0040726       7.7861    -0.967095      15.5722     0.598931   0.00614845 -0.000763685    0.0122969  0.000472957
          -0            0            0            0     -12.9233      1.60517      25.8465     0.994098   -0.0108776   0.00135108    0.0217551  0.000836735   -0.0658188   0.00817522     0.131638   0.00506299 -3.04377e-05   3.7806e-06  6.08753e-05  2.34136e-06
 -0.00545149    -0.639872      1.27974    0.0492209   -0.0346908     -4.07186      8.14372      0.31322 -0.000131762   -0.0154657    0.0309313   0.00118967   -0.0703936     -8.26249       16.525     0.635576 -8.78376e-05     -0.01031      0.02062  0.000793077
  -0.0389155  -0.00182212    0.0771597   0.00342932     -9.78697    -0.458251      19.4051     0.862449    -0.018825 -0.000881434    0.0373253    0.0016589     -1.31547   -0.0615936      2.60825     0.115922    -0.187698   -0.0087885     0.372159    0.0165404
     5.35926     0.248576      10.6269     0.472308    0.0767998   0.00356216     0.152287   0.00676832    0.0503347   0.00233465    0.0998092   0.00443597      5.81584     0.269753      11.5323     0.512547    0.0447148   0.00207398    0.0886655   0.00394069
 -0.00114102 -8.72656e-05   0.00270242  0.000120108     -8.14958    -0.623282      19.3016     0.857851  -0.00674607 -0.000515941    0.0159775  0.000710112     -1.20656   -0.0922783      2.85765     0.127007    -0.135968   -0.0103989     0.322029    0.0143124
     6.02114     0.173833      10.4212     0.463164    0.0883784   0.00255152     0.152963   0.00679834    0.0656256   0.00189464     0.113583   0.00504812      6.74508     0.194733      11.6742     0.518852     0.079779   0.00230325     0.138079   0.00613685
  -0.0777719     -0.40488      1.04784     0.042619    -0.659277      -3.4322      8.88258     0.361284  -0.00229894   -0.0119683     0.030974   0.00125982     -1.07031     -5.57205      14.4205     0.586531   -0.0151572   -0.0789085     0.204217   0.00830616
   -0.231836     0.831453            0    0.0639579           -0            0            0            0     -2.24954      8.06772            0     0.620594   -0.0990783     0.355333            0    0.0273333     -1.04437       3.7455            0     0.288115
     4.58505      0.34811      10.8593     0.482637    0.0650928   0.00494203     0.154167   0.00685187    0.0379444   0.00288085    0.0898683   0.00399414      4.78881      0.36358      11.3419     0.504085    0.0231058   0.00175426    0.0547244   0.00243219
   -0.194532    -0.266202     0.532404    0.0204771     -4.96469     -6.79379      13.5876     0.522599   -0.0228132   -0.0312181    0.0624363   0.00240139     -3.96195     -5.42162      10.8432     0.417047     -0.35601    -0.487171     0.974343    0.0374747
    -0.18925    -0.138298     0.378501    0.0145577     -7.16849     -5.23851       14.337     0.551422   -0.0202981   -0.0148332    0.0405962   0.00156139     -5.05957     -3.69738      10.1191     0.389198     -0.56239    -0.410977      1.12478    0.0432608
   -0.337238     0.461483            0    0.0354987 -0.000278256  0.000380771            0  2.92901e-05      -8.4442      11.5552            0     0.888863  -0.00621281   0.00850174            0   0.00065398    -0.712073     0.974416            0     0.074955
          -0           -0            0            0     -9.72745     -2.56912      19.4549     0.748265           -0           -0            0            0     -2.96055     -0.78191      5.92109     0.227734    -0.312006   -0.0824041     0.624013    0.0240005
   -0.152498    -0.463366     0.926732    0.0356435     -1.76286     -5.35646      10.7129     0.412036  -0.00761314   -0.0231326    0.0462652   0.00177943     -2.28346     -6.93831      13.8766     0.533716    -0.071984    -0.218724     0.437448    0.0168249
    0.585282     0.976729            0     0.102814  0.000309676  0.000516794            0  5.43993e-05      1.49014      2.48677            0     0.261765     0.634903      1.05954            0      0.11153      2.98202      4.97644            0     0.523836
    -5.10972      2.23752      8.84374     0.393055     -7.44844      3.26164      12.8915     0.572957    -0.412525     0.180643     0.713985    0.0317327           -0            0            0            0   -0.0293164    0.0128375    0.0507399   0.00225511
    -6.66521      9.12082      13.1148     0.701601    -0.464961     0.636263      0.91488    0.0489433      -2.2968      3.14299      4.51929     0.241769   -0.0218446    0.0298926    0.0429825   0.00229943   -0.0511816     0.070038     0.100707   0.00538754
    0.338934    -0.666651      1.82452    0.0701738      1.02105     -2.00832      5.49645     0.211402   0.00388525  -0.00764192    0.0209147  0.000804413       3.4492     -6.78426      18.5675     0.714133    0.0168428   -0.0331282    0.0906668   0.00348718
  -0.0770416     0.881707     0.278724    0.0796355  -0.00077817   0.00890581   0.00281529   0.00080437    -0.488762      5.59367      1.76826     0.505218   -0.0396217     0.453453     0.143345    0.0409557    -0.361225      4.13406      1.30685     0.373387
  -0.0642389     0.740739     0.272904    0.0779726 -0.000663059   0.00764574   0.00281685  0.000804815    -0.411507      4.74509      1.74819     0.499483   -0.0336406     0.387911     0.142914    0.0408327    -0.313816      3.61861      1.33317     0.380907
    -0.04932     0.717477     0.123082    0.0755239 -0.000558514   0.00812491   0.00139381  0.000855254    -0.320336      4.66005     0.799421     0.490531   -0.0264904     0.385365    0.0661086    0.0405648    -0.256334      3.72898     0.639699     0.392525
   -0.226061    -0.165199     0.310018    0.0173893     -5.93786     -4.33921      8.14311     0.456758   -0.0417083   -0.0304791    0.0571982   0.00320833     -4.38721     -3.20604      6.01657     0.337478     -2.40716     -1.75908      3.30115     0.185166