          -0            0           -0            0  1.69923e-11 -6.30273e-12  9.76123e-12 -1.61637e-13           -0            0           -0            0     -13.5722      5.03416     -7.79655     0.129104           -0            0           -0            0     -91.5542       33.959     -52.5933     0.870896
          -0            0           -0            0  1.68612e-11 -6.64131e-12  9.81115e-12   -1.616e-13            0           -0            0           -0     -13.4704      5.30572     -7.83809     0.129102           -0            0           -0            0     -90.8684      35.7914     -52.8743     0.870898
          -0            0           -0            0  1.68278e-11 -6.04586e-12  1.00665e-11  -1.6176e-13            0           -0            0           -0     -13.4311       4.8255     -8.03459     0.129109           -0            0           -0            0     -90.5983        32.55     -54.1966     0.870891
          -0            0           -0            0  1.67842e-11 -6.40698e-12  9.43011e-12  -1.6122e-13            0           -0            0           -0     -13.4388      5.12998     -7.55055     0.129087 -1.12424e-06  4.29152e-07 -6.31648e-07  1.07988e-08     -90.6684      34.6106     -50.9416     0.870913
          -0            0           -0            0  1.67922e-11 -6.37312e-12  1.02489e-11 -1.61805e-13            0           -0            0           -0     -13.3991      5.08535     -8.17801      0.12911           -0            0           -0            0      -90.381      34.3022     -55.1632      0.87089
          -0            0           -0            0  1.67461e-11 -6.12713e-12  9.63968e-12 -1.61486e-13           -0            0           -0            0     -13.3874      4.89823     -7.70627     0.129097           -0            0           -0            0     -90.3125      33.0439     -51.9872     0.870903
          -0            0           -0            0  1.66376e-11 -6.60825e-12  9.34163e-12 -1.61018e-13            0           -0            0           -0     -13.3373      5.29743     -7.48861     0.129078 -1.79578e-06  7.13263e-07 -1.00829e-06  1.73795e-08       -89.99       35.743     -50.5274     0.870922
          -0            0           -0            0  1.66668e-11 -6.71355e-12  1.00992e-11  -1.6169e-13            0           -0            0           -0      -13.308      5.36061       -8.064     0.129106           -0            0           -0            0     -89.7705      36.1605     -54.3964     0.870894
          -0            0           -0            0  1.65162e-11  -6.4187e-12  9.06292e-12 -1.60415e-13            0           -0            0           -0     -13.2873      5.16384     -7.29112     0.129054 -3.93888e-06  1.53077e-06 -2.16138e-06  3.82566e-08     -89.6722      34.8493     -49.2057     0.870946
          -0            0           -0            0  1.65609e-11  -6.7529e-12  9.52714e-12 -1.61222e-13           -0            0           -0            0     -13.2599      5.40689     -7.62816     0.129087 -1.08234e-06  4.41334e-07 -6.22645e-07  1.05366e-08     -89.4613      36.4788     -51.4652     0.870913
-2.71558e-11  1.10938e-11 -1.49329e-11   2.6815e-13  1.61734e-11 -6.60724e-12   8.8937e-12 -1.59705e-13           -0            0           -0            0     -13.0664      5.33796     -7.18518     0.129025 -6.30183e-06  2.57445e-06 -3.46535e-06  6.22274e-08     -88.2044      36.0337     -48.5033     0.870975
          -0            0           -0            0  1.62697e-11 -6.13409e-12  8.99913e-12 -1.59916e-13           -0            0           -0            0     -13.1277      4.94948     -7.26123     0.129033 -5.47221e-06  2.06316e-06 -3.02681e-06  5.37868e-08     -88.6111      33.4087     -49.0129     0.870967
 -7.3767e-11  2.88927e-11 -3.98351e-11  7.27185e-13  1.61527e-11 -6.32659e-12  8.72266e-12 -1.59231e-13            0           -0            0           -0     -13.0865      5.12567     -7.06691     0.129005 -8.09172e-06  3.16932e-06 -4.36963e-06   7.9767e-08     -88.3553      34.6065      -47.713     0.870995
          -0            0           -0            0  1.63555e-11 -6.02511e-12   9.7917e-12 -1.61287e-13           -0            0           -0            0     -13.0904      4.82231     -7.83697     0.129089 -1.84618e-07  6.80104e-08 -1.10527e-07  1.82058e-09     -88.3154      32.5341     -52.8727     0.870911
          -0            0           -0            0  1.63806e-11 -6.38834e-12  1.01926e-11 -1.61601e-13            0           -0            0           -0     -13.0863       5.1036     -8.14279     0.129102           -0            0           -0            0      -88.278      34.4279     -54.9296     0.870898
          -0            0           -0            0  1.63197e-11 -6.76871e-12  9.74231e-12 -1.61197e-13            0           -0            0           -0     -13.0687      5.42036     -7.80161     0.129086  -1.3112e-06   5.4383e-07 -7.82743e-07  1.29513e-08     -88.1721      36.5701     -52.6359     0.870914
          -0            0           -0            0   1.6293e-11 -6.09886e-12  1.01988e-11   -1.615e-13           -0            0           -0            0     -13.0241      4.87524     -8.15263     0.129098           -0            0           -0            0     -87.8614      32.8886     -54.9981     0.870902
          -0            0           -0            0  1.62986e-11 -6.65328e-12  9.97429e-12 -1.61446e-13            0           -0            0           -0     -13.0327      5.32012     -7.97568     0.129096           -0            0           -0            0     -87.9214      35.8905     -53.8054     0.870904
          -0            0           -0            0  1.61493e-11   -5.997e-12  9.21144e-12 -1.60098e-13            0           -0            0           -0     -13.0165      4.83364      -7.4245     0.129041 -4.41702e-06  1.64025e-06 -2.51944e-06  4.37888e-08     -87.8546      32.6246     -50.1116     0.870959
          -0            0           -0            0  1.60825e-11 -6.74687e-12  9.28742e-12 -1.60373e-13            0           -0            0           -0     -12.9415       5.4292     -7.47358     0.129052 -3.68493e-06  1.54589e-06   -2.128e-06  3.67458e-08     -87.3401      36.6407     -50.4378     0.870948
-5.21065e-11  1.97275e-11 -2.82244e-11  5.21154e-13  1.57578e-11 -5.96591e-12   8.5355e-12 -1.57605e-13           -0            0           -0            0     -12.8917       4.8808     -6.98302     0.128939 -1.31549e-05  4.98047e-06 -7.12562e-06  1.31572e-07     -87.0912      32.9728     -47.1746     0.871061
          -0            0           -0            0  1.56717e-11 -6.48951e-12  8.52528e-12 -1.57835e-13            0           -0            0           -0     -12.8035      5.30183     -6.96501     0.128948 -1.21147e-05  5.01662e-06 -6.59035e-06  1.22012e-07     -86.4881      35.8141      -47.049     0.871052
          -0            0           -0            0   1.5743e-11 -5.86848e-12  8.87577e-12 -1.58453e-13           -0            0           -0            0     -12.8141      4.77668     -7.22448     0.128974 -1.02845e-05  3.83373e-06 -5.79831e-06  1.03513e-07     -86.5404      32.2594     -48.7907     0.871026
-1.05478e-11  4.44796e-12 -5.97169e-12  1.06596e-13  1.57211e-11 -6.62953e-12   8.9006e-12 -1.58877e-13            0           -0            0           -0     -12.7638      5.38245      -7.2263     0.128991 -8.76239e-06  3.69507e-06 -4.96089e-06  8.85528e-08     -86.1871      36.3449     -48.7955     0.871009
 3.96033e-10 -1.53018e-10  2.06766e-10 -4.00392e-12  1.53072e-11 -5.91432e-12  7.99175e-12 -1.54756e-13            0           -0            0           -0      -12.742      4.92321     -6.65251     0.128823 -1.96945e-05  7.60946e-06 -1.02823e-05  1.99112e-07     -86.1693      33.2937     -44.9883     0.871177
-4.13346e-12  1.55675e-12 -2.45594e-12  4.18504e-14  1.57804e-11 -5.94324e-12   9.3761e-12 -1.59773e-13            0           -0            0           -0     -12.7437      4.79957     -7.57184     0.129027 -4.86369e-06  1.83177e-06 -2.88982e-06  4.92438e-08      -86.024      32.3985     -51.1121     0.870972
-1.02624e-12  4.35365e-13 -6.11829e-13  1.04047e-14  1.57836e-11 -6.69593e-12  9.40996e-12 -1.60025e-13            0           -0            0           -0     -12.7272      5.39933     -7.58781     0.129038  -4.4804e-06  1.90074e-06 -2.67115e-06  4.54254e-08     -85.9047      36.4437     -51.2152     0.870962
 1.86003e-10 -7.55435e-11  9.86367e-11 -1.88639e-12  1.53709e-11 -6.24274e-12   8.1511e-12 -1.55887e-13            0           -0            0           -0     -12.7068      5.16075     -6.73836     0.128869 -1.74265e-05   7.0776e-06 -9.24118e-06  1.76734e-07     -85.8957      34.8858     -45.5502     0.871131
          -0            0           -0            0  1.58513e-11 -6.12613e-12  1.00671e-11 -1.60885e-13           -0            0           -0            0     -12.7169      4.91479     -8.07646     0.129073           -0            0           -0            0     -85.8083      33.1628     -54.4964     0.870927
          -0            0           -0            0   1.5118e-11 -5.56593e-12  8.14596e-12 -1.54385e-13           -0            0           -0            0     -12.6133      4.64379     -6.79638     0.128808 -2.09096e-05  7.69821e-06 -1.12666e-05   2.1353e-07     -85.3103      31.4084     -45.9674     0.871192
          -0            0           -0            0  1.56752e-11 -6.12201e-12  9.80634e-12 -1.60403e-13           -0            0           -0            0     -12.6115      4.92549     -7.88972     0.129053 -1.74318e-06  6.80807e-07 -1.09053e-06  1.78379e-08     -85.1118      33.2408     -53.2457     0.870947
 6.59019e-10 -2.45551e-10   3.3624e-10 -6.75972e-12  1.47247e-11 -5.48644e-12  7.51273e-12 -1.51035e-13            0           -0            0           -0     -12.5444      4.67405      -6.4003     0.128671 -2.67572e-05  9.96974e-06 -1.36518e-05  2.74455e-07     -84.9477      31.6516     -43.3414     0.871329
 -3.3769e-12  1.39295e-12 -2.05928e-12  3.46289e-14  1.55886e-11  -6.4302e-12  9.50617e-12 -1.59855e-13            0           -0            0           -0     -12.5827      5.19028     -7.67311     0.129031  -4.2533e-06  1.75445e-06 -2.59372e-06   4.3616e-08     -84.9343      35.0348     -51.7942     0.870969
 4.75345e-11 -2.01349e-11  2.61901e-11 -4.88803e-13  1.52136e-11 -6.44425e-12  8.38222e-12 -1.56443e-13            0           -0            0           -0     -12.5343      5.30934     -6.90601     0.128892 -1.58788e-05    6.726e-06 -8.74871e-06  1.63283e-07     -84.7125      35.8829      -46.674     0.871108
 6.17844e-10 -2.45004e-10  3.13821e-10 -6.36146e-12  1.47218e-11 -5.83786e-12  7.47761e-12 -1.51579e-13           -0            0           -0            0     -12.4991      4.95645     -6.34864     0.128693 -2.60978e-05   1.0349e-05 -1.32558e-05  2.68708e-07     -84.6239      33.5573      -42.983     0.871307
 1.19961e-10 -5.04062e-11  6.41599e-11 -1.23891e-12  1.49762e-11 -6.29285e-12   8.0099e-12 -1.54669e-13           -0            0           -0            0     -12.4732      5.24112      -6.6712     0.128819 -2.00576e-05  8.42798e-06 -1.07276e-05  2.07147e-07     -84.3543      35.4448     -45.1162     0.871181
-1.69329e-11  7.26513e-12 -1.01007e-11   1.7588e-13    1.526e-11 -6.54737e-12  9.10283e-12 -1.58504e-13           -0            0           -0            0     -12.4171      5.32763     -7.40703     0.128976 -9.54939e-06  4.09721e-06 -5.69637e-06  9.91886e-08     -83.8579      35.9796     -50.0226     0.871024
-1.32058e-11  5.00584e-12 -7.72314e-12  1.36799e-13   1.5158e-11 -5.74587e-12  8.86487e-12 -1.57023e-13            0           -0            0           -0     -12.4447      4.71735     -7.27803     0.128915 -1.40394e-05  5.32185e-06 -8.21068e-06  1.45435e-07     -84.0893      31.8753     -49.1779     0.871085
          -0            0           -0            0  1.51492e-11 -6.51555e-12   8.7203e-12 -1.57329e-13           -0            0           -0            0     -12.4145      5.33935      -7.1461     0.128928 -1.34214e-05  5.77243e-06 -7.72573e-06  1.39385e-07     -83.8756      36.0742     -48.2811     0.871072
 4.75685e-11 -1.71282e-11  2.32647e-11 -4.96487e-13  1.38857e-11 -4.99987e-12  6.79118e-12 -1.44929e-13            0           -0            0           -0     -12.3041      4.43038     -6.01766     0.128421 -2.83468e-05  1.02069e-05 -1.38638e-05  2.95864e-07     -83.5062      30.0684      -40.841     0.871578
          -0            0           -0            0  1.42779e-11  -5.1349e-12  7.37828e-12 -1.48643e-13           -0            0           -0            0       -12.35      4.44157     -6.38204     0.128573 -2.81609e-05  1.01278e-05 -1.45525e-05  2.93176e-07     -83.7045      30.1035     -43.2554     0.871427
          -0            0           -0            0  1.45103e-11 -5.30276e-12  7.76924e-12  -1.5112e-13           -0            0           -0            0     -12.3552      4.51516      -6.6153     0.128674 -2.64994e-05  9.68412e-06 -1.41885e-05  2.75981e-07     -83.6638      30.5747     -44.7959     0.871325
-8.21159e-12  3.22633e-12 -5.08096e-12  8.55949e-14  1.52459e-11 -5.99012e-12  9.43348e-12 -1.58918e-13           -0            0           -0            0      -12.375      4.86212     -7.65707     0.128993 -7.55908e-06  2.96996e-06 -4.67722e-06  7.87934e-08     -83.5605      32.8309     -51.7035     0.871007
          -0            0           -0            0   1.4202e-11 -5.62903e-12  7.05345e-12 -1.48243e-13           -0            0           -0            0     -12.3161      4.88153     -6.11678     0.128557 -2.76722e-05   1.0968e-05 -1.37434e-05  2.88846e-07     -83.4864      33.0902     -41.4636     0.871443
          -0            0           -0            0  1.37831e-11 -5.26527e-12  6.58045e-12 -1.44437e-13            0           -0            0           -0     -12.2529       4.6807     -5.84987     0.128401 -2.87892e-05  1.09977e-05 -1.37448e-05   3.0169e-07     -83.1735       31.773     -39.7094     0.871598
  1.2432e-11 -5.23558e-12  6.64813e-12 -1.30312e-13  1.45844e-11 -6.14201e-12  7.79911e-12 -1.52873e-13            0           -0            0           -0     -12.2826      5.17266     -6.56823     0.128746 -2.30735e-05   9.7171e-06 -1.23387e-05  2.41855e-07     -83.1194      35.0046     -44.4488     0.871254
 3.64567e-11 -1.56246e-11  2.02757e-11 -3.82276e-13  1.47788e-11 -6.33392e-12  8.21938e-12 -1.54967e-13            0           -0            0           -0     -12.2863      5.26567     -6.83315     0.128831 -1.93621e-05  8.29822e-06 -1.07684e-05  2.03026e-07     -83.0812      35.6069     -46.2064     0.871169
          -0            0           -0            0  1.49177e-11  -5.9458e-12  9.06178e-12  -1.5719e-13            0           -0            0           -0      -12.235      4.87654     -7.43216     0.128922 -1.30708e-05  5.20967e-06 -7.93988e-06  1.37729e-07     -82.6674       32.949     -50.2163     0.871078
  1.0026e-08 -3.75231e-09  4.68985e-09 -1.06015e-10  1.33518e-11 -4.99701e-12  6.24555e-12 -1.41182e-13           -0            0           -0            0     -12.1305      4.53995     -5.67429     0.128268 -2.69542e-05  1.00878e-05 -1.26084e-05  2.85015e-07     -82.4408      30.8542     -38.5633     0.871731
 4.26598e-12 -1.83355e-12  2.46089e-12 -4.49508e-14  1.48034e-11  -6.3626e-12  8.53954e-12 -1.55984e-13            0           -0            0           -0     -12.2304      5.25675     -7.05532     0.128873 -1.68888e-05  7.25895e-06 -9.74257e-06  1.77958e-07     -82.6728      35.5334      -47.691     0.871127
-5.80979e-11  2.40901e-11 -3.00326e-11  6.14434e-13  1.41501e-11 -5.86727e-12   7.3146e-12 -1.49649e-13            0           -0            0           -0     -12.1611      5.04257     -6.28646     0.128614 -2.71304e-05  1.12495e-05 -1.40246e-05  2.86927e-07     -82.3939      34.1644     -42.5919     0.871385
 1.92408e-08 -6.66589e-09  8.97704e-09  -2.0397e-10  1.30536e-11 -4.52237e-12  6.09033e-12  -1.3838e-13           -0            0           -0            0      -12.089      4.18817     -5.64027     0.128154 -2.38913e-05  8.27705e-06 -1.11468e-05  2.53269e-07     -82.2427      28.4926     -38.3714     0.871846
          -0            0           -0            0  1.44045e-11 -5.44846e-12  8.28349e-12 -1.53003e-13           -0            0           -0            0     -12.1213      4.58485      -6.9705     0.128751 -2.26911e-05  8.58287e-06 -1.30488e-05  2.41023e-07     -82.0237      31.0253     -47.1688     0.871249
-3.16585e-11  1.32389e-11 -1.85924e-11  3.36434e-13  1.46276e-11 -6.11692e-12  8.59047e-12 -1.55447e-13           -0            0           -0            0     -12.1249      5.07035     -7.12069     0.128851 -1.78701e-05  7.47285e-06 -1.04947e-05  1.89905e-07     -81.9752      34.2802     -48.1423     0.871149
 2.15499e-09 -7.48086e-10  1.08937e-09 -2.29066e-11  1.34361e-11  -4.6642e-12  6.79205e-12 -1.42819e-13           -0            0           -0            0     -12.0734      4.19118     -6.10323     0.128335 -2.62132e-05  9.09967e-06  -1.3251e-05  2.78635e-07     -82.0038      28.4669     -41.4537     0.871664
          -0            0           -0            0  1.37866e-11 -5.60788e-12  6.98073e-12 -1.46913e-13            0           -0            0           -0      -12.059      4.90513     -6.10594     0.128502 -2.84815e-05  1.15852e-05 -1.44213e-05  3.03504e-07     -81.7834      33.2663     -41.4102     0.871497
          -0            0           -0            0  1.44909e-11 -5.74495e-12  8.72827e-12 -1.54946e-13            0           -0            0           -0     -12.0485      4.77665     -7.25715      0.12883 -1.86296e-05  7.38576e-06 -1.12212e-05    1.992e-07     -81.4737      32.3004     -49.0739     0.871169
-1.18813e-10   5.0651e-11 -6.69598e-11  1.27735e-12  1.41761e-11  -6.0434e-12  7.98927e-12 -1.52406e-13            0           -0            0           -0     -11.9736      5.10445     -6.74799     0.128727 -2.34076e-05  9.97888e-06 -1.31919e-05  2.51653e-07     -81.0417      34.5489      -45.673     0.871273
 8.39246e-09 -2.83967e-09  4.06806e-09 -8.98443e-11  1.29262e-11  -4.3737e-12  6.26568e-12 -1.38379e-13           -0            0           -0            0      -11.971      4.05051     -5.80269     0.128154 -2.20689e-05  7.46723e-06 -1.06974e-05  2.36255e-07     -81.4401      27.5561     -39.4763     0.871846
 2.74985e-08 -1.03938e-08  1.25411e-08 -2.94496e-10  1.28634e-11 -4.86208e-12  5.86654e-12 -1.37761e-13           -0            0           -0            0      -11.964      4.52214     -5.45637     0.128129 -2.18584e-05  8.26198e-06 -9.96883e-06  2.34093e-07     -81.4106      30.7714     -37.1285      0.87187
 -2.6438e-10  1.11984e-10 -1.42355e-10  2.83787e-12  1.39914e-11 -5.92638e-12  7.53362e-12 -1.50184e-13            0           -0            0           -0     -11.9839      5.07607     -6.45271     0.128636 -2.63565e-05  1.11639e-05 -1.41916e-05  2.82912e-07     -81.1774      34.3846     -43.7098     0.871364
 4.44523e-08 -1.51398e-08  1.97333e-08 -4.78827e-10  1.22676e-11 -4.17815e-12  5.44585e-12 -1.32143e-13            0           -0            0           -0     -11.8739      4.04406     -5.27107     0.127902   -1.136e-05  3.86902e-06 -5.04292e-06  1.22366e-07      -80.962      27.5744     -35.9407     0.872098
          -0            0           -0            0  1.37275e-11 -5.75269e-12  7.19751e-12 -1.47869e-13            0           -0            0           -0     -11.9332      5.00077     -6.25674     0.128542 -2.77828e-05  1.16427e-05 -1.45669e-05  2.99269e-07     -80.9023      33.9032     -42.4181     0.871458
 5.34823e-08 -1.93105e-08  2.34932e-08 -5.77747e-10  1.22956e-11 -4.43951e-12  5.40112e-12 -1.32825e-13           -0            0           -0            0     -11.8425      4.27588     -5.20206     0.127929 -1.32927e-05  4.79949e-06 -5.83908e-06  1.43595e-07      -80.728      29.1479     -35.4614     0.872071
-6.58402e-11  2.75462e-11 -3.81404e-11  7.11436e-13  1.41331e-11 -5.91303e-12  8.18716e-12 -1.52716e-13            0           -0            0           -0     -11.9142      4.98468     -6.90178     0.128739 -2.27127e-05  9.50254e-06 -1.31572e-05  2.45422e-07     -80.6312      33.7345     -46.7087      0.87126
          -0            0           -0            0  1.29567e-11 -4.44851e-12  6.59503e-12 -1.40048e-13            0           -0            0           -0     -11.8626      4.07288     -6.03814     0.128222 -2.23025e-05   7.6573e-06 -1.13521e-05  2.41067e-07     -80.6533      27.6913     -41.0531     0.871778
 1.93807e-11 -7.19181e-12  1.08397e-11 -2.09499e-13  1.37139e-11 -5.08895e-12  7.67022e-12 -1.48242e-13           -0            0           -0            0     -11.8928      4.41318     -6.65168     0.128557 -2.65944e-05  9.86864e-06 -1.48743e-05  2.87476e-07     -80.6172      29.9155     -45.0895     0.871443
          -0            0           -0            0  1.33355e-11 -5.48104e-12   6.7044e-12 -1.44294e-13           -0            0           -0            0     -11.8661      4.87712     -5.96568     0.128396 -2.82994e-05  1.16314e-05 -1.42275e-05  3.06209e-07     -80.5524       33.108     -40.4976     0.871604
 2.07036e-11 -7.93151e-12  1.19684e-11 -2.24051e-13   1.3951e-11 -5.34459e-12  8.06481e-12 -1.50975e-13           -0            0           -0            0     -11.8897      4.55492     -6.87322     0.128668  -2.4724e-05  9.47171e-06 -1.42925e-05  2.67559e-07     -80.5162      30.8455     -46.5449     0.871331
 3.59716e-08 -1.16171e-08  1.62461e-08 -3.91326e-10  1.19349e-11 -3.85439e-12  5.39023e-12 -1.29836e-13           -0            0           -0            0     -11.7486      3.79424     -5.30611      0.12781 -1.17414e-06  3.79189e-07 -5.30283e-07  1.27731e-08     -80.1738      25.8923     -36.2095      0.87219
-1.16076e-09  4.11846e-10 -6.13977e-10  1.26697e-11  1.29835e-11 -4.60662e-12  6.86752e-12 -1.41715e-13            0           -0            0           -0     -11.7536      4.17024     -6.21696      0.12829 -2.45647e-05  8.71572e-06 -1.29933e-05  2.68124e-07     -79.8635      28.3361     -42.2432      0.87171
          -0            0           -0            0  1.36358e-11 -5.68983e-12  7.56786e-12 -1.48947e-13            0           -0            0           -0     -11.7718      4.91202     -6.53333     0.128586 -2.65304e-05  1.10704e-05 -1.47243e-05  2.89797e-07     -79.7764      33.2884     -44.2758     0.871414
 4.71792e-08 -1.76179e-08  2.07619e-08 -5.18787e-10  1.19124e-11 -4.44837e-12  5.24222e-12  -1.3099e-13            0           -0            0           -0     -11.6275      4.34201     -5.11687     0.127858 -7.06361e-06  2.63772e-06 -3.10844e-06   7.7672e-08     -79.3139      29.6177     -34.9032     0.872142
 5.61732e-09 -1.87199e-09  2.78799e-09 -6.13867e-11   1.2426e-11   -4.141e-12  6.16728e-12 -1.35793e-13            0           -0            0           -0     -11.7174      3.90485     -5.81558     0.128049 -1.49316e-05    4.976e-06 -7.41087e-06  1.63174e-07     -79.7897      26.5901     -39.6013     0.871951
          -0            0           -0            0  1.14496e-11  -3.7211e-12  4.85696e-12 -1.25208e-13            0           -0            0           -0     -11.6714      3.79318     -4.95103     0.127633           -0            0           -0            0     -79.7737      25.9262     -33.8401     0.872367
          -0            0           -0            0  1.38839e-11 -5.48687e-12  8.31958e-12 -1.51982e-13            0           -0            0           -0     -11.7579      4.64669     -7.04563     0.128709 -2.36566e-05  9.34899e-06 -1.41756e-05  2.58959e-07     -79.5947      31.4555      -47.695      0.87129
          -0            0           -0            0  1.12862e-11 -3.85667e-12  4.64225e-12 -1.24075e-13            0           -0            0           -0     -11.6059      3.96591     -4.77374     0.127589           -0            0           -0            0     -79.3568      27.1175     -32.6411     0.872411
 2.77181e-08 -1.06453e-08  1.26932e-08 -3.03849e-10  1.22886e-11 -4.71951e-12  5.62745e-12  -1.3471e-13            0           -0            0           -0      -11.677      4.48462     -5.34736     0.128005 -1.83787e-05  7.05843e-06 -8.41633e-06   2.0147e-07     -79.5461      30.5501     -36.4273     0.871995
          -0            0           -0            0  1.36863e-11 -5.64303e-12  7.89707e-12 -1.50162e-13           -0            0           -0            0     -11.7243      4.83407     -6.76498     0.128635 -2.52528e-05  1.04121e-05  -1.4571e-05  2.77066e-07     -79.4193      32.7456     -45.8255     0.871365
 5.01438e-08 -1.80706e-08  2.13935e-08 -5.50594e-10  1.16764e-11 -4.20789e-12  4.98167e-12 -1.28211e-13            0           -0            0           -0     -11.6344      4.19274     -4.96374     0.127749           -0            0           -0            0     -79.4379      28.6274     -33.8916     0.872251
          -0            0           -0            0  1.32848e-11 -5.57227e-12  7.20643e-12 -1.46323e-13            0           -0            0           -0     -11.6646      4.89271     -6.32758     0.128478 -2.71959e-05  1.14073e-05 -1.47526e-05  2.99545e-07      -79.126      33.1892     -42.9225     0.871521
 8.62444e-12 -3.45532e-12  4.95772e-12 -9.52002e-14  1.34608e-11 -5.39295e-12  7.73785e-12 -1.48585e-13            0           -0            0           -0     -11.6476      4.66651     -6.69555     0.128571 -2.63944e-05  1.05747e-05 -1.51727e-05  2.91353e-07     -78.9451      31.6287     -45.3812     0.871429
-3.11931e-09  1.29743e-09 -1.59906e-09  3.43912e-11  1.29458e-11  -5.3846e-12  6.63643e-12  -1.4273e-13           -0            0           -0            0     -11.6398       4.8414     -5.96695     0.128332 -2.70861e-05  1.12661e-05 -1.38853e-05  2.98632e-07      -79.061      32.8843     -40.5293     0.871668
  2.4253e-08  -7.6856e-09  1.12776e-08 -2.67514e-10  1.16521e-11 -3.69248e-12  5.41821e-12 -1.28525e-13           -0            0           -0            0     -11.5827      3.67048     -5.38593     0.127759 -5.06116e-06  1.60385e-06 -2.35343e-06  5.58254e-08     -79.0778      25.0592      -36.771     0.872241
          -0            0           -0            0  1.29468e-11  -4.6823e-12  7.11369e-12 -1.42848e-13            0           -0            0           -0     -11.6315      4.20665     -6.39104     0.128336 -2.54162e-05  9.19199e-06 -1.39651e-05  2.80429e-07     -79.0017      28.5716      -43.408     0.871663
-1.61288e-07  5.00511e-08 -6.69966e-08  1.78871e-09  1.08043e-11 -3.35278e-12  4.48791e-12 -1.19821e-13            0           -0            0           -0     -11.4903      3.56568     -4.77289     0.127429 -8.23097e-05  2.55424e-05 -3.41901e-05  9.12827e-07     -78.6797      24.4159     -32.6823      0.87257
-1.01216e-07  3.04996e-08 -4.35898e-08  1.12847e-09  1.07705e-11 -3.24551e-12  4.63846e-12 -1.20083e-13            0           -0            0           -0     -11.4303      3.44433      -4.9226     0.127439 -7.19634e-05  2.16849e-05 -3.09919e-05  8.02334e-07     -78.2622       23.583     -33.7046     0.872561
-5.09751e-07  1.69452e-07 -2.02125e-07  5.68612e-09  1.05789e-11 -3.51665e-12  4.19471e-12 -1.18005e-13            0           -0            0           -0     -11.4179      3.79556      -4.5274     0.127364 -0.000282061  9.37631e-05 -0.000111842  3.14631e-06       -78.23      26.0053     -31.0195     0.872633
 2.11907e-09 -8.67924e-10  1.05009e-09 -2.37828e-11  1.22435e-11 -5.01467e-12  6.06716e-12 -1.37412e-13            0           -0            0           -0     -11.4151      4.67538     -5.65666     0.128115 -2.21377e-05  9.06712e-06 -1.09702e-05  2.48457e-07     -77.6856      31.8183     -38.4965     0.871885
 2.08329e-10 -8.57039e-11  1.14105e-10 -2.32727e-12  1.28872e-11 -5.30165e-12  7.05855e-12 -1.43965e-13            0           -0            0           -0     -11.4923      4.72779     -6.29453     0.128382 -2.63598e-05  1.08441e-05 -1.44377e-05  2.94469e-07     -78.0241      32.0982     -42.7351     0.871618
-1.73956e-09  6.16353e-10 -9.40283e-10  1.94364e-11  1.24319e-11 -4.40483e-12  6.71983e-12 -1.38904e-13           -0            0           -0            0     -11.4717       4.0646      -6.2008     0.128175 -1.99049e-05   7.0526e-06 -1.07592e-05    2.224e-07     -78.0283      27.6466     -42.1766     0.871824
          -0            0           -0            0   1.1287e-11  -3.5354e-12  5.35025e-12 -1.26441e-13            0           -0            0           -0     -11.3975         3.57      -5.4026     0.127679           -0            0           -0            0     -77.8696      24.3908     -36.9115     0.872321
          -0            0           -0            0  1.08892e-11 -3.90057e-12  4.54404e-12 -1.22364e-13            0           -0            0           -0     -11.3483      4.06505     -4.73566     0.127524 -9.29667e-07  3.33013e-07  -3.8795e-07  1.04469e-08     -77.6412      27.8116     -32.3997     0.872476
 1.51846e-08  -5.6533e-09   6.6944e-09 -1.70783e-10  1.12823e-11 -4.20044e-12  4.97398e-12 -1.26893e-13            0           -0            0           -0     -11.3538      4.22708     -5.00552     0.127697           -0            0           -0            0      -77.558      28.8752     -34.1928     0.872303
          -0            0           -0            0  1.19869e-11 -4.12332e-12  6.27626e-12   -1.349e-13            0           -0            0           -0     -11.3749      3.91281     -5.95583     0.128013 -1.03185e-05  3.54943e-06 -5.40271e-06  1.16124e-07     -77.4827       26.653     -40.5695     0.871987
          -0            0           -0            0  1.26896e-11 -5.07126e-12  7.12483e-12  -1.4309e-13            0           -0            0           -0      -11.382      4.54871     -6.39069     0.128346 -2.56657e-05   1.0257e-05 -1.44106e-05  2.89412e-07     -77.3002      30.8922     -43.4018     0.871653
          -0            0           -0            0  1.25705e-11 -5.19282e-12  6.75557e-12 -1.41594e-13           -0            0           -0            0      -11.389      4.70474     -6.12061     0.128285 -2.46748e-05  1.01931e-05 -1.32606e-05  2.77936e-07     -77.3898      31.9693     -41.5903     0.871715
          -0            0           -0            0  1.15712e-11 -3.79469e-12  5.83246e-12 -1.30499e-13            0           -0            0           -0     -11.3353      3.71735     -5.71357     0.127839           -0            0           -0            0     -77.3334       25.361       -38.98     0.872161
-4.85371e-07  1.69558e-07 -1.94375e-07   5.4794e-09  1.04498e-11 -3.65051e-12  4.18481e-12 -1.17969e-13            0           -0            0           -0     -11.2819      3.94119     -4.51803     0.127363 -0.000302378  0.000105632 -0.000121092  3.41357e-06     -77.2988      27.0034     -30.9556     0.872634
-2.02787e-06  6.55345e-07 -7.64329e-07  2.29014e-08  9.89009e-12 -3.19617e-12   3.7277e-12 -1.11692e-13           -0            0           -0            0      -11.258      3.63823     -4.24328      0.12714  -0.00202723  0.000655136 -0.000764086  2.28941e-05     -77.2878       24.977     -29.1307     0.872837
 1.09513e-08 -4.39803e-09  5.21966e-09 -1.23871e-10   1.1768e-11 -4.72601e-12  5.60892e-12 -1.33109e-13            0           -0            0           -0     -11.3111      4.54254     -5.39117     0.127941 -1.42033e-05  5.70402e-06 -6.76964e-06  1.60654e-07     -77.0977      30.9624     -36.7467     0.872059
  9.4364e-09 -3.71043e-09  4.34633e-09 -1.07554e-10  1.13149e-11 -4.44906e-12  5.21155e-12 -1.28965e-13           -0            0           -0            0     -11.2106      4.40807     -5.16353     0.127777 -4.64682e-07  1.82715e-07 -2.14029e-07  5.29636e-09     -76.5254      30.0901      -35.247     0.872223
-2.42752e-06  7.09728e-07 -9.50753e-07  2.74681e-08  9.74041e-12 -2.84779e-12   3.8149e-12 -1.10216e-13            0           -0            0           -0     -11.2315      3.28373     -4.39889     0.127088  -0.00247497  0.000723602 -0.000969338  2.80051e-05     -77.1417      22.5538     -30.2131     0.872884
          -0            0           -0            0  1.05595e-11 -3.14052e-12  4.77673e-12 -1.19641e-13            0           -0            0           -0     -11.2462      3.34475     -5.08736     0.127422           -0            0           -0            0     -77.0135      22.9047     -34.8381     0.872578
 1.60559e-09 -6.53331e-10    8.551e-10 -1.82533e-11  1.22372e-11 -4.97945e-12  6.51726e-12  -1.3912e-13            0           -0            0           -0     -11.2753      4.58804     -6.00497     0.128184 -2.19081e-05  8.91464e-06 -1.16678e-05  2.49064e-07     -76.6864      31.2045     -40.8414     0.871816
          -0            0           -0            0   1.0871e-11 -4.08676e-12  4.71079e-12 -1.23804e-13           -0            0           -0            0     -11.2026      4.21141     -4.85448      0.12758 -2.46333e-06  9.26044e-07 -1.06745e-06  2.80534e-08     -76.6059      28.7986      -33.196      0.87242
-2.56783e-06  7.19761e-07 -1.06188e-06   2.9429e-08  9.56767e-12 -2.68181e-12  3.95655e-12 -1.09652e-13            0           -0            0           -0     -11.0871      3.10771     -4.58489     0.127066  -0.00264099   0.00074027  -0.00109214  3.02676e-05     -76.1651      21.3491     -31.4968     0.872904
-4.49186e-06  1.28266e-06 -1.69241e-06  5.14554e-08  9.10876e-12 -2.60102e-12  3.43194e-12 -1.04343e-13            0           -0            0           -0     -11.0769      3.16303     -4.17349     0.126889  -0.00633505   0.00180899  -0.00238688  7.25696e-05      -76.213      21.7628      -28.715     0.873039
 4.56012e-09 -1.84506e-09  2.34943e-09 -5.20832e-11  1.19386e-11 -4.83046e-12  6.15092e-12 -1.36357e-13            0           -0            0           -0     -11.2133      4.53698     -5.77722     0.128072 -1.82741e-05  7.39385e-06 -9.41504e-06  2.08717e-07     -76.3413      30.8882     -39.3319     0.871928
  1.2129e-10 -4.79693e-11  6.72351e-11 -1.38702e-12  1.22008e-11 -4.82534e-12  6.76334e-12 -1.39523e-13           -0            0           -0            0     -11.2107      4.43375     -6.21447     0.128201 -2.10143e-05  8.31098e-06 -1.16489e-05   2.4031e-07     -76.2359      30.1507     -42.2601     0.871799
-2.31776e-06   7.8258e-07 -8.81726e-07  2.65856e-08  9.64967e-12 -3.25817e-12  3.67095e-12 -1.10685e-13            0           -0            0           -0     -11.0812      3.74153     -4.21555     0.127106  -0.00258628  0.000873244 -0.000983876  2.96656e-05     -76.0972      25.6939      -28.949     0.872864
-2.46196e-10  9.26196e-11 -1.34514e-10  2.82575e-12  1.18993e-11 -4.47653e-12   6.5014e-12 -1.36576e-13            0           -0            0           -0     -11.1592      4.19811     -6.09704     0.128081 -1.47883e-05  5.56337e-06 -8.07985e-06  1.69734e-07     -75.9668      28.5789     -41.5059     0.871919
-2.18693e-07  6.55517e-08 -1.02327e-07  2.51393e-09  1.03566e-11 -3.10431e-12  4.84588e-12 -1.19051e-13            0           -0            0           -0     -11.0829      3.32201     -5.18571       0.1274 -0.000119147  3.57135e-05 -5.57493e-05  1.36962e-06     -75.9095      22.7534     -35.5183     0.872598
-1.84877e-08  5.97479e-09 -9.28922e-09  2.13574e-10  1.08537e-11 -3.50767e-12   5.4535e-12 -1.25385e-13            0           -0            0           -0     -11.0488      3.57071     -5.55151     0.127638           -0            0           -0            0     -75.5146      24.4045     -37.9426     0.872362
          -0            0           -0            0  1.16147e-11 -4.21298e-12  6.22381e-12 -1.33803e-13           -0            0           -0            0     -11.1082      4.02928     -5.95242     0.127969 -8.80466e-06   3.1937e-06 -4.71803e-06  1.01431e-07     -75.6961      27.4572     -40.5623     0.872031
-5.11166e-06  1.58989e-06 -1.83282e-06  5.90565e-08  8.87288e-12 -2.75975e-12  3.18142e-12 -1.02511e-13            0           -0            0           -0     -10.9778      3.41445     -3.93615     0.126829  -0.00767169   0.00238615  -0.00275073  8.86332e-05       -75.57      23.5047     -27.0961     0.873082
 2.98646e-08 -1.18046e-08  1.50083e-08 -3.45702e-10  1.13727e-11 -4.49527e-12   5.7153e-12 -1.31646e-13            0           -0            0           -0     -11.0476      4.36677     -5.55192     0.127883 -1.13581e-05  4.48952e-06 -5.70798e-06  1.31478e-07     -75.3406      29.7799     -37.8622     0.872117
-1.50418e-06  5.38979e-07 -6.08987e-07  1.75504e-08  9.70954e-12 -3.47912e-12  3.93102e-12 -1.13288e-13            0           -0            0           -0     -10.9015      3.90622     -4.41361     0.127195  -0.00144941  0.000519352 -0.000586811  1.69113e-05     -74.8038      26.8037     -30.2852     0.872788
-4.86783e-07  1.81032e-07 -2.03455e-07   5.6524e-09  1.01186e-11 -3.76303e-12  4.22913e-12 -1.17494e-13            0           -0            0           -0     -10.9669      4.07854     -4.58372     0.127345 -0.000415433  0.000154497 -0.000173633   4.8239e-06     -75.1524      27.9487     -31.4105      0.87265
          -0            0           -0            0  1.02734e-11 -3.91464e-12   4.5122e-12 -1.20137e-13            0           -0            0           -0      -10.898      4.15264     -4.78654     0.127441 -7.11425e-05  2.71087e-05 -3.12468e-05  8.31943e-07     -74.6156      28.4321     -32.7723     0.872558
          -0            0           -0            0  1.16282e-11 -4.57835e-12  6.35667e-12 -1.35447e-13           -0            0           -0            0      -10.992      4.32784     -6.00885     0.128036 -1.38521e-05  5.45395e-06 -7.57237e-06  1.61351e-07     -74.8586      29.4739     -40.9221     0.871964
-7.85946e-06  2.14994e-06 -2.83772e-06  9.16641e-08  8.21023e-12 -2.24589e-12  2.96437e-12 -9.57551e-14            0           -0            0           -0     -10.8558      2.96958     -3.91957      0.12661   -0.0149875   0.00409979  -0.00541134  0.000174797     -74.8712      20.4809     -27.0328     0.873215
-3.73993e-07  1.16038e-07 -1.82687e-07  4.37022e-09    1.025e-11 -3.18022e-12  5.00687e-12 -1.19774e-13            0           -0            0           -0      -10.905      3.38345     -5.32682     0.127428 -0.000177566  5.50928e-05 -8.67368e-05  2.07491e-06     -74.6725      23.1684     -36.4758      0.87257
-4.51422e-06  1.50002e-06 -1.66016e-06   5.2805e-08  8.89062e-12 -2.95425e-12  3.26963e-12 -1.03998e-13           -0            0           -0            0     -10.8467      3.60422       -3.989     0.126879  -0.00644604   0.00214194  -0.00237061  7.54025e-05     -74.6353      24.8004     -27.4481     0.873046
 3.03574e-08 -1.17868e-08  1.56885e-08 -3.55184e-10  1.11881e-11   -4.344e-12  5.78197e-12 -1.30902e-13           -0            0           -0            0     -10.9276      4.24283      -5.6473     0.127853  -9.2134e-06  3.57728e-06 -4.76144e-06  1.07798e-07     -74.5419      28.9423     -38.5228     0.872147
-8.53896e-06   2.5573e-06 -2.89234e-06  1.00087e-07  8.00827e-12 -2.39837e-12  2.71258e-12 -9.38664e-14            0           -0            0           -0     -10.7971      3.23357     -3.65721     0.126554   -0.0170721   0.00511286  -0.00578271  0.000200105     -74.5015      22.3122     -25.2353     0.873246
-7.56447e-06  1.98469e-06 -2.89256e-06  8.88321e-08  8.22089e-12 -2.15691e-12  3.14358e-12 -9.65408e-14            0           -0            0           -0      -10.783      2.82914     -4.12331     0.126629   -0.0141611   0.00371543  -0.00541503  0.000166298     -74.3574      19.5091     -28.4334     0.873205
-7.20702e-06  2.31236e-06 -2.54425e-06   8.5416e-08  8.17765e-12 -2.62378e-12   2.8869e-12 -9.69196e-14           -0            0           -0            0      -10.686      3.42857      -3.7724     0.126648   -0.0131289   0.00421238   -0.0046348  0.000155601     -73.6765      23.6389     -26.0095     0.873197
  5.9625e-08 -2.33948e-08  2.94271e-08 -7.01874e-10  1.07879e-11 -4.23279e-12  5.32421e-12 -1.26989e-13            0           -0            0           -0     -10.8483       4.2565     -5.35404       0.1277 -6.41392e-07   2.5166e-07 -3.16551e-07  7.55014e-09     -74.1028      29.0754     -36.5725       0.8723
          -0            0           -0            0  1.03307e-11 -3.98883e-12  4.79173e-12  -1.2205e-13            0           -0            0           -0     -10.7931      4.16737      -5.0062     0.127513           -0            0           -0            0     -73.8501      28.5147     -34.2542     0.872487
-1.09796e-05  2.94211e-06  -3.7316e-06   1.2965e-07   7.4552e-12 -1.99771e-12  2.53377e-12 -8.80328e-14            0           -0            0           -0     -10.7023      2.86781     -3.63736     0.126376   -0.0254751   0.00682636  -0.00865815  0.000300817     -73.9588      19.8181     -25.1361     0.873323
          -0            0           -0            0  1.11058e-11 -4.19794e-12  6.00662e-12 -1.31183e-13            0           -0            0           -0     -10.8248      4.09174     -5.85466     0.127864 -4.77713e-06  1.80574e-06 -2.58374e-06  5.64281e-08     -73.8339      27.9089     -39.9334     0.872136
-1.07764e-05  2.74428e-06 -3.82078e-06  1.27421e-07  7.50762e-12 -1.91186e-12  2.66182e-12 -8.87702e-14            0           -0            0           -0      -10.689      2.72203     -3.78979     0.126387    -0.024396   0.00621258  -0.00864957  0.000288459     -73.8602      18.8089      -26.187     0.873324
-4.15454e-06   1.1387e-06 -1.83447e-06  4.94013e-08  8.83786e-12 -2.42233e-12  3.90243e-12  -1.0509e-13           -0            0           -0            0     -10.6725      2.92517     -4.71252     0.126906  -0.00569867   0.00156192  -0.00251629  6.77625e-05     -73.4196      20.1232      -32.419     0.873027
-1.15163e-05  3.29914e-06  -3.7626e-06  1.36831e-07  7.27702e-12 -2.08469e-12  2.37755e-12  -8.6462e-14            0           -0            0           -0     -10.6328      3.04605     -3.47396     0.126334    -0.027696   0.00793426  -0.00904887  0.000329071     -73.5038      21.0571     -24.0152     0.873337
 -2.0308e-06  5.95952e-07  -9.6262e-07  2.41501e-08  9.42045e-12 -2.76449e-12  4.46538e-12 -1.12027e-13            0           -0            0           -0      -10.692      3.13764     -5.06812     0.127148  -0.00209595  0.000615069   -0.0009935  2.49248e-05     -73.3967      21.5387     -34.7907     0.872827
-9.97218e-06  2.49984e-06 -3.74533e-06  1.18597e-07  7.62301e-12 -1.91095e-12  2.86304e-12 -9.06592e-14            0           -0            0           -0     -10.6318      2.66518     -3.99305     0.126442   -0.0219268   0.00549664  -0.00823523  0.000260772     -73.4306      18.4077     -27.5789     0.873297
-6.61619e-08  2.55277e-08 -3.19069e-08  7.90562e-10  1.02381e-11 -3.95025e-12  4.93739e-12 -1.22335e-13           -0            0           -0            0     -10.6724      4.11781     -5.14681     0.127523 -1.06667e-05  4.11562e-06 -5.14408e-06  1.27456e-07     -73.0173      28.1728     -35.2129     0.872476
          -0            0           -0            0  1.07327e-11 -3.98577e-12  5.72201e-12 -1.27986e-13           -0            0           -0            0     -10.7119      3.97805     -5.71094     0.127739           -0            0           -0            0     -73.1459       27.164      -38.997     0.872261
-1.31317e-06   4.8851e-07 -5.65159e-07  1.56819e-08  9.53581e-12  -3.5474e-12  4.10401e-12 -1.13877e-13            0           -0            0           -0     -10.6527      3.96289     -4.58468     0.127215  -0.00116617  0.000433826 -0.000501895  1.39265e-05     -73.0838      27.1878     -31.4537     0.872771
-3.09309e-06  1.11371e-06  -1.2391e-06  3.69496e-08  9.03836e-12  -3.2544e-12  3.62078e-12 -1.07971e-13           -0            0           -0            0     -10.6321      3.82826     -4.25926      0.12701  -0.00378305   0.00136214   -0.0015155  4.51918e-05     -73.0751      26.3118      -29.274     0.872945
-1.51485e-05  3.83814e-06 -4.83408e-06  1.82087e-07  6.45309e-12   -1.635e-12  2.05926e-12  -7.7567e-14            0           -0            0           -0     -10.4894      2.65768      -3.3473     0.126084   -0.0446708    0.0113181    -0.014255  0.000536949     -72.6596      18.4096     -23.1866     0.873379
-2.07441e-07  7.73462e-08 -1.02974e-07  2.49432e-09  1.01229e-11  -3.7744e-12    5.025e-12  -1.2172e-13           -0            0           -0            0     -10.6037      3.95367     -5.26367     0.127501 -5.17413e-05  1.92922e-05 -2.56844e-05  6.22149e-07     -72.5617      27.0553     -36.0197     0.872499
 -1.1968e-05  3.63026e-06 -3.86979e-06  1.43963e-07  7.07184e-12 -2.14511e-12  2.28664e-12  -8.5067e-14            0           -0            0           -0      -10.499      3.18466     -3.39478     0.126292   -0.0294487   0.00893271  -0.00952209  0.000354238     -72.6041      22.0231     -23.4762     0.873354
-1.44841e-05  4.08118e-06 -4.45934e-06  1.74353e-07  6.52847e-12 -1.83952e-12  2.00997e-12 -7.85868e-14           -0            0           -0            0     -10.4777      2.95229     -3.22585     0.126126    -0.041408    0.0116675   -0.0127486  0.000498451     -72.5543      20.4436     -22.3379     0.873376
-6.32306e-07   2.3802e-07  -2.9626e-07  7.63448e-09   9.7342e-12 -3.66427e-12  4.56085e-12 -1.17531e-13            0           -0            0           -0     -10.5471      3.97026     -4.94171     0.127346  -0.00037191  0.000139999 -0.000174254  4.49045e-06      -72.275      27.2066     -33.8636      0.87265
 -3.2651e-06   9.4545e-07 -1.53561e-06  3.94238e-08  8.92486e-12 -2.58431e-12  4.19747e-12 -1.07762e-13            0           -0            0           -0      -10.518      3.04561     -4.94673     0.126997  -0.00399349   0.00115637  -0.00187819  4.82188e-05     -72.2984      20.9349     -34.0028     0.872954
-5.72973e-06  1.97884e-06 -2.18941e-06    6.933e-08   8.3078e-12 -2.86922e-12  3.17452e-12 -1.00525e-13            0           -0            0           -0     -10.4762      3.61812     -4.00311     0.126763  -0.00956312   0.00330276  -0.00365419  0.000115714     -72.1585       24.921     -27.5727     0.873121
-6.27653e-07  2.19275e-07 -3.18351e-07  7.65458e-09  9.65817e-12 -3.37415e-12  4.89871e-12 -1.17787e-13            0           -0            0           -0     -10.4427      3.64822     -5.29661     0.127354 -0.000220473  7.70239e-05 -0.000111826  2.68879e-06     -71.5542       24.998     -36.2929     0.872643
-8.30961e-06  2.10892e-06 -3.51096e-06  1.00824e-07  7.80242e-12  -1.9802e-12  3.29666e-12   -9.467e-14            0           -0            0           -0     -10.4302      2.64711     -4.40695     0.126554   -0.0170519   0.00432764  -0.00720472  0.000206897     -71.9698      18.2654     -30.4085     0.873239
-8.13963e-07  2.94328e-07 -3.93565e-07  9.88374e-09  9.61684e-12 -3.47743e-12   4.6499e-12 -1.16775e-13            0           -0            0           -0     -10.4851      3.79139     -5.06972     0.127318 -0.000494833  0.000178931  -0.00023926  6.00863e-06     -71.8682      25.9874     -34.7495     0.872676
-2.85105e-06  1.03762e-06  -1.2132e-06  3.46629e-08  8.93701e-12 -3.25255e-12  3.80293e-12 -1.08656e-13            0           -0            0           -0     -10.4485      3.80265      -4.4461     0.127032  -0.00340467    0.0012391  -0.00144877  4.13938e-05     -71.7989      26.1306     -30.5523     0.872926
-1.45866e-05  3.38031e-06 -5.19452e-06  1.77229e-07  6.55558e-12 -1.51919e-12  2.33454e-12 -7.96512e-14            0           -0            0           -0     -10.3795      2.40536     -3.69631     0.126113   -0.0428359   0.00992683   -0.0152545  0.000520462     -71.8812      16.6578      -25.598     0.873367
-6.80201e-06  1.78716e-06 -3.00872e-06  8.28167e-08  8.07787e-12 -2.12238e-12  3.57307e-12 -9.83507e-14            0           -0            0           -0     -10.4041      2.73358     -4.60205     0.126674   -0.0128209   0.00336857  -0.00567106  0.000156099     -71.7163      18.8427     -31.7222      0.87317
-7.98499e-06  2.69567e-06 -2.95258e-06   9.7823e-08  7.71407e-12 -2.60421e-12   2.8524e-12  -9.4504e-14            0           -0            0           -0     -10.3316      3.48787     -3.82027     0.126571   -0.0159207    0.0053747  -0.00588693  0.000195042     -71.2794      24.0634     -26.3567     0.873234
-1.73982e-05  3.95899e-06 -5.69464e-06  2.12379e-07   5.8938e-12 -1.34114e-12  1.92911e-12 -7.19453e-14            0           -0            0           -0     -10.3156      2.34733     -3.37643     0.125922   -0.0570011    0.0129707   -0.0186571  0.000695809      -71.548      16.2808     -23.4185     0.873382
-1.46206e-06  5.45194e-07  -6.7452e-07  1.78643e-08  9.30956e-12 -3.47148e-12  4.29495e-12 -1.13749e-13            0           -0            0           -0     -10.4112      3.88227     -4.80319      0.12721  -0.00129483  0.000482835 -0.000597369   1.5821e-05     -71.4303      26.6359     -32.9543     0.872774
-1.93616e-05  4.49812e-06 -5.85314e-06  2.37339e-07  5.31261e-12 -1.23423e-12  1.60604e-12 -6.51231e-14            0           -0            0           -0     -10.2621       2.3841     -3.10229     0.125795   -0.0694306    0.0161302   -0.0209893  0.000851095     -71.2465      16.5521     -21.5383     0.873354
-5.05293e-06  1.43442e-06 -2.34632e-06  6.19984e-08  8.37276e-12 -2.37686e-12  3.88788e-12 -1.02732e-13           -0            0           -0            0     -10.3362      2.93423     -4.79959     0.126823  -0.00811531   0.00230377  -0.00376833  9.95732e-05     -71.1566      20.1999     -33.0415     0.873077
-1.72849e-05  4.98477e-06 -5.04942e-06  2.12495e-07  5.72133e-12 -1.64997e-12  1.67137e-12 -7.03365e-14            0           -0            0           -0      -10.243      2.95397     -2.99228     0.125925   -0.0579181     0.016703   -0.0169196   0.00071203     -71.0414      20.4876     -20.7533     0.873363
-5.61832e-06  1.97105e-06 -2.26382e-06  6.92154e-08  8.17214e-12 -2.86699e-12  3.29285e-12 -1.00677e-13            0           -0            0           -0     -10.2895      3.60983     -4.14603     0.126763  -0.00930262   0.00326359  -0.00374836  0.000114605     -70.8726      24.8639     -28.5571     0.873122
 -1.2404e-05  2.91628e-06 -4.99924e-06  1.52953e-07  6.92875e-12 -1.62901e-12  2.79253e-12  -8.5438e-14            0           -0            0           -0     -10.2381      2.40707     -4.12632     0.126246   -0.0328755   0.00772931     -0.01325  0.000405386     -70.8258      16.6517     -28.5452     0.873349
-1.36344e-05  4.25681e-06 -4.53298e-06  1.69505e-07  6.43574e-12 -2.00931e-12  2.13967e-12 -8.00101e-14            0           -0            0           -0     -10.1475      3.16815      -3.3737     0.126155    -0.038939    0.0121572   -0.0129459  0.000484096     -70.2502      21.9329     -23.3558     0.873361
-3.14745e-06  1.12339e-06 -1.41347e-06  3.89066e-08  8.72214e-12 -3.11311e-12  3.91696e-12 -1.07817e-13            0           -0            0           -0     -10.2741      3.66703     -4.61391     0.127001  -0.00395019    0.0014099  -0.00177396  4.88296e-05     -70.6195      25.2055      -31.714      0.87295
-2.07616e-05  5.63705e-06 -5.71963e-06  2.58567e-07  4.78726e-12  -1.2998e-12  1.31884e-12  -5.9621e-14           -0            0           -0            0     -10.0919       2.7401     -2.78023     0.125686   -0.0795606    0.0216017   -0.0219182  0.000990855     -70.1234      19.0394     -19.3183     0.873323
 -1.7115e-05  3.73065e-06 -6.07488e-06  2.11696e-07  5.97247e-12 -1.30185e-12   2.1199e-12 -7.38736e-14            0           -0            0           -0     -10.1808      2.21916     -3.61363     0.125927   -0.0561277    0.0122345   -0.0199223  0.000694245     -70.6101      15.3913     -25.0627     0.873379
-1.05816e-05  3.46418e-06 -3.75135e-06  1.30932e-07  7.11351e-12  -2.3288e-12  2.52185e-12 -8.80195e-14            0           -0            0           -0     -10.2131      3.34354     -3.62071     0.126373   -0.0255114   0.00835183  -0.00904419  0.000315667     -70.5788      23.1059     -25.0213     0.873312
-1.68749e-06  5.95794e-07 -8.36459e-07  2.08949e-08  9.14585e-12 -3.22907e-12  4.53342e-12 -1.13246e-13            0           -0            0           -0      -10.272      3.62669     -5.09165     0.127191  -0.00162453  0.000573563 -0.000805248  2.01153e-05     -70.4873      24.8865     -34.9392     0.872789
-2.50871e-06  8.82455e-07 -1.18153e-06  3.10754e-08  8.87661e-12  -3.1224e-12  4.18063e-12 -1.09954e-13            0           -0            0           -0     -10.2587      3.60856     -4.83155     0.127074  -0.00274776  0.000966541  -0.00129412  3.40364e-05     -70.4685      24.7877     -33.1887     0.872892
-1.00567e-05  2.56878e-06 -4.38164e-06  1.25534e-07  7.25789e-12 -1.85388e-12  3.16222e-12 -9.05976e-14            0           -0            0           -0     -10.1265       2.5866     -4.41205     0.126405    -0.023887   0.00610144   -0.0104074  0.000298172     -69.9609      17.8701     -30.4816     0.873297
 -4.6442e-06  1.64601e-06 -2.03511e-06  5.80239e-08  8.26961e-12 -2.93093e-12  3.62378e-12 -1.03319e-13            0           -0            0           -0     -10.1527      3.59835     -4.44897     0.126847  -0.00706658   0.00250455  -0.00309661  8.82887e-05     -69.8797      24.7669     -30.6216     0.873065
-2.98182e-06  9.98903e-07 -1.47847e-06   3.7441e-08    8.623e-12 -2.88869e-12  4.27553e-12 -1.08274e-13           -0            0           -0            0     -10.1154      3.38862     -5.01548     0.127013  -0.00359139   0.00120311  -0.00178072  4.50951e-05     -69.5215      23.2896     -34.4707     0.872942
-3.77088e-06  1.28101e-06 -1.75898e-06  4.70773e-08  8.49321e-12 -2.88524e-12  3.96177e-12 -1.06033e-13            0           -0            0           -0     -10.1675      3.45404     -4.74279     0.126936  -0.00531145   0.00180436   -0.0024776  6.63105e-05     -69.9268       23.755     -32.6183     0.872998
-2.12336e-05  4.47877e-06 -6.70201e-06  2.65383e-07  4.86252e-12 -1.02564e-12  1.53477e-12 -6.07732e-14            0           -0            0           -0     -10.0535      2.12058     -3.17323     0.125652   -0.0838238    0.0176808   -0.0264575   0.00104765     -69.8736      14.7383     -22.0544       0.8733
 -7.2805e-06  2.50068e-06 -2.93363e-06   9.1122e-08  7.68164e-12 -2.63846e-12  3.09527e-12 -9.61426e-14            0           -0            0           -0     -10.1162      3.47467     -4.07625     0.126613   -0.0138522   0.00475791  -0.00558166  0.000173373     -69.7683      23.9638     -28.1127     0.873213
-2.36594e-05  5.41825e-06 -6.53934e-06  2.97216e-07  3.90572e-12  -8.9445e-13  1.07952e-12 -4.90647e-14            0           -0            0           -0     -9.98962      2.28773     -2.76107     0.125492    -0.102789    0.0235397   -0.0284102   0.00129126      -69.511      15.9187     -19.2124     0.873216
-1.63562e-05  3.57609e-06 -6.30105e-06  2.05643e-07  6.07996e-12 -1.32931e-12  2.34224e-12 -7.64421e-14            0           -0            0           -0     -10.0184      2.19041     -3.85949      0.12596   -0.0529931    0.0115863    -0.020415  0.000666271     -69.4654      15.1878     -26.7608     0.873374
 -2.4162e-05  6.12951e-06 -6.18576e-06  3.04153e-07  3.53011e-12 -8.95533e-13  9.03749e-13 -4.44373e-14           -0            0           -0            0     -9.96641      2.52832     -2.55151     0.125458    -0.107153    0.0271829   -0.0274323   0.00134884     -69.3667      17.5972     -17.7587     0.873193
-1.30936e-05  3.12022e-06 -5.55426e-06  1.65436e-07  6.64079e-12  -1.5825e-12  2.81699e-12 -8.39053e-14            0           -0            0           -0     -9.98648      2.37978     -4.23621     0.126178   -0.0369216   0.00879845    -0.015662  0.000466499     -69.1228       16.472     -29.3215     0.873356
 -2.4122e-05  4.96787e-06 -7.05952e-06  3.04861e-07  3.99869e-12 -8.23522e-13  1.17025e-12 -5.05367e-14            0           -0            0           -0     -9.92647      2.04433     -2.90507     0.125454    -0.107856    0.0222127    -0.031565   0.00136312     -69.0901       14.229     -20.2198     0.873183
-1.18554e-05  3.88372e-06 -4.33495e-06  1.50212e-07  6.68231e-12 -2.18906e-12   2.4434e-12 -8.46671e-14            0           -0            0           -0     -9.96513      3.26448     -3.64376     0.126261    -0.031047    0.0101707   -0.0113524  0.000393376     -68.9283      22.5803     -25.2038     0.873345
-1.96238e-05  5.62992e-06 -5.81949e-06  2.48895e-07  4.93168e-12 -1.41486e-12   1.4625e-12   -6.255e-14            0           -0            0           -0     -9.91349       2.8441     -2.93987     0.125736   -0.0734875     0.021083   -0.0217929  0.000932064     -68.8568      19.7545     -20.4196     0.873332
 -5.6197e-06  1.87745e-06 -2.58564e-06  7.13179e-08  7.94297e-12 -2.65362e-12  3.65459e-12 -1.00802e-13            0           -0            0           -0     -9.98808      3.33686     -4.59555     0.126756  -0.00976348   0.00326182  -0.00449221  0.000123905     -68.8001       22.985     -31.6552      0.87312
-2.11509e-05  4.20506e-06 -7.40087e-06  2.69444e-07  5.07156e-12 -1.00829e-12  1.77458e-12 -6.46074e-14           -0            0           -0            0     -9.86182      1.96066     -3.45074     0.125631    -0.084317    0.0167633   -0.0295032   0.00107413      -68.552       13.629     -23.9869     0.873294
-7.01221e-06  2.40183e-06 -3.03574e-06  8.93331e-08  7.60811e-12 -2.60594e-12  3.29372e-12 -9.69247e-14           -0            0           -0            0     -9.93958      3.40451     -4.30306     0.126627   -0.0132567   0.00454071  -0.00573913  0.000168886     -68.5422      23.4772     -29.6734     0.873204
-5.46586e-06  1.75052e-06 -2.62799e-06  6.96648e-08  7.93762e-12 -2.54213e-12  3.81641e-12 -1.01168e-13           -0            0           -0            0     -9.94601      3.18535     -4.78205     0.126766  -0.00930594   0.00298036   -0.0044743  0.000118608     -68.5042      21.9394     -32.9368     0.873115
-1.68222e-05  5.21375e-06 -5.44811e-06   2.1476e-07  5.58983e-12 -1.73247e-12  1.81034e-12 -7.13623e-14            0           -0            0           -0     -9.86271      3.05677     -3.19418     0.125912   -0.0565069    0.0175133   -0.0183006  0.000721393     -68.4111      21.2028     -22.1559     0.873367
-2.62343e-05  5.70269e-06 -6.99775e-06  3.35379e-07  2.90695e-12 -6.31901e-13  7.75404e-13 -3.71625e-14            0           -0            0           -0     -9.80143      2.13059     -2.61444     0.125301    -0.127484    0.0277119   -0.0340052   0.00162975     -68.2938      14.8454     -18.2168     0.873068
-2.56426e-05  6.65649e-06  -6.3568e-06  3.28033e-07  2.85433e-12 -7.40945e-13  7.07586e-13 -3.65139e-14            0           -0            0           -0     -9.79784      2.54339     -2.42888     0.125338    -0.121198    0.0314614    -0.030045   0.00155042      -68.252      17.7173     -16.9196     0.873111
-7.67718e-06  2.47208e-06 -3.43456e-06  9.83038e-08  7.45816e-12 -2.40155e-12  3.33658e-12 -9.54993e-14            0           -0            0           -0     -9.88501        3.183     -4.42228     0.126574   -0.0158533    0.0051048  -0.00709232  0.000202996     -68.1956      21.9592     -30.5088     0.873223
-2.76873e-05  6.67744e-06 -6.46285e-06  3.55151e-07  1.77398e-12 -4.27836e-13  4.14087e-13 -2.27552e-14           -0            0           -0            0     -9.76072      2.35403     -2.27838     0.125203     -0.14255    0.0343792   -0.0332744   0.00182852      -68.056      16.4133     -15.8858     0.872968
-7.50324e-06  2.32357e-06 -3.55531e-06  9.68376e-08  7.42514e-12 -2.29938e-12   3.5183e-12 -9.58296e-14           -0            0           -0            0     -9.80795      3.03728     -4.64736     0.126583   -0.0151888   0.00470361  -0.00719701  0.000196029     -67.6595      20.9525     -32.0595     0.873221
-1.51568e-05  3.50514e-06 -6.40857e-06  1.94755e-07  6.19055e-12 -1.43162e-12  2.61748e-12 -7.95446e-14            0           -0            0           -0     -9.80739      2.26804     -4.14675     0.126019   -0.0478733    0.0110711   -0.0202417  0.000615142     -67.9695      15.7186     -28.7388     0.873366
-2.66492e-05  5.17262e-06 -7.62905e-06  3.43219e-07  3.34949e-12 -6.50137e-13   9.5888e-13 -4.31385e-14            0           -0            0           -0     -9.72597      1.88782     -2.78432     0.125262    -0.133253    0.0258645   -0.0381473   0.00171619     -67.7857      13.1572     -19.4055     0.873021
-2.54839e-05  4.79915e-06 -7.88957e-06   3.2868e-07  3.95371e-12 -7.44565e-13  1.22403e-12 -5.09931e-14            0           -0            0           -0     -9.71772      1.83005     -3.00851     0.125335    -0.122895    0.0231437   -0.0380471   0.00158504     -67.6936      12.7481     -20.9573      0.87308
-1.25977e-05  3.26123e-06  -5.5785e-06  1.62562e-07  6.56119e-12 -1.69852e-12  2.90541e-12 -8.46663e-14            0           -0            0           -0     -9.77924      2.53159     -4.33042     0.126192   -0.0348281   0.00901608   -0.0154225  0.000449425     -67.6807      17.5208     -29.9702     0.873358
-2.15921e-05  6.22385e-06  -6.2912e-06  2.79076e-07  4.32657e-12 -1.24712e-12  1.26062e-12 -5.59206e-14           -0            0           -0            0     -9.71636      2.80071     -2.83102     0.125583    -0.089271    0.0257321   -0.0260106   0.00115382     -67.5642      19.4752     -19.6859     0.873263
-1.58721e-05  4.97905e-06 -5.56163e-06  2.05648e-07  5.72183e-12 -1.79492e-12  2.00494e-12  -7.4135e-14            0           -0            0           -0     -9.72182      3.04971     -3.40655     0.125961   -0.0520571    0.0163302   -0.0182409  0.000674479     -67.4073      21.1455     -23.6197     0.873364
-1.94582e-05  5.84744e-06 -6.12661e-06  2.52435e-07  4.89329e-12  -1.4705e-12   1.5407e-12 -6.34816e-14            0           -0            0           -0     -9.69065      2.91217      -3.0512     0.125719   -0.0745538    0.0224044    -0.023474  0.000967201     -67.3168      20.2296     -21.1954     0.873314
 -1.2809e-05  4.12298e-06 -5.13643e-06  1.68056e-07  6.29631e-12 -2.02666e-12  2.52482e-12 -8.26084e-14            0           -0            0           -0     -9.61579      3.09514     -3.85594      0.12616   -0.0360644    0.0116084   -0.0144618  0.000473169     -66.5669      21.4266     -26.6934     0.873366
 -1.0322e-05   3.2289e-06 -4.49582e-06  1.34266e-07  6.85192e-12  -2.1434e-12   2.9844e-12 -8.91282e-14           -0            0           -0            0     -9.71389      3.03867     -4.23094     0.126356   -0.0256813   0.00803356   -0.0111856  0.000334056     -67.1376      21.0018     -29.2422      0.87331
-2.58717e-05  6.90945e-06 -6.67142e-06  3.37701e-07   2.7805e-12 -7.42577e-13  7.16995e-13 -3.62936e-14            0           -0            0           -0     -9.59861      2.56347     -2.47516      0.12529    -0.125975    0.0336436   -0.0324846   0.00164434     -66.8866      17.8632     -17.2478     0.873065
-3.06217e-05  6.78164e-06 -6.67195e-06  3.99773e-07  1.58395e-13 -3.50789e-14  3.45115e-14 -2.06788e-15           -0            0           -0            0     -9.57314      2.12011     -2.08582     0.124979    -0.177243    0.0392531   -0.0386182   0.00231394     -66.8474      14.8044     -14.5649     0.872706
-2.00833e-05  4.16297e-06  -7.8757e-06  2.62769e-07  5.30805e-12 -1.10028e-12  2.08156e-12 -6.94504e-14            0           -0            0           -0     -9.60453      1.99088     -3.76644     0.125666   -0.0795812     0.016496    -0.031208   0.00104124     -66.7452      13.8353     -26.1743     0.873293
-9.94681e-06  2.98566e-06 -4.62485e-06  1.30196e-07  6.87182e-12 -2.06266e-12  3.19511e-12 -8.99466e-14           -0            0           -0            0     -9.65524      2.89814     -4.48928     0.126379   -0.0239956   0.00720258    -0.011157  0.000314083     -66.7196      20.0267     -31.0218     0.873306
-2.91027e-05  5.16067e-06 -8.18879e-06  3.82107e-07  2.68905e-12  -4.7684e-13  7.56635e-13 -3.53063e-14            0           -0            0           -0     -9.52554      1.68913     -2.68026     0.125067    -0.162852    0.0288781   -0.0458227   0.00213819     -66.4752      11.7878     -18.7045     0.872795
-2.71092e-05  4.73158e-06 -8.57163e-06  3.56106e-07  3.73972e-12 -6.52723e-13  1.18246e-12  -4.9125e-14            0           -0            0           -0     -9.53084      1.66349     -3.01355     0.125197     -0.14185    0.0247582   -0.0448514   0.00186334      -66.454      11.5987     -21.0121     0.872939
-3.07678e-05  5.85016e-06 -7.55785e-06   4.0435e-07  1.06773e-12 -2.03017e-13  2.62278e-13 -1.40321e-14            0           -0            0           -0     -9.50808      1.80786     -2.33558     0.124955    -0.181733    0.0345547   -0.0446413   0.00238834     -66.4021      12.6256     -16.3111     0.872656
-3.09862e-05  6.44658e-06 -7.10598e-06  4.08027e-07  1.13196e-13 -2.35501e-14   2.5959e-14 -1.49057e-15           -0            0           -0            0     -9.48792      1.97393     -2.17584     0.124937    -0.183567    0.0381905   -0.0420969   0.00241721       -66.27      13.7873     -15.1975     0.872645
-1.80852e-05  5.61767e-06  -6.2499e-06  2.38526e-07  5.18712e-12 -1.61124e-12  1.79257e-12 -6.84131e-14            0           -0            0           -0     -9.53751      2.96257     -3.29598     0.125791   -0.0667199    0.0207247   -0.0230571  0.000879971     -66.2163      20.5683     -22.8831     0.873329
-3.15373e-05  7.31822e-06 -6.51883e-06  4.17761e-07           -0            0           -0            0            0           -0            0           -0     -9.42796      2.18776     -1.94878     0.124888    -0.191278     0.044386   -0.0395376   0.00253377      -65.872      15.2856     -13.6159     0.872578
-1.76013e-05  4.08373e-06 -7.49764e-06  2.32556e-07  5.67396e-12 -1.31643e-12  2.41694e-12 -7.49668e-14            0           -0            0           -0     -9.52292      2.20944     -4.05648     0.125821   -0.0638489    0.0148138   -0.0271978  0.000843601     -66.0994      15.3359     -28.1564     0.873335
-2.45441e-05  6.93119e-06 -6.85213e-06  3.24441e-07  3.34702e-12 -9.45192e-13   9.3441e-13 -4.42433e-14            0           -0            0           -0     -9.48322      2.67804     -2.64749     0.125356    -0.116084    0.0327818   -0.0324079   0.00153448      -66.051      18.6527     -18.4399     0.873109
-1.63237e-05  5.02181e-06 -6.22054e-06  2.16697e-07  5.60414e-12 -1.72405e-12  2.13559e-12 -7.43946e-14            0           -0            0           -0     -9.48429      2.91773     -3.61421     0.125903    -0.056038    0.0172394   -0.0213546  0.000743901     -65.7895      20.2394     -25.0706     0.873352
 -1.5731e-05  4.12614e-06 -7.05414e-06  2.10527e-07  5.83688e-12 -1.53098e-12   2.6174e-12  -7.8115e-14            0           -0            0           -0     -9.41014      2.46822     -4.21973     0.125936   -0.0530122    0.0139048   -0.0237719  0.000709462     -65.2585      17.1169     -29.2635     0.873354
 -2.0589e-05  6.19953e-06 -6.68822e-06  2.72957e-07  4.60601e-12 -1.38691e-12  1.49623e-12 -6.10638e-14            0           -0            0           -0     -9.47507      2.85302     -3.07791     0.125615   -0.0845961    0.0254726   -0.0274805   0.00112152     -65.8698      19.8339     -21.3974     0.873263
-1.37803e-05   3.9643e-06 -6.13891e-06  1.83801e-07  6.12589e-12 -1.76229e-12  2.72899e-12 -8.17067e-14           -0            0           -0            0     -9.45267      2.71933     -4.21101     0.126079   -0.0422199    0.0121457   -0.0188083  0.000563125     -65.4793       18.837       -29.17     0.873358
-1.41207e-05  4.20166e-06 -5.95913e-06  1.87658e-07  6.06834e-12 -1.80565e-12  2.56092e-12 -8.06457e-14            0           -0            0           -0      -9.4855      2.82244     -4.00301     0.126058   -0.0439398    0.0130744   -0.0185432  0.000583941     -65.7175      19.5544     -27.7336     0.873358
-2.23121e-05   4.4029e-06 -8.63974e-06  2.96585e-07  4.91193e-12 -9.69282e-13  1.90201e-12 -6.52921e-14           -0            0           -0            0     -9.44099      1.86301     -3.65576     0.125495   -0.0989732    0.0195306   -0.0383246   0.00131561       -65.69      12.9628     -25.4366     0.873189
-1.97068e-05  4.35901e-06 -8.06937e-06  2.62131e-07  5.32334e-12 -1.17749e-12  2.17976e-12 -7.08087e-14            0           -0            0           -0     -9.44773      2.08977     -3.86857     0.125669    -0.078547    0.0173741   -0.0321627    0.0010448      -65.653       14.522      -26.883     0.873286
-2.32352e-05  6.79753e-06 -6.93267e-06  3.09239e-07  3.85947e-12  -1.1291e-12  1.15155e-12  -5.1366e-14            0           -0            0           -0     -9.42454      2.75718       -2.812     0.125432    -0.105044    0.0307309   -0.0313418   0.00139803     -65.6071      19.1936     -19.5752      0.87317
-2.97438e-05   4.8928e-06 -8.87092e-06  3.97179e-07  2.94578e-12 -4.84575e-13  8.78562e-13  -3.9336e-14            0           -0            0           -0      -9.3602      1.53973     -2.79163      0.12499    -0.174573    0.0287169   -0.0520653   0.00233113      -65.353      10.7504     -19.4911     0.872679
 -2.5578e-05  4.64237e-06 -9.33123e-06   3.4478e-07  4.34488e-12 -7.88591e-13  1.58508e-12 -5.85671e-14            0           -0            0           -0     -9.29208       1.6865     -3.38989     0.125253    -0.130741    0.0237293   -0.0476962   0.00176233     -64.7635      11.7545     -23.6267     0.872984
-1.89608e-05  5.76636e-06 -6.79929e-06  2.53977e-07  5.02742e-12 -1.52894e-12  1.80282e-12 -6.73416e-14            0           -0            0           -0     -9.38506      2.85419     -3.36546     0.125711   -0.0737208      0.02242   -0.0264361  0.000987479     -65.1967      19.8276     -23.3794     0.873301
-2.82204e-05  4.68273e-06 -9.25725e-06  3.78413e-07   3.6668e-12 -6.08449e-13  1.20284e-12 -4.91689e-14            0           -0            0           -0     -9.32828      1.54788     -3.05999     0.125085    -0.156619    0.0259885   -0.0513763   0.00210013     -65.0907      10.8008      -21.352     0.872815
-1.70012e-05  4.97279e-06 -6.79107e-06  2.28351e-07  5.50076e-12 -1.60895e-12  2.19725e-12 -7.38829e-14            0           -0            0           -0     -9.36931      2.74049     -3.74253     0.125843   -0.0608313    0.0177929   -0.0242988   0.00081705     -65.0222      19.0187     -25.9728      0.87334
-3.29407e-05  5.50683e-06 -8.11909e-06  4.42506e-07  1.09596e-12 -1.83217e-13  2.70128e-13 -1.47225e-14            0           -0            0           -0     -9.28722      1.55258     -2.28907     0.124759    -0.216471    0.0361883   -0.0533547   0.00290794     -64.9376      10.8559     -16.0055     0.872333
 -3.4012e-05   5.8289e-06 -7.74201e-06  4.59566e-07  4.82704e-13 -8.27248e-14  1.09876e-13 -6.52224e-15            0           -0            0           -0     -9.22675      1.58126     -2.10024     0.124671    -0.233159    0.0399582   -0.0530729   0.00315041     -64.5491      11.0623      -14.693     0.872179
-1.85812e-05  4.40188e-06 -8.39099e-06  2.51852e-07  5.42824e-12 -1.28595e-12  2.45132e-12 -7.35753e-14            0           -0            0           -0     -9.27555      2.19738     -4.18871     0.125722   -0.0721461    0.0170914   -0.0325801   0.00097788     -64.4304      15.2636     -29.0958       0.8733
-3.54556e-05  7.34828e-06 -6.34277e-06  4.83555e-07           -0            0           -0            0            0           -0            0           -0     -9.13205      1.89265     -1.63366     0.124546    -0.256476    0.0531554   -0.0458818    0.0034979     -63.9342      13.2506     -11.4374     0.871956
-2.64388e-05  7.54815e-06 -7.29214e-06   3.5869e-07  2.82576e-12 -8.06741e-13  7.79378e-13 -3.83365e-14            0           -0            0           -0     -9.22728      2.63435       -2.545     0.125185    -0.138178    0.0394491   -0.0381111   0.00187463     -64.3438      18.3699     -17.7468      0.87294
-3.10718e-05  7.68734e-06 -6.95348e-06  4.22042e-07  3.74211e-13  -9.2582e-14  8.37439e-14 -5.08284e-15           -0            0           -0            0     -9.19294      2.27439     -2.05727     0.124866    -0.191033    0.0472627   -0.0427509   0.00259477     -64.2385       15.893     -14.3758     0.872539
-1.78228e-05  4.87634e-06 -7.54386e-06  2.42186e-07  5.41162e-12 -1.48062e-12  2.29057e-12 -7.35359e-14            0           -0            0           -0      -9.2557      2.53237     -3.91766     0.125771   -0.0665276     0.018202   -0.0281591  0.000904012     -64.2693      17.5841     -27.2032     0.873324
-3.06148e-05  4.67036e-06 -9.55346e-06  4.16113e-07  3.09802e-12  -4.7261e-13  9.66749e-13  -4.2108e-14            0           -0            0           -0      -9.1888      1.40177      -2.8674     0.124893    -0.188882    0.0288144   -0.0589413   0.00256726     -64.1955      9.79318     -20.0324     0.872539
-3.31103e-05  5.02853e-06 -8.83916e-06  4.50074e-07  1.58424e-12 -2.40602e-13   4.2293e-13 -2.15348e-14            0           -0            0           -0     -9.17515      1.39345     -2.44941     0.124719    -0.222219    0.0337489    -0.059324   0.00302067      -64.169      9.74548     -17.1306      0.87226
-2.28273e-05  4.70626e-06 -9.18591e-06  3.10515e-07  4.83608e-12 -9.97044e-13  1.94608e-12 -6.57843e-14            0           -0            0           -0     -9.22051      1.90097     -3.71042     0.125425    -0.105839    0.0218207   -0.0425907   0.00143971     -64.1878      13.2335     -25.8298     0.873135
-3.56359e-05  6.53034e-06 -7.00311e-06  4.87801e-07           -0            0           -0            0            0           -0            0           -0     -9.09689      1.66702     -1.78771     0.124522    -0.261704    0.0479577   -0.0514296   0.00358233     -63.6956      11.6723     -12.5173     0.871895
-2.36571e-05  6.99784e-06 -7.52463e-06  3.22767e-07  3.95535e-12    -1.17e-12  1.25808e-12  -5.3965e-14            0           -0            0           -0     -9.18853      2.71799      -2.9226     0.125364    -0.112096    0.0331584   -0.0356545   0.00152939      -63.994      18.9296     -20.3546     0.873106
 -2.0136e-05   6.0573e-06 -7.48533e-06  2.75181e-07  4.80003e-12 -1.44394e-12  1.78435e-12 -6.55976e-14            0           -0            0           -0     -9.19087      2.76479     -3.41659     0.125603   -0.0833648    0.0250777   -0.0309899   0.00113927     -63.8995      19.2222     -23.7539     0.873257
-2.00347e-05  5.50833e-06 -8.03517e-06  2.75795e-07  4.98409e-12 -1.37033e-12  1.99894e-12 -6.86105e-14            0           -0            0           -0     -9.12403      2.50856     -3.65931       0.1256    -0.083634    0.0229943   -0.0335425    0.0011513     -63.4357       17.441     -25.4417     0.873248
-2.19031e-05  6.56031e-06 -7.58088e-06  2.99877e-07  4.42207e-12 -1.32448e-12  1.53052e-12 -6.05429e-14           -0            0           -0            0     -9.16501      2.74506      -3.1721     0.125479    -0.097581     0.029227   -0.0337738   0.00133599     -63.7775      19.1024      -22.074     0.873185
 -2.8679e-05  7.89748e-06 -7.33511e-06  3.93475e-07  1.90776e-12 -5.25348e-13  4.87939e-13 -2.61744e-14           -0            0           -0            0     -9.11155      2.50909     -2.33042      0.12501    -0.164322    0.0452502    -0.042028    0.0022545     -63.6105      17.5167     -16.2694     0.872735
-3.53262e-05  5.23916e-06  -8.3588e-06  4.85485e-07  5.95483e-13 -8.83148e-14  1.40902e-13 -8.18366e-15            0           -0            0           -0      -9.0616      1.34391     -2.14413     0.124533    -0.260061    0.0385692   -0.0615351     0.003574     -63.4432      9.40912     -15.0118     0.871893
-1.85489e-05  4.85392e-06 -8.27584e-06  2.55444e-07  5.32369e-12 -1.39311e-12  2.37523e-12 -7.33145e-14           -0            0           -0            0     -9.12791      2.38861     -4.07253     0.125704   -0.0727805    0.0190453   -0.0324719   0.00100229     -63.4138      16.5943     -28.2929     0.873294
-2.07977e-05  4.73146e-06 -9.29729e-06  2.87732e-07  5.05618e-12 -1.15027e-12  2.26028e-12 -6.99512e-14            0           -0            0           -0     -9.07419      2.06437     -4.05647      0.12554   -0.0895635    0.0203756   -0.0400379   0.00123909     -63.1177      14.3592     -28.2158     0.873221
-3.46644e-05  7.69617e-06 -6.73173e-06  4.82241e-07           -0            0           -0            0            0           -0            0           -0     -8.95301      1.98774     -1.73865     0.124552    -0.251267    0.0557863   -0.0487955   0.00349556     -62.6776      13.9156     -12.1718     0.871952
 -2.5679e-05  4.91596e-06 -9.93884e-06  3.55054e-07  4.36745e-12 -8.36101e-13  1.69039e-12 -6.03873e-14            0           -0            0           -0     -9.05507      1.73349     -3.50469     0.125201    -0.135433    0.0259271    -0.052418   0.00187258     -63.1335      12.0862     -24.4353     0.872926
-3.67507e-05  5.78306e-06 -7.47531e-06  5.08312e-07           -0            0           -0            0            0           -0            0           -0     -8.99478      1.41541     -1.82959      0.12441    -0.286448    0.0450751   -0.0582651   0.00396195     -63.0183       9.9165     -12.8183     0.871628
-3.52368e-05  4.73353e-06  -9.1364e-06  4.89026e-07   9.5736e-13 -1.28607e-13   2.4823e-13 -1.32865e-14            0           -0            0           -0     -8.97177      1.20522     -2.32625     0.124513    -0.262891    0.0353153   -0.0681637   0.00364846     -62.8204      8.43896     -16.2884     0.871838
-3.26328e-05  4.68585e-06 -9.91844e-06  4.53063e-07  2.74127e-12 -3.93627e-13  8.33183e-13 -3.80588e-14            0           -0            0           -0     -8.98195      1.28975     -2.72998     0.124702    -0.222315    0.0319228   -0.0675704   0.00308654     -62.8229      9.02093     -19.0944     0.872211
-2.14239e-05    6.266e-06 -8.05342e-06  2.97539e-07   4.6173e-12 -1.35045e-12  1.73568e-12 -6.41257e-14            0           -0            0           -0      -9.0358      2.64276     -3.39663     0.125491   -0.0952352    0.0278541   -0.0357996   0.00132264     -62.8728      18.3888     -23.6344     0.873187
 -2.9024e-05  4.81274e-06 -1.04407e-05  4.04982e-07  3.93235e-12  -6.5206e-13  1.41457e-12 -5.48695e-14            0           -0            0           -0     -8.95474      1.48487     -3.22126     0.124949      -0.1755    0.0291014   -0.0631321   0.00244882      -62.537      10.3699     -22.4962     0.872602
-2.10809e-05  5.31664e-06 -8.91624e-06  2.93867e-07  4.93174e-12 -1.24379e-12   2.0859e-12 -6.87482e-14            0           -0            0           -0     -9.00352       2.2707     -3.80807     0.125509    -0.092834    0.0234129   -0.0392645    0.0012941     -62.6399      15.7979     -26.4938     0.873197
-3.70349e-05  7.48828e-06 -6.00569e-06  5.16288e-07           -0            0           -0            0            0           -0            0           -0     -8.92127      1.80384      -1.4467     0.124368    -0.293632    0.0593709   -0.0476162   0.00409339     -62.5182      12.6409     -10.1381     0.871539
-2.03357e-05  5.08389e-06 -9.09076e-06  2.84284e-07  5.03239e-12 -1.25809e-12  2.24965e-12 -7.03505e-14            0           -0            0           -0     -8.98149      2.24536     -4.01504     0.125557   -0.0870448    0.0217611    -0.038912   0.00121685     -62.4645       15.616     -27.9238     0.873226
-2.33099e-05   4.8852e-06 -1.01209e-05   3.2684e-07  4.70916e-12 -9.86929e-13  2.04466e-12 -6.60296e-14           -0            0           -0            0     -8.93934      1.87347     -3.88134     0.125343    -0.113674    0.0238233   -0.0493557   0.00159388      -62.266      13.0495     -27.0351     0.873063
-3.86735e-05   6.7985e-06 -5.88762e-06  5.44438e-07           -0            0           -0            0            0           -0            0           -0     -8.82321      1.55105     -1.34324     0.124211    -0.329333    0.0578942   -0.0501374   0.00463629     -61.8812      10.8782     -9.42075     0.871152
-3.21099e-05  8.35637e-06 -7.31162e-06  4.53901e-07   6.0049e-13 -1.56273e-13  1.36735e-13 -8.48846e-15            0           -0            0           -0     -8.82156      2.29575     -2.00873     0.124701    -0.216233    0.0562733   -0.0492377   0.00305665     -61.7041      16.0581     -14.0504     0.872242
-2.73217e-05  7.77213e-06 -8.15509e-06  3.84021e-07  3.12889e-12 -8.90067e-13  9.33923e-13 -4.39782e-14            0           -0            0           -0     -8.89737      2.53101     -2.65573     0.125057    -0.153397    0.0436365   -0.0457867   0.00215608     -62.0956      17.6642     -18.5346     0.872786
-3.00282e-05  8.22132e-06 -7.63472e-06  4.22068e-07  1.68381e-12 -4.61005e-13  4.28112e-13 -2.36672e-14            0           -0            0           -0     -8.88347      2.43218     -2.25864     0.124864    -0.187243    0.0512646   -0.0476068   0.00263184     -62.0745      16.9952     -15.7826     0.872504
-2.46183e-05  7.06291e-06 -8.53398e-06  3.47208e-07  4.04035e-12 -1.15916e-12   1.4006e-12 -5.69838e-14            0           -0            0           -0     -8.88005      2.54766     -3.07829     0.125242    -0.126061    0.0361665   -0.0436992   0.00177792     -61.8973      17.7581     -21.4568      0.87298
-3.79262e-05  4.94894e-06 -8.05138e-06  5.35138e-07           -0            0           -0            0            0           -0            0           -0     -8.80636      1.14913     -1.86951     0.124257    -0.320228    0.0417861   -0.0679815   0.00451841     -61.7452      8.05705     -13.1079     0.871224
-2.20393e-05  5.16659e-06 -9.83352e-06  3.11973e-07  4.78683e-12 -1.12216e-12   2.1358e-12 -6.77591e-14           -0            0           -0            0     -8.86011      2.07704     -3.95322     0.125418    -0.102982    0.0241416   -0.0459485   0.00145774     -61.6817      14.4598     -27.5212     0.873124
-3.72467e-05  4.44705e-06 -9.03449e-06  5.27641e-07           -0            0           -0            0            0           -0            0           -0     -8.77445      1.04762     -2.12831       0.1243    -0.308543    0.0368383   -0.0748395   0.00437085      -61.508      7.34371     -14.9192     0.871329
-3.86319e-05  5.60835e-06 -6.99462e-06   5.4745e-07           -0            0           -0            0            0           -0            0           -0     -8.76359      1.27225     -1.58672     0.124188    -0.335941      0.04877   -0.0608249    0.0047606     -61.4674      8.92349     -11.1292     0.871051
 -2.4178e-05  6.26684e-06 -9.24066e-06  3.42812e-07  4.33414e-12 -1.12339e-12  1.65647e-12 -6.14522e-14            0           -0            0           -0     -8.83464       2.2899     -3.37653     0.125263    -0.122671    0.0317957   -0.0468838    0.0017393     -61.5713       15.959     -23.5321     0.872997
-3.16058e-05  4.71183e-06 -1.08471e-05  4.48488e-07  3.41204e-12  -5.0867e-13  1.17101e-12 -4.84169e-14            0           -0            0           -0     -8.78962      1.31036      -3.0166     0.124725    -0.214023    0.0319067   -0.0734526   0.00303699     -61.4683      9.16375     -21.0959     0.872238
-3.53875e-05  4.37999e-06 -1.01044e-05  5.03178e-07  1.78265e-12 -2.20643e-13  5.09012e-13 -2.53477e-14           -0            0           -0            0     -8.75119      1.08315     -2.49878     0.124434    -0.276126    0.0341768   -0.0788441   0.00392626     -61.3006      7.58732     -17.5036     0.871639
-3.36015e-05  4.51243e-06 -1.06485e-05   4.7806e-07  2.83827e-12 -3.81159e-13  8.99461e-13  -4.0381e-14            0           -0            0           -0      -8.7556      1.17581     -2.77469     0.124569    -0.245975    0.0330326   -0.0779507   0.00349957     -61.2856      8.23021     -19.4217     0.871931
-3.61291e-05  7.77841e-06 -6.59824e-06  5.14108e-07           -0            0           -0            0            0           -0            0           -0      -8.7407      1.88183     -1.59631     0.124378    -0.285712    0.0615125   -0.0521795   0.00406562     -61.2488      13.1866     -11.1858     0.871556
-2.67998e-05  7.58944e-06 -8.69371e-06  3.81959e-07  3.59813e-12 -1.01895e-12  1.16721e-12 -5.12815e-14            0           -0            0           -0     -8.77523      2.48506     -2.84663     0.125067    -0.150753    0.0426917   -0.0489034   0.00214858     -61.2382       17.342     -19.8653     0.872784
-2.69696e-05  5.09816e-06 -1.09874e-05  3.84951e-07  4.05544e-12 -7.66616e-13  1.65219e-12 -5.78855e-14            0           -0            0           -0     -8.76097      1.65612     -3.56923      0.12505    -0.155034    0.0293067   -0.0631611   0.00221289     -61.1436      11.5582       -24.91     0.872737
-2.45907e-05  5.02958e-06 -1.08042e-05  3.51281e-07  4.41693e-12 -9.03402e-13  1.94063e-12 -6.30964e-14            0           -0            0           -0     -8.76576      1.79288     -3.85133      0.12522    -0.128697    0.0263226   -0.0565443   0.00183845     -61.1084      12.4986     -26.8486     0.872941
-3.90949e-05   4.4976e-06 -7.86914e-06   5.5905e-07           -0            0           -0            0            0           -0            0           -0     -8.67957     0.998527     -1.74705     0.124117    -0.354213    0.0407498    -0.071297   0.00506518      -60.897      7.00579     -12.2575     0.870818
-2.39754e-05  5.44286e-06 -1.03576e-05  3.43389e-07  4.52619e-12 -1.02753e-12  1.95535e-12 -6.48265e-14            0           -0            0           -0     -8.74565      1.98542     -3.77819      0.12526    -0.122236    0.0277498    -0.052807   0.00175073     -60.9521      13.8372     -26.3318     0.872989
-3.91577e-05  6.03465e-06  -6.3779e-06  5.61011e-07           -0            0           -0            0            0           -0            0           -0     -8.66248      1.33499     -1.41092     0.124107    -0.354408    0.0546184    -0.057725    0.0050776     -60.7814      9.36713     -9.89992     0.870815
 -2.9384e-05  8.16039e-06 -8.39232e-06  4.21932e-07  2.65818e-12 -7.38216e-13  7.59198e-13 -3.81694e-14            0           -0            0           -0     -8.69572      2.41493     -2.48357     0.124864    -0.183975    0.0510926   -0.0525448   0.00264174     -60.7619      16.8745     -17.3541     0.872494
-2.61501e-05   6.3715e-06 -9.91358e-06  3.75921e-07  4.03338e-12 -9.82737e-13  1.52907e-12 -5.79819e-14            0           -0            0           -0     -8.70203      2.12026     -3.29897     0.125096    -0.146366    0.0356622   -0.0554877   0.00210408     -60.7143      14.7931      -23.017     0.872799
-3.36439e-05  8.43308e-06 -7.28376e-06   4.8374e-07           -0            0           -0            0            0           -0            0           -0     -8.66181      2.17115     -1.87525     0.124542    -0.246507    0.0617889   -0.0533679   0.00354435     -60.6411      15.2001     -13.1285     0.871913
-3.88215e-05  7.28391e-06 -5.66994e-06  5.61362e-07           -0            0           -0            0            0           -0            0           -0     -8.58263      1.61032     -1.25351     0.124106     -0.35134    0.0659205   -0.0513138   0.00508041     -60.2219      11.2992     -8.79549     0.870813
-2.73518e-05  7.64467e-06 -9.26503e-06  3.96798e-07  3.70463e-12 -1.03542e-12  1.25489e-12 -5.37437e-14            0           -0            0           -0     -8.61586      2.40808     -2.91849     0.124992    -0.160246    0.0447878    -0.054281   0.00232472     -60.1553       16.813     -20.3767     0.872683
-3.10658e-05  8.33311e-06 -8.13842e-06   4.4838e-07  1.85214e-12 -4.96819e-13  4.85211e-13 -2.67324e-14            0           -0            0           -0     -8.64168      2.31805     -2.26389     0.124728    -0.208129    0.0558286   -0.0545243   0.00300397     -60.4346       16.211     -15.8323     0.872268
-3.76565e-05   4.0066e-06 -9.67229e-06  5.44321e-07  3.70898e-12  -3.9463e-13  9.52672e-13 -5.36129e-14           -0            0           -0            0     -8.59236     0.914217       -2.207     0.124202    -0.328928    0.0349976   -0.0844871   0.00475463     -60.2593      6.41152      -15.478     0.871043
-3.05169e-05  5.03806e-06 -1.14846e-05  4.41988e-07  3.20689e-12 -5.29428e-13  1.20687e-12 -4.64467e-14            0           -0            0           -0      -8.6138      1.42206     -3.24168     0.124757    -0.204947    0.0338349   -0.0771289   0.00296833     -60.2258      9.94272     -22.6651     0.872274
-3.62898e-05  4.13167e-06 -1.04787e-05  5.26553e-07  1.60818e-12 -1.83095e-13  4.64361e-13 -2.33342e-14            0           -0            0           -0     -8.56698     0.975368     -2.47371     0.124304    -0.301856    0.0343669   -0.0871606   0.00437983     -60.0507       6.8369     -17.3396     0.871316
-2.64293e-05  5.12752e-06 -1.15122e-05  3.83544e-07  3.86733e-12 -7.50299e-13  1.68455e-12 -5.61231e-14            0           -0            0           -0     -8.61737      1.67185     -3.75359     0.125056     -0.15331    0.0297436   -0.0667794   0.00222485     -60.1374      11.6672     -26.1949     0.872719
-4.00422e-05  3.93191e-06 -7.90663e-06  5.84905e-07           -0            0           -0            0            0           -0            0           -0     -8.48623       0.8333     -1.67567      0.12396    -0.390172    0.0383127   -0.0770425   0.00569933     -59.5829       5.8507     -11.7651      0.87034
-2.62909e-05  6.00506e-06 -1.07174e-05  3.82649e-07  4.00097e-12 -9.13854e-13  1.63098e-12 -5.82318e-14            0           -0            0           -0     -8.59269      1.96264     -3.50278     0.125062    -0.150537    0.0343838   -0.0613657   0.00219098     -59.9644      13.6964     -24.4442     0.872747
-4.01579e-05  5.91187e-06 -5.79424e-06  5.85654e-07           -0            0           -0            0            0           -0            0           -0     -8.49941      1.25125     -1.22635     0.123954    -0.392456    0.0577757   -0.0566261   0.00572349     -59.6774      8.78545     -8.61065     0.870322
-2.90296e-05  8.05021e-06 -9.29176e-06  4.26701e-07   3.4735e-12 -9.63239e-13  1.11179e-12 -5.10564e-14            0           -0            0           -0     -8.49314      2.35524     -2.71847     0.124839    -0.184283    0.0511035    -0.058985   0.00270874     -59.3553      16.4598     -18.9984     0.872452
-3.40807e-05  8.54166e-06 -7.59543e-06  5.00287e-07           -0            0           -0            0            0           -0            0           -0     -8.47797      2.12484     -1.88945     0.124452    -0.261205    0.0654659   -0.0582137   0.00383435     -59.3831      14.8832     -13.2345     0.871713
-3.54737e-05  8.43448e-06 -7.04511e-06  5.21132e-07           -0            0           -0            0            0           -0            0           -0     -8.46356      2.01236     -1.68087     0.124335    -0.288866    0.0686829   -0.0573691   0.00424364      -59.318      14.1039     -11.7806      0.87142
-2.84324e-05  7.45469e-06 -9.85812e-06  4.18093e-07  3.76033e-12 -9.85922e-13  1.30379e-12  -5.5295e-14            0           -0            0           -0     -8.49261      2.22668     -2.94457     0.124882    -0.177287    0.0464829   -0.0614693   0.00260698      -59.335       15.557     -20.5727      0.87251
-3.49741e-05  4.29788e-06 -1.13916e-05  5.14779e-07   2.6479e-12 -3.25394e-13  8.62462e-13 -3.89741e-14           -0            0           -0            0     -8.44954      1.03834     -2.75214     0.124368    -0.283939    0.0348925   -0.0924833   0.00417926     -59.2065      7.27573     -19.2845     0.871453
-3.33205e-05  4.65383e-06 -1.17962e-05   4.9095e-07  2.93073e-12 -4.09331e-13  1.03754e-12 -4.31819e-14            0           -0            0           -0     -8.44961      1.18014     -2.99133     0.124498    -0.254395     0.035531    -0.090061   0.00374829     -59.1655      8.26356     -20.9458     0.871753
-3.22345e-05   8.5101e-06 -8.39183e-06  4.75519e-07  1.70674e-12 -4.50589e-13  4.44327e-13 -2.51776e-14            0           -0            0           -0     -8.44534      2.22962     -2.19863     0.124584    -0.232314    0.0613322   -0.0604798   0.00342706     -59.1104      15.6055     -15.3886     0.871988
-3.03609e-05    5.084e-06 -1.24973e-05  4.51361e-07  2.45264e-12   -4.107e-13  1.00957e-12 -3.64622e-14            0           -0            0           -0      -8.3885      1.40467     -3.45292     0.124708    -0.209287    0.0350456   -0.0861479   0.00311137     -58.6674      9.82399      -24.149      0.87218
-4.06157e-05  6.65946e-06   -4.677e-06  5.99646e-07           -0            0           -0            0            0           -0            0           -0     -8.38937      1.37554    -0.966058      0.12386    -0.416488    0.0682886   -0.0479597   0.00614899     -58.9269      9.66181     -6.78558     0.869991
-4.09693e-05  4.41023e-06 -6.57075e-06  6.05119e-07           -0            0           -0            0            0           -0            0           -0     -8.38384     0.902496     -1.34462      0.12383    -0.424367    0.0456819   -0.0680609   0.00626792     -58.8964      6.34003     -9.44593     0.869902
-2.84911e-05  6.64072e-06 -1.07328e-05  4.21067e-07  3.59956e-12 -8.38987e-13  1.35597e-12 -5.31975e-14           -0            0           -0            0     -8.44893      1.96928     -3.18276     0.124866    -0.180792    0.0421391   -0.0681052    0.0026719     -59.0343      13.7598     -22.2385     0.872462
  -3.836e-05  3.57413e-06 -1.02037e-05  5.69009e-07           -0            0           -0            0            0           -0            0           -0     -8.36318     0.779226     -2.22459     0.124054    -0.360618    0.0335999   -0.0959236   0.00534919     -58.6916      5.46849     -15.6118     0.870596
-3.95924e-05  3.25834e-06 -9.30819e-06  5.88721e-07  1.35071e-12  -1.1116e-13  3.17552e-13 -2.00845e-14            0           -0            0           -0     -8.33468     0.685919     -1.95948     0.123933    -0.393468    0.0323812   -0.0925043   0.00585068     -58.5234       4.8163     -13.7589     0.870216
-3.09962e-05  8.29237e-06    -9.14e-06  4.61057e-07  2.82945e-12 -7.56959e-13  8.34334e-13  -4.2087e-14            0           -0            0           -0     -8.38067      2.24207     -2.47125     0.124659    -0.216554    0.0579345   -0.0638564   0.00322116     -58.6313      15.6856     -17.2889     0.872119
-3.94792e-05  7.19326e-06 -5.51318e-06  5.88367e-07           -0            0           -0            0            0           -0            0           -0     -8.31612      1.51523     -1.16133     0.123937    -0.388517    0.0707894   -0.0542556   0.00579016     -58.3948      10.6398     -8.15471     0.870272
-2.88733e-05  5.68446e-06 -1.22227e-05  4.32327e-07  2.91336e-12 -5.73569e-13  1.23329e-12 -4.36223e-14            0           -0            0           -0     -8.33533      1.64102     -3.52852     0.124807    -0.189751    0.0373573   -0.0803256   0.00284118     -58.2608      11.4701     -24.6631     0.872352
-4.10344e-05  5.47141e-06 -5.38282e-06  6.12631e-07 -1.01572e-12  1.35434e-13 -1.33241e-13  1.51645e-14            0           -0            0           -0     -8.29063      1.10545     -1.08755     0.123777    -0.436325    0.0581784   -0.0572364    0.0065142     -58.2536      7.76738      -7.6416     0.869709
-4.10103e-05  3.65255e-06 -7.28356e-06  6.12363e-07  1.51801e-12   -1.352e-13  2.69603e-13 -2.26668e-14            0           -0            0           -0     -8.28973     0.738317     -1.47228     0.123782    -0.434791    0.0387242   -0.0772202   0.00649227      -58.246      5.18763     -10.3447     0.869725
-3.76275e-05  8.00274e-06 -6.47928e-06  5.62516e-07           -0            0           -0            0            0           -0            0           -0     -8.30104      1.76549      -1.4294     0.124097    -0.343088    0.0729691   -0.0590781   0.00512902     -58.2474      12.3882     -10.0299     0.870773
-3.68139e-05  3.98677e-06 -1.11364e-05  5.50393e-07 -7.74158e-13  8.38375e-14 -2.34187e-13  1.15742e-14            0           -0            0           -0     -8.30498     0.899388      -2.5123     0.124165    -0.329192    0.0356499   -0.0995823   0.00492165     -58.2524      6.30845     -17.6216     0.870913
-4.04746e-05  3.06386e-06 -8.61716e-06   6.0817e-07 -3.08371e-12  2.33432e-13 -6.56531e-13  4.63358e-14            0           -0            0           -0     -8.23956     0.623721     -1.75423     0.123807    -0.426113    0.0322561   -0.0907207   0.00640276     -57.8858      4.38185      -12.324     0.869789
 -4.1516e-05  6.06482e-06 -4.16416e-06  6.24451e-07 -4.64956e-12  6.79225e-13 -4.66361e-13   6.9935e-14            0           -0            0           -0     -8.22375      1.20136    -0.824861     0.123695    -0.458179    0.0669326   -0.0459565   0.00689157      -57.802      8.44394     -5.79768     0.869413
-3.11631e-05  6.75959e-06 -1.12956e-05  4.72461e-07  2.86433e-12 -6.21304e-13  1.03823e-12  -4.3426e-14           -0            0           -0            0      -8.2183      1.78264     -2.97888     0.124597    -0.226301    0.0490872   -0.0820272   0.00343094     -57.5143      12.4755     -20.8472     0.871971
-3.03229e-05  6.36567e-06 -1.16498e-05  4.57322e-07  2.77695e-12 -5.82964e-13  1.06688e-12 -4.18813e-14            0           -0            0           -0     -8.26674      1.73544     -3.17601     0.124677    -0.211886    0.0444813   -0.0814048   0.00319562     -57.8266      12.1395     -22.2164     0.872127
-3.10409e-05  7.40062e-06 -1.07818e-05  4.71829e-07  3.49166e-12 -8.32467e-13   1.2128e-12 -5.30741e-14            0           -0            0           -0     -8.19736      1.95438     -2.84729     0.124602    -0.223756    0.0533468   -0.0777198   0.00340114     -57.3673      13.6772     -19.9261     0.871997
-4.17054e-05   3.6923e-06 -6.20612e-06  6.30271e-07  6.64717e-12 -5.88494e-13  9.89157e-13 -1.00455e-13            0           -0            0           -0     -8.18226       0.7244     -1.21759     0.123654    -0.469867    0.0415987   -0.0699204   0.00710086     -57.5183      5.09227     -8.55923     0.869244
-3.49616e-05  8.56865e-06  -8.0532e-06  5.29403e-07  5.75916e-14  -1.4115e-14  1.32659e-14 -8.72076e-16            0           -0            0           -0     -8.20795      2.01167     -1.89065     0.124288    -0.292113    0.0715934   -0.0672867    0.0044233     -57.5396      14.1022     -13.2539     0.871288
-3.24177e-05  8.42663e-06 -9.28305e-06  4.91369e-07  2.18193e-12 -5.67167e-13   6.2481e-13 -3.30723e-14           -0            0           -0            0     -8.21362      2.13504     -2.35203     0.124497    -0.245809    0.0638953   -0.0703892   0.00372583     -57.5149      14.9503     -16.4698     0.871777
-3.25814e-05  4.94616e-06 -1.31419e-05  4.97923e-07   7.3976e-13 -1.12302e-13  2.98387e-13 -1.13053e-14           -0            0           -0            0     -8.14378       1.2363     -3.28485     0.124457     -0.25626    0.0389026    -0.103364   0.00391627     -57.0346      8.65838     -23.0053     0.871627
-3.90973e-05  3.07635e-06 -1.03438e-05  5.94629e-07 -2.99943e-12  2.36009e-13  -7.9355e-13  4.56182e-14           -0            0           -0            0     -8.14611     0.640972     -2.15519     0.123894    -0.397406    0.0312697     -0.10514   0.00604412     -57.2072      4.50132     -15.1351     0.870062
-3.13723e-05  8.09983e-06 -1.00873e-05  4.78108e-07  3.37934e-12 -8.72492e-13  1.08658e-12 -5.15006e-14            0           -0            0           -0     -8.17385      2.11036     -2.62819     0.124568    -0.230167    0.0594253   -0.0740069   0.00350769     -57.2136      14.7716     -18.3962     0.871924
